FANN_FLO_2.1
num_layers=9
learning_rate=0.070000
connection_rate=1.000000
network_type=0
learning_momentum=0.000000
training_algorithm=1
train_error_function=1
train_stop_function=0
cascade_output_change_fraction=0.010000
quickprop_decay=-0.000100
quickprop_mu=1.750000
rprop_increase_factor=1.200000
rprop_decrease_factor=0.500000
rprop_delta_min=0.000000
rprop_delta_max=50.000000
rprop_delta_zero=0.100000
cascade_output_stagnation_epochs=12
cascade_candidate_change_fraction=0.010000
cascade_candidate_stagnation_epochs=12
cascade_max_out_epochs=150
cascade_min_out_epochs=50
cascade_max_cand_epochs=150
cascade_min_cand_epochs=50
cascade_num_candidate_groups=2
bit_fail_limit=3.49999999999999977796e-01
cascade_candidate_limit=1.00000000000000000000e+03
cascade_weight_multiplier=4.00000000000000022204e-01
cascade_activation_functions_count=10
cascade_activation_functions=3 5 7 8 10 11 14 15 16 17 
cascade_activation_steepnesses_count=4
cascade_activation_steepnesses=2.50000000000000000000e-01 5.00000000000000000000e-01 7.50000000000000000000e-01 1.00000000000000000000e+00 
layer_sizes=91 21 21 21 21 21 21 21 2 
scale_included=0
neurons (num_inputs, activation_function, activation_steepness)=(0, 0, 0.00000000000000000000e+00) (0, 0, 0.00000000000000000000e+00) (0, 0, 0.00000000000000000000e+00) (0, 0, 0.00000000000000000000e+00) (0, 0, 0.00000000000000000000e+00) (0, 0, 0.00000000000000000000e+00) (0, 0, 0.00000000000000000000e+00) (0, 0, 0.00000000000000000000e+00) (0, 0, 0.00000000000000000000e+00) (0, 0, 0.00000000000000000000e+00) (0, 0, 0.00000000000000000000e+00) (0, 0, 0.00000000000000000000e+00) (0, 0, 0.00000000000000000000e+00) (0, 0, 0.00000000000000000000e+00) (0, 0, 0.00000000000000000000e+00) (0, 0, 0.00000000000000000000e+00) (0, 0, 0.00000000000000000000e+00) (0, 0, 0.00000000000000000000e+00) (0, 0, 0.00000000000000000000e+00) (0, 0, 0.00000000000000000000e+00) (0, 0, 0.00000000000000000000e+00) (0, 0, 0.00000000000000000000e+00) (0, 0, 0.00000000000000000000e+00) (0, 0, 0.00000000000000000000e+00) (0, 0, 0.00000000000000000000e+00) (0, 0, 0.00000000000000000000e+00) (0, 0, 0.00000000000000000000e+00) (0, 0, 0.00000000000000000000e+00) (0, 0, 0.00000000000000000000e+00) (0, 0, 0.00000000000000000000e+00) (0, 0, 0.00000000000000000000e+00) (0, 0, 0.00000000000000000000e+00) (0, 0, 0.00000000000000000000e+00) (0, 0, 0.00000000000000000000e+00) (0, 0, 0.00000000000000000000e+00) (0, 0, 0.00000000000000000000e+00) (0, 0, 0.00000000000000000000e+00) (0, 0, 0.00000000000000000000e+00) (0, 0, 0.00000000000000000000e+00) (0, 0, 0.00000000000000000000e+00) (0, 0, 0.00000000000000000000e+00) (0, 0, 0.00000000000000000000e+00) (0, 0, 0.00000000000000000000e+00) (0, 0, 0.00000000000000000000e+00) (0, 0, 0.00000000000000000000e+00) (0, 0, 0.00000000000000000000e+00) (0, 0, 0.00000000000000000000e+00) (0, 0, 0.00000000000000000000e+00) (0, 0, 0.00000000000000000000e+00) (0, 0, 0.00000000000000000000e+00) (0, 0, 0.00000000000000000000e+00) (0, 0, 0.00000000000000000000e+00) (0, 0, 0.00000000000000000000e+00) (0, 0, 0.00000000000000000000e+00) (0, 0, 0.00000000000000000000e+00) (0, 0, 0.00000000000000000000e+00) (0, 0, 0.00000000000000000000e+00) (0, 0, 0.00000000000000000000e+00) (0, 0, 0.00000000000000000000e+00) (0, 0, 0.00000000000000000000e+00) (0, 0, 0.00000000000000000000e+00) (0, 0, 0.00000000000000000000e+00) (0, 0, 0.00000000000000000000e+00) (0, 0, 0.00000000000000000000e+00) (0, 0, 0.00000000000000000000e+00) (0, 0, 0.00000000000000000000e+00) (0, 0, 0.00000000000000000000e+00) (0, 0, 0.00000000000000000000e+00) (0, 0, 0.00000000000000000000e+00) (0, 0, 0.00000000000000000000e+00) (0, 0, 0.00000000000000000000e+00) (0, 0, 0.00000000000000000000e+00) (0, 0, 0.00000000000000000000e+00) (0, 0, 0.00000000000000000000e+00) (0, 0, 0.00000000000000000000e+00) (0, 0, 0.00000000000000000000e+00) (0, 0, 0.00000000000000000000e+00) (0, 0, 0.00000000000000000000e+00) (0, 0, 0.00000000000000000000e+00) (0, 0, 0.00000000000000000000e+00) (0, 0, 0.00000000000000000000e+00) (0, 0, 0.00000000000000000000e+00) (0, 0, 0.00000000000000000000e+00) (0, 0, 0.00000000000000000000e+00) (0, 0, 0.00000000000000000000e+00) (0, 0, 0.00000000000000000000e+00) (0, 0, 0.00000000000000000000e+00) (0, 0, 0.00000000000000000000e+00) (0, 0, 0.00000000000000000000e+00) (0, 0, 0.00000000000000000000e+00) (0, 0, 0.00000000000000000000e+00) (91, 4, 5.00000000000000000000e-01) (91, 4, 5.00000000000000000000e-01) (91, 4, 5.00000000000000000000e-01) (91, 4, 5.00000000000000000000e-01) (91, 4, 5.00000000000000000000e-01) (91, 4, 5.00000000000000000000e-01) (91, 4, 5.00000000000000000000e-01) (91, 4, 5.00000000000000000000e-01) (91, 4, 5.00000000000000000000e-01) (91, 4, 5.00000000000000000000e-01) (91, 4, 5.00000000000000000000e-01) (91, 4, 5.00000000000000000000e-01) (91, 4, 5.00000000000000000000e-01) (91, 4, 5.00000000000000000000e-01) (91, 4, 5.00000000000000000000e-01) (91, 4, 5.00000000000000000000e-01) (91, 4, 5.00000000000000000000e-01) (91, 4, 5.00000000000000000000e-01) (91, 4, 5.00000000000000000000e-01) (91, 4, 5.00000000000000000000e-01) (0, 4, 0.00000000000000000000e+00) (21, 4, 5.00000000000000000000e-01) (21, 4, 5.00000000000000000000e-01) (21, 4, 5.00000000000000000000e-01) (21, 4, 5.00000000000000000000e-01) (21, 4, 5.00000000000000000000e-01) (21, 4, 5.00000000000000000000e-01) (21, 4, 5.00000000000000000000e-01) (21, 4, 5.00000000000000000000e-01) (21, 4, 5.00000000000000000000e-01) (21, 4, 5.00000000000000000000e-01) (21, 4, 5.00000000000000000000e-01) (21, 4, 5.00000000000000000000e-01) (21, 4, 5.00000000000000000000e-01) (21, 4, 5.00000000000000000000e-01) (21, 4, 5.00000000000000000000e-01) (21, 4, 5.00000000000000000000e-01) (21, 4, 5.00000000000000000000e-01) (21, 4, 5.00000000000000000000e-01) (21, 4, 5.00000000000000000000e-01) (21, 4, 5.00000000000000000000e-01) (0, 4, 0.00000000000000000000e+00) (21, 4, 5.00000000000000000000e-01) (21, 4, 5.00000000000000000000e-01) (21, 4, 5.00000000000000000000e-01) (21, 4, 5.00000000000000000000e-01) (21, 4, 5.00000000000000000000e-01) (21, 4, 5.00000000000000000000e-01) (21, 4, 5.00000000000000000000e-01) (21, 4, 5.00000000000000000000e-01) (21, 4, 5.00000000000000000000e-01) (21, 4, 5.00000000000000000000e-01) (21, 4, 5.00000000000000000000e-01) (21, 4, 5.00000000000000000000e-01) (21, 4, 5.00000000000000000000e-01) (21, 4, 5.00000000000000000000e-01) (21, 4, 5.00000000000000000000e-01) (21, 4, 5.00000000000000000000e-01) (21, 4, 5.00000000000000000000e-01) (21, 4, 5.00000000000000000000e-01) (21, 4, 5.00000000000000000000e-01) (21, 4, 5.00000000000000000000e-01) (0, 4, 0.00000000000000000000e+00) (21, 4, 5.00000000000000000000e-01) (21, 4, 5.00000000000000000000e-01) (21, 4, 5.00000000000000000000e-01) (21, 4, 5.00000000000000000000e-01) (21, 4, 5.00000000000000000000e-01) (21, 4, 5.00000000000000000000e-01) (21, 4, 5.00000000000000000000e-01) (21, 4, 5.00000000000000000000e-01) (21, 4, 5.00000000000000000000e-01) (21, 4, 5.00000000000000000000e-01) (21, 4, 5.00000000000000000000e-01) (21, 4, 5.00000000000000000000e-01) (21, 4, 5.00000000000000000000e-01) (21, 4, 5.00000000000000000000e-01) (21, 4, 5.00000000000000000000e-01) (21, 4, 5.00000000000000000000e-01) (21, 4, 5.00000000000000000000e-01) (21, 4, 5.00000000000000000000e-01) (21, 4, 5.00000000000000000000e-01) (21, 4, 5.00000000000000000000e-01) (0, 4, 0.00000000000000000000e+00) (21, 4, 5.00000000000000000000e-01) (21, 4, 5.00000000000000000000e-01) (21, 4, 5.00000000000000000000e-01) (21, 4, 5.00000000000000000000e-01) (21, 4, 5.00000000000000000000e-01) (21, 4, 5.00000000000000000000e-01) (21, 4, 5.00000000000000000000e-01) (21, 4, 5.00000000000000000000e-01) (21, 4, 5.00000000000000000000e-01) (21, 4, 5.00000000000000000000e-01) (21, 4, 5.00000000000000000000e-01) (21, 4, 5.00000000000000000000e-01) (21, 4, 5.00000000000000000000e-01) (21, 4, 5.00000000000000000000e-01) (21, 4, 5.00000000000000000000e-01) (21, 4, 5.00000000000000000000e-01) (21, 4, 5.00000000000000000000e-01) (21, 4, 5.00000000000000000000e-01) (21, 4, 5.00000000000000000000e-01) (21, 4, 5.00000000000000000000e-01) (0, 4, 0.00000000000000000000e+00) (21, 4, 5.00000000000000000000e-01) (21, 4, 5.00000000000000000000e-01) (21, 4, 5.00000000000000000000e-01) (21, 4, 5.00000000000000000000e-01) (21, 4, 5.00000000000000000000e-01) (21, 4, 5.00000000000000000000e-01) (21, 4, 5.00000000000000000000e-01) (21, 4, 5.00000000000000000000e-01) (21, 4, 5.00000000000000000000e-01) (21, 4, 5.00000000000000000000e-01) (21, 4, 5.00000000000000000000e-01) (21, 4, 5.00000000000000000000e-01) (21, 4, 5.00000000000000000000e-01) (21, 4, 5.00000000000000000000e-01) (21, 4, 5.00000000000000000000e-01) (21, 4, 5.00000000000000000000e-01) (21, 4, 5.00000000000000000000e-01) (21, 4, 5.00000000000000000000e-01) (21, 4, 5.00000000000000000000e-01) (21, 4, 5.00000000000000000000e-01) (0, 4, 0.00000000000000000000e+00) (21, 4, 5.00000000000000000000e-01) (21, 4, 5.00000000000000000000e-01) (21, 4, 5.00000000000000000000e-01) (21, 4, 5.00000000000000000000e-01) (21, 4, 5.00000000000000000000e-01) (21, 4, 5.00000000000000000000e-01) (21, 4, 5.00000000000000000000e-01) (21, 4, 5.00000000000000000000e-01) (21, 4, 5.00000000000000000000e-01) (21, 4, 5.00000000000000000000e-01) (21, 4, 5.00000000000000000000e-01) (21, 4, 5.00000000000000000000e-01) (21, 4, 5.00000000000000000000e-01) (21, 4, 5.00000000000000000000e-01) (21, 4, 5.00000000000000000000e-01) (21, 4, 5.00000000000000000000e-01) (21, 4, 5.00000000000000000000e-01) (21, 4, 5.00000000000000000000e-01) (21, 4, 5.00000000000000000000e-01) (21, 4, 5.00000000000000000000e-01) (0, 4, 0.00000000000000000000e+00) (21, 4, 5.00000000000000000000e-01) (0, 4, 0.00000000000000000000e+00) 
connections (connected_to_neuron, weight)=(0, 8.20911471341757570386e-02) (1, -1.72148331304337702530e-02) (2, -2.65861459078509457243e-02) (3, -8.78770086739711214774e-02) (4, 8.98456533205563984135e-02) (5, 4.31840829884156535146e-02) (6, 8.11589059699703851969e-02) (7, -9.71742572866181840430e-03) (8, 3.97465258438732815804e-02) (9, -9.05643850253515791948e-02) (10, -2.46676631500830460808e-02) (11, 5.40075896144885381212e-02) (12, 5.73904437596589878101e-02) (13, 6.16026088766217366777e-02) (14, -4.88762233202231291540e-02) (15, 4.00950842638344261137e-03) (16, -9.13001511801622006592e-02) (17, -8.77708607730403878033e-02) (18, 2.14676527127078096979e-02) (19, 9.28756041512443369923e-02) (20, -2.04473245437804818092e-02) (21, 5.75086763873136896930e-02) (22, -9.01770724770571685536e-02) (23, -2.44625124735917513774e-02) (24, 2.15167250124235071018e-02) (25, -1.69852063084913185165e-02) (26, 3.46202139747880943688e-02) (27, 6.34566214037814851912e-03) (28, 8.14305462998728309121e-03) (29, -6.34976378366482741011e-02) (30, 8.21752707616929117806e-02) (31, 6.64255927487190922509e-02) (32, 6.95877156456551210217e-02) (33, -6.86299713857993487487e-02) (34, 9.73553769557964840398e-03) (35, 3.93423066292157841417e-02) (36, 6.22736307497430002789e-02) (37, 2.10178427752383198412e-02) (38, -4.66450322035434072898e-02) (39, -8.74677581511542831527e-03) (40, 6.31414748077811088800e-02) (41, -3.96558522558707257644e-02) (42, -3.24619942755258791139e-03) (43, 4.18674081422133539943e-02) (44, -6.41781099606658217427e-02) (45, 8.48623800151698526317e-02) (46, 6.57157915446700685580e-02) (47, 2.09144421346307285425e-02) (48, 5.22115263950653010760e-02) (49, 3.32371190181394021712e-02) (50, 3.44085027664478293463e-02) (51, -9.08754861622128040644e-02) (52, -9.72090492406849776552e-02) (53, 8.75891646576909266297e-02) (54, 1.17828552457841960119e-03) (55, 5.06310108758586813194e-02) (56, 8.32081267850999506397e-02) (57, -5.21804229908500380453e-02) (58, -7.28916381074976166277e-02) (59, -3.72670671827031937950e-02) (60, 6.26079980576527556080e-02) (61, -1.18845601691658451365e-02) (62, 6.50386057990486876612e-02) (63, -7.43149085373629725293e-02) (64, -2.40308430879708212480e-02) (65, -4.43518820691187441729e-03) (66, 1.28564016062400737067e-02) (67, 2.23260932553225356634e-02) (68, 4.90792632599572897778e-02) (69, 9.74434987756902376566e-02) (70, 5.69712446133570620671e-03) (71, 3.74240145187478417954e-02) (72, 4.54398226972282381908e-02) (73, -3.58794003223874349850e-02) (74, -9.14510272262542139865e-02) (75, 6.49688596694162484591e-02) (76, -1.38347761171580541095e-02) (77, 3.73246979893082433954e-02) (78, -9.93679220096343740476e-02) (79, -7.18378495056325450108e-02) (80, -4.62863038695667042277e-02) (81, -2.44590342715135175555e-03) (82, -8.32677342164847428263e-02) (83, 8.11170162850595316550e-02) (84, 5.81741757785636387501e-02) (85, 7.74703081992682007773e-02) (86, -2.85563893608617967723e-02) (87, -5.00986309231827575683e-02) (88, 1.48375017892945354481e-02) (89, 2.46117563056159581458e-02) (90, -7.19469955285790413457e-02) (0, 3.72313770584783195871e-04) (1, -2.88507459428208566654e-02) (2, 8.53003577250403266508e-02) (3, -1.00204394420938223964e-02) (4, -3.19958211321512489556e-02) (5, -2.69154311841727535148e-02) (6, -8.36538584479997182619e-02) (7, 1.94374308266312828541e-02) (8, -5.56283971352518127884e-02) (9, -7.11386752380338549528e-02) (10, 3.77110027743270265210e-02) (11, -2.76134603123117522427e-02) (12, -4.95977023256324936473e-02) (13, -5.48033375742487741111e-02) (14, -4.15735549331460452205e-02) (15, -6.62216174735522494776e-02) (16, -1.65729793513875525712e-02) (17, -6.02986189483168955050e-02) (18, 5.44534810492623422284e-02) (19, 6.90246547646305164125e-02) (20, -7.46854310677898397541e-02) (21, 3.01710336690327735054e-02) (22, 6.20787499232010363606e-04) (23, 1.05558758208165494319e-02) (24, 4.35546804501763321071e-03) (25, 4.40289994164961770440e-02) (26, 5.49721660593876365608e-02) (27, -9.66851887972855345010e-02) (28, -3.18123977048604886231e-02) (29, -9.37570466008502967359e-02) (30, -5.56812989623186108123e-02) (31, -9.74421605142020696988e-02) (32, -8.13785730669304152585e-02) (33, 6.32439407467200731539e-02) (34, -5.60700232512704385690e-02) (35, -1.87703906478474645547e-02) (36, 5.59380512262354356867e-03) (37, 1.87597035623635333135e-02) (38, -8.68000721136519270971e-02) (39, 2.72686940853053734479e-02) (40, -4.48106316492927272965e-02) (41, -3.85224515820278418099e-02) (42, -6.48708327077845703368e-02) (43, 8.14146099379350202119e-03) (44, 2.74617414337544850367e-02) (45, 2.62993697047034358087e-05) (46, 2.16565606529673833347e-02) (47, -9.52607954016525954044e-02) (48, 1.07771786705446077914e-02) (49, -6.18339277306662049583e-02) (50, -7.56775814886845310525e-02) (51, -6.05785695546563578151e-03) (52, -4.55153973178273121847e-02) (53, -2.55554269324892203985e-02) (54, -3.65891021037434358010e-02) (55, 8.08526326315843757442e-02) (56, 1.99323946717336435153e-02) (57, 1.85912703449745003725e-02) (58, -6.44248214334909863332e-02) (59, 4.75663674755525678339e-02) (60, -4.33968518111453455122e-02) (61, 3.57092649149286164856e-02) (62, 1.99657315262807451284e-02) (63, 7.70089311318081365387e-02) (64, 2.55537124778267114855e-02) (65, 6.54883160272030639959e-02) (66, -4.98903053574125121550e-02) (67, -2.44786959944328199115e-03) (68, -5.02061932384478895597e-02) (69, 7.47241886810723204837e-02) (70, -3.62125894978832518767e-02) (71, -7.88876280671170770908e-02) (72, -4.51237224715748883042e-02) (73, 9.04217853784229225189e-02) (74, -7.80181668875928047147e-02) (75, 2.59136437829836363544e-02) (76, 6.70156067083259449069e-02) (77, -2.64139595592232587218e-02) (78, 9.05252513120785862188e-02) (79, -5.15396549740960441266e-02) (80, -4.04122274507379766750e-02) (81, 4.78131585814211973462e-02) (82, 1.08706208883734539022e-02) (83, 8.41278696406243392536e-02) (84, -8.26819371609301273507e-02) (85, -7.11548071866762998905e-02) (86, 7.92815147623657234810e-02) (87, 8.36858489503788105512e-02) (88, -8.76935829615759637745e-03) (89, -3.83341115484036598637e-02) (90, 3.83032094030032708998e-03) (0, -2.65415573680880499674e-02) (1, 6.34676451410313979817e-02) (2, -9.81919194018607693897e-02) (3, 4.63168488295441493907e-02) (4, -3.43291885370466606786e-02) (5, -7.17006719095443639800e-02) (6, -8.81815740382339841030e-02) (7, -5.06933994543848076564e-02) (8, 9.87452613845169052675e-02) (9, 1.40298438569783643151e-03) (10, -4.65984292464111243826e-02) (11, -4.08500260180085367212e-02) (12, -5.26267838733526088779e-02) (13, -7.07291191935399549129e-02) (14, -9.34632356616754839118e-02) (15, -2.68798533389296052942e-02) (16, 9.89358634433220862636e-02) (17, -7.92428846207714615568e-02) (18, 9.19796505292335558890e-02) (19, -9.84954236477606631661e-02) (20, 1.43924877836811848653e-02) (21, 5.38543484077013204225e-02) (22, 3.16840036024432086803e-02) (23, 2.55054453155233173955e-02) (24, -7.76826539819830408362e-02) (25, 2.91676988127145542240e-02) (26, 7.41670689312987491126e-02) (27, 7.15263297038275652762e-02) (28, 5.79053785920598668158e-02) (29, -7.89993933813364947183e-03) (30, -7.30569425698596314200e-02) (31, 2.11578398557986518957e-02) (32, 7.22039872198549231852e-02) (33, 7.62121202252302037961e-02) (34, -2.21045710330829321688e-02) (35, -1.33556548075587488283e-02) (36, -5.35962370459926104593e-02) (37, -1.20575656867424642338e-02) (38, 3.68667236844407511520e-02) (39, -9.23832624271448965558e-02) (40, 5.73862040353242119917e-02) (41, -6.88630305776616845337e-03) (42, -6.65775356158017361796e-02) (43, -7.07906086671945128375e-02) (44, -5.90374664267575219312e-02) (45, 8.98285331869454750642e-02) (46, -3.58924751746566711441e-02) (47, -2.97312621045381884899e-02) (48, 5.96353967226121786660e-02) (49, 2.46980107582261548815e-02) (50, 6.97558350069075044919e-02) (51, -7.99360364303227377558e-02) (52, 7.46295323208230609868e-02) (53, -1.62443548483291143325e-02) (54, -1.28758070251495694569e-02) (55, 5.31071930245872753790e-03) (56, 8.53310804556501600882e-02) (57, -7.36220371616639057688e-02) (58, 1.22370140238784938513e-02) (59, 7.95531849003136282139e-02) (60, -2.08459200582816889247e-02) (61, -5.84009797725700413595e-02) (62, 4.39418369135361752686e-02) (63, -4.68528812813895564893e-02) (64, 3.36792010438561467689e-02) (65, 7.75800617911399925664e-02) (66, -6.26457421630948890767e-02) (67, -1.39812150136215760515e-02) (68, 2.23652797749820213269e-02) (69, 6.51996082888115086051e-02) (70, -8.11869087499455521773e-02) (71, 4.51080978487372469266e-02) (72, -3.13969694363865001185e-02) (73, 1.91265994185805220107e-02) (74, -2.95874486386378792585e-03) (75, -7.48364612772751125469e-02) (76, -3.48407424640587715103e-02) (77, -3.61189014370721234171e-02) (78, 3.89041591873933237378e-02) (79, -1.49331177902398051088e-02) (80, -8.61405827327850620589e-02) (81, -4.03555445110150151633e-02) (82, -7.16394836078773078469e-02) (83, -2.30397734697113353020e-02) (84, 1.57576962062261371512e-03) (85, 8.22977871440997710284e-02) (86, 9.96533635265664866076e-03) (87, -2.65782562200874879210e-02) (88, -5.36333270722438373856e-02) (89, 6.41729151488613230869e-02) (90, -5.06954652435696664914e-02) (0, -5.55018474124832142391e-02) (1, 9.88272472969500825890e-02) (2, 8.90996961624106881272e-02) (3, 9.77879813637102107693e-02) (4, -2.44632946360240979833e-02) (5, 1.45666348546010411547e-02) (6, 7.30689688171886897461e-02) (7, 8.55379485969796071743e-02) (8, 4.91971682923667691378e-02) (9, 1.72943962423800952355e-02) (10, -6.78336773970273504419e-02) (11, 9.71688206559189887601e-02) (12, 5.74223471885502087519e-02) (13, -3.63876317697703344223e-02) (14, -4.77262162853578086885e-02) (15, 6.81824065886463964725e-02) (16, -7.80528457449937984602e-02) (17, 1.06063478027940295140e-02) (18, 2.46726818564242233317e-03) (19, -4.78057096592497121623e-02) (20, 4.87541822960341694748e-02) (21, 7.94543156552962176464e-02) (22, -7.09898316379148491828e-02) (23, 6.70870310353356789218e-03) (24, -1.39831155238710255068e-02) (25, 3.33997979108933695791e-02) (26, 1.84231967847220227952e-02) (27, -2.17278721037461597376e-02) (28, 6.41202463727908872348e-02) (29, 4.82808574240211202389e-02) (30, 3.11082420654872383869e-02) (31, 7.21067603743587443033e-02) (32, 7.05465646226088091003e-03) (33, -2.64884981418982944079e-02) (34, -4.23801793067698356898e-02) (35, 7.63618908983455801920e-02) (36, -3.57791087668823393209e-02) (37, -1.14259267893496337110e-02) (38, 7.25213655183059996423e-02) (39, -2.61895577085296850373e-02) (40, -3.55415533482389064956e-02) (41, 5.65045080762536858221e-02) (42, -9.51480225276504637533e-02) (43, 4.46860977458227934256e-02) (44, 3.86845849560874394113e-02) (45, -6.18453143757011977732e-02) (46, 9.36374759090120439842e-02) (47, 8.68194580724223896606e-02) (48, -6.45132659251375362164e-02) (49, -1.89565869673029956111e-02) (50, 9.99486319206706885776e-02) (51, 4.56519540297844333976e-02) (52, 5.11957748166971468584e-02) (53, -7.47529563856919876397e-02) (54, 7.25882635409358240031e-02) (55, 5.92743695025567118861e-02) (56, -3.90584681572937325589e-02) (57, 7.34062765636240080469e-03) (58, 1.31747306807450184629e-02) (59, -9.51024873434469231182e-02) (60, 3.69352268478432346765e-02) (61, 3.62243802767396455566e-02) (62, -5.90487794748673980316e-02) (63, -1.70786307102942375158e-02) (64, 7.61549409905152574485e-02) (65, -2.47642031998236769597e-02) (66, -1.78189246951228376370e-02) (67, -9.26136875348685176257e-03) (68, 6.67161063920716362885e-02) (69, 9.89973425517878258262e-02) (70, 8.98593368040267494179e-03) (71, 1.52235400538614975424e-02) (72, -5.83454757426356135364e-02) (73, 7.54269944769889733038e-02) (74, -3.02934891827977073597e-02) (75, -4.28191000169991092816e-02) (76, 3.19282125938097766094e-02) (77, 2.68610988119404557606e-02) (78, -3.74064882529187500704e-02) (79, -7.98267530348649168026e-02) (80, 6.24696101479560016861e-03) (81, -4.32044552291281705458e-02) (82, 9.41815192437101544876e-02) (83, -4.26397626687564750003e-03) (84, -4.78545296212527088153e-02) (85, 4.55729183870961229719e-02) (86, -2.66254755756613926965e-02) (87, 3.20300746955510459713e-02) (88, -3.75600770565432118264e-02) (89, -5.26568069454592599388e-02) (90, -1.17441763526069161555e-02) (0, 4.71593330002596008294e-03) (1, 1.56500513343649089171e-02) (2, 6.40363355252157873121e-02) (3, 8.80147078104751533212e-03) (4, 8.42413379757671748616e-02) (5, -2.77098871647769376403e-02) (6, 8.49982550402070546891e-02) (7, 5.61444791352041089327e-02) (8, -1.56785179526075513223e-02) (9, 2.63186538516318214997e-02) (10, 4.18425593988000985024e-02) (11, 2.78220840035762681519e-02) (12, -2.19506236922749030371e-02) (13, -7.45022507669215600101e-02) (14, 5.34619106353762842121e-03) (15, -7.02814766834612553170e-02) (16, -5.30834825734601903346e-02) (17, 6.52946386429369279858e-02) (18, 3.93817827277999771285e-02) (19, 5.15842393371803431545e-02) (20, -9.83176418924440465030e-02) (21, -4.51949853554431332792e-02) (22, -4.39753416690263632116e-02) (23, -5.47487843741369314965e-02) (24, -6.15437566168602970262e-02) (25, -6.65275848157162175145e-02) (26, -9.44681998128143185500e-02) (27, 8.13078463702012754766e-02) (28, 8.21357227358226887892e-02) (29, -7.48902954915157265114e-02) (30, 4.60954138388440168295e-02) (31, 2.97284694630798491943e-02) (32, -9.99311467263527403171e-02) (33, 9.84008851035323740819e-03) (34, -8.11999551125525548256e-02) (35, -8.07430692818965067836e-02) (36, -6.82604650653344247058e-02) (37, -4.00688652516784926672e-02) (38, -4.16072057944598394652e-03) (39, -9.67660624173084238375e-02) (40, -2.11538224902616603385e-02) (41, 6.82289263162140502406e-02) (42, -4.61611934102202359220e-02) (43, 3.39899689322322381968e-02) (44, -4.09045219998733292077e-02) (45, 1.42348921230026521922e-02) (46, 6.27632658838967877335e-02) (47, -5.18387886456486354780e-03) (48, -5.17384887980480226433e-02) (49, 6.73136340357497336973e-02) (50, 5.74833524924768662911e-02) (51, 5.39963356550234169218e-02) (52, -7.88083977199434265737e-02) (53, 6.55811170732513715187e-02) (54, 6.95336764726743692538e-03) (55, 6.45683257434281759890e-02) (56, -5.80574972606734962532e-02) (57, 4.74520618550993422691e-02) (58, 5.27613920242345074696e-02) (59, 2.03617110190572186967e-02) (60, 6.70575731634560912031e-02) (61, -9.58608811629378665398e-02) (62, -2.16097962373713557704e-02) (63, -9.31511659625249427430e-02) (64, 5.97926211377536875879e-02) (65, 9.02321426480359317646e-02) (66, -9.91860000986583417726e-02) (67, -1.41634795199626663254e-02) (68, -6.89187107328878417745e-02) (69, 8.62584784839982715576e-02) (70, 7.15222723594617637577e-02) (71, -9.16856250684200679846e-02) (72, -2.83584292113014807546e-02) (73, 3.69706544782936047389e-02) (74, 7.32500134084885096142e-02) (75, 9.51373971668738049878e-02) (76, 3.46902786095787812881e-02) (77, -2.00490369259367640087e-02) (78, -8.90850138515379419424e-02) (79, -6.49098919655848732857e-02) (80, -3.86914668831982427183e-03) (81, -1.38519440039689312356e-03) (82, -8.47552824677720063884e-03) (83, 1.90595461068767332846e-02) (84, 8.42105027919484855348e-02) (85, -5.44224101273688351532e-02) (86, -9.34354737409286983940e-02) (87, 8.81873778455834478329e-02) (88, -8.83213740567098809509e-02) (89, 9.04230775854438229011e-02) (90, 2.07012063026260489940e-02) (0, -2.86816717751391322966e-02) (1, -5.61424893310783351685e-02) (2, 6.23837414229719902647e-02) (3, -1.13296557259293835529e-02) (4, 2.17723052061872951457e-02) (5, 6.18720873378965433020e-02) (6, -9.18663775665957138550e-02) (7, 3.55804896593114733383e-02) (8, 6.73720947290500637994e-02) (9, -4.03911171781905740941e-03) (10, 3.64947517634684123755e-02) (11, 4.79380643845640080913e-02) (12, -7.75541632743160288394e-03) (13, 7.32179864359955301367e-03) (14, -1.75893304893499149988e-02) (15, -6.56976630577478341866e-03) (16, -2.89143190733563140368e-03) (17, -2.45096851913256356947e-02) (18, -2.43263940988255010500e-02) (19, -8.68682000230818485154e-02) (20, -2.84071468541987736528e-03) (21, -5.65200594213749740735e-02) (22, 5.19825096128400526707e-02) (23, 8.52526434524414067351e-02) (24, 1.43636959517893093678e-03) (25, -6.11379797677861699934e-02) (26, 3.55038455531841087853e-02) (27, -9.67140260845437797765e-03) (28, 7.35731418784681401313e-02) (29, -3.59237408984581924054e-02) (30, 1.97166941577496084015e-02) (31, -4.03309770421243704575e-02) (32, 4.16729549151615141778e-02) (33, 7.34008050656427823988e-02) (34, -2.89408579075103589151e-02) (35, 9.72657507119064762557e-02) (36, -6.10579470723930130271e-03) (37, 3.71795185907214803533e-02) (38, -3.22384393910869690436e-02) (39, -6.64127641098973681144e-02) (40, 3.65133673284845708396e-02) (41, 4.47470136916268690364e-02) (42, -4.56891532991892182491e-03) (43, 2.47497251072663522475e-02) (44, -9.99474062792700956859e-02) (45, -4.43868070205968648367e-02) (46, 4.35324435605710796660e-02) (47, 4.48914989423800717128e-02) (48, 7.77693501390484681624e-02) (49, -6.37010673314867825745e-02) (50, 1.20714523970644593137e-02) (51, -4.63381559751973627626e-03) (52, 6.39220398666848904634e-02) (53, -6.64650575630151285722e-02) (54, -9.48689638122389988784e-02) (55, -2.33800602462342181631e-02) (56, -9.80160675631230465799e-02) (57, -8.64855007043957013657e-02) (58, -5.50474768624748672652e-02) (59, 2.50622934908563028966e-02) (60, 7.55998570304342171200e-02) (61, 5.75621663730909449708e-02) (62, 1.55022560520805818829e-02) (63, 2.11498161386687519303e-02) (64, -1.14721135588845522812e-02) (65, 3.04748559382193966172e-02) (66, -9.06734685502835618953e-02) (67, -2.84268489905195216594e-02) (68, 8.16381135175463651388e-02) (69, 6.04540512638579372040e-02) (70, -6.76727932071606586018e-02) (71, 2.15181990371031764409e-02) (72, -1.99016950043407261917e-02) (73, -4.75899907999073473741e-02) (74, -8.72112880131998592648e-03) (75, 9.62127660952514923709e-02) (76, -8.61824751532219435202e-02) (77, 9.47204936970656025119e-02) (78, 9.78519601773309016801e-02) (79, 3.83428263875387337345e-02) (80, -9.55633581273295507064e-02) (81, 2.78523808851539773912e-02) (82, -6.87121990445193620012e-02) (83, -6.16343377696357622164e-02) (84, -2.54738484837297787799e-02) (85, 3.46583472968252370716e-02) (86, 8.47494372372528442707e-05) (87, 8.75477447097456652758e-03) (88, -4.74599853386259602772e-03) (89, -4.02329212021135321220e-02) (90, 4.64751431259376041050e-02) (0, -8.50578537292310393747e-02) (1, -8.32819873943711763697e-02) (2, -6.36226355222967859815e-02) (3, 5.82557830212013169624e-02) (4, -6.37929399057936552531e-02) (5, -8.58400681100680851277e-02) (6, 7.30009825743043322399e-02) (7, 4.69395831257079024224e-02) (8, -2.12118430643360028620e-02) (9, 2.78750403697254102442e-02) (10, -2.97399851936536105401e-02) (11, -1.51612003672938958207e-04) (12, 9.31784170253401322626e-02) (13, -3.83095153385176884209e-02) (14, 9.58770295570903104132e-03) (15, 6.91110024804795913811e-02) (16, -5.97415538107352733777e-02) (17, 7.83655187510280126784e-02) (18, 8.70331607575220711492e-02) (19, 8.18160301184631399973e-02) (20, 5.07001787919801813476e-02) (21, -5.23793333516600016081e-03) (22, 7.25967977119526819418e-02) (23, 5.44310747591839928783e-03) (24, -1.00296459763972972690e-01) (25, -9.77825039460549216841e-02) (26, 8.00637438648566929222e-02) (27, 4.90422751225378372730e-02) (28, -1.89569936610859291620e-03) (29, 1.38097471944199079452e-02) (30, 9.00661230783178085035e-02) (31, 5.66985356269960900227e-03) (32, 2.31388649689623811245e-02) (33, -5.19765979943599201740e-02) (34, -6.91814077416744444005e-02) (35, -7.52150277166137026796e-02) (36, 9.07383706469921252902e-02) (37, 9.14959920936134485370e-02) (38, 3.61527639776580006492e-02) (39, 3.34057514770894764533e-02) (40, 4.49192002154843866846e-02) (41, 8.99826027259721834828e-03) (42, 6.68920623922094337299e-02) (43, -7.25735609037909401575e-02) (44, -7.76130527172104872635e-02) (45, 6.86420282642772189297e-02) (46, 3.17357626502046408223e-02) (47, -7.88920640137502487965e-02) (48, 9.13905968322953343730e-02) (49, 9.05585434449027171233e-02) (50, -1.08289664005872428298e-02) (51, 4.11443125932280592827e-02) (52, -2.47174671292310250970e-02) (53, 5.45857095546428833233e-02) (54, -6.11366679824375466867e-02) (55, 6.98100299340874835829e-02) (56, -5.66838204406823475967e-02) (57, -3.85675734679945675376e-02) (58, 7.74582951906079841820e-02) (59, 6.27280505037175299676e-03) (60, 5.70038533146123987949e-02) (61, -4.84673206981250451197e-02) (62, -5.79663124064185020234e-02) (63, 7.90199862843879302643e-02) (64, -3.75307000573764162898e-02) (65, -9.24326626198303108461e-02) (66, -7.84190836499945725935e-02) (67, -6.55620315710200574078e-02) (68, -6.72591595715282264401e-02) (69, -5.33747844668807994162e-02) (70, 5.87199012669720535329e-02) (71, -2.44978286558884816859e-02) (72, 1.93272591058279256948e-02) (73, -5.42084048889907230140e-02) (74, -6.48756249410798319088e-02) (75, 2.06814463730571364286e-02) (76, 1.76932082712601135288e-02) (77, -4.09354802246474289151e-02) (78, -5.60062244020023605046e-03) (79, -2.68061208108459764210e-02) (80, -1.58740203932639552253e-02) (81, 8.87599666611257887006e-02) (82, 7.73033262338351512266e-02) (83, -1.74991008019476784741e-03) (84, -4.58487310402804909559e-02) (85, -8.21980236657732406258e-03) (86, 9.41593574563185237158e-02) (87, -2.41760558196247657414e-02) (88, -8.35236733489054389290e-02) (89, 5.14998398998261081028e-02) (90, -6.87590753006636079547e-02) (0, -1.34574843309861590795e-02) (1, 5.20730845302225849730e-03) (2, 6.78353362608265786360e-02) (3, -4.94664874789163110796e-03) (4, 6.69515277989423118754e-02) (5, 4.17504544430131810384e-02) (6, 7.53689022608574205053e-02) (7, -5.27474419800472091313e-02) (8, -4.27419679721525308524e-02) (9, 9.34745063459985481291e-02) (10, 5.46875397068746493812e-02) (11, 5.72533170766650265082e-02) (12, 3.22141658560330390593e-02) (13, 3.70865997101630373578e-02) (14, -8.16728219017860274098e-02) (15, 1.61458382930828731050e-02) (16, 2.31201597595882234193e-02) (17, 2.93328356881509925980e-02) (18, -7.45533471484520343653e-02) (19, 4.69950495281766800204e-02) (20, 5.69991462664087775170e-02) (21, -3.22245672636668895050e-02) (22, 7.45730645916891227154e-02) (23, 7.63990189178480882948e-02) (24, -8.29602171877720784288e-02) (25, 1.59759969941957770401e-02) (26, 4.43450679260504743162e-02) (27, 8.41131516505232157410e-03) (28, -6.34627132518581632548e-02) (29, 1.00878221451492569583e-01) (30, 1.69963462312690792577e-02) (31, 5.83817547507280362740e-02) (32, 9.16127782622180586447e-02) (33, -2.64367526529452820383e-02) (34, -1.34411444355321107319e-02) (35, 4.93121411637832476882e-02) (36, 5.08625118295460490470e-02) (37, -9.03944780488872071111e-03) (38, -5.39854322415208795483e-02) (39, -4.56840480316009489581e-02) (40, -8.21273200570391409547e-02) (41, -1.95805290493727135459e-02) (42, 5.37458354257631179540e-02) (43, 1.69505577943564710031e-02) (44, -2.45571315531832451429e-02) (45, 9.85444967517525721723e-03) (46, -8.48557297610356003892e-02) (47, 5.73745056158561986259e-02) (48, -4.24903916182047744488e-02) (49, -1.65192714174210442124e-02) (50, -4.19700251488541800637e-02) (51, -5.27526926528979617226e-03) (52, -6.91641085783343406712e-02) (53, 5.99562219550143632452e-02) (54, -1.85625116660977432237e-02) (55, 4.90881846678035971276e-02) (56, -6.97092022928949561766e-02) (57, -2.20136779939041488108e-02) (58, -1.60372470774302507135e-02) (59, 7.42422503029676189579e-02) (60, -1.75957218434193954533e-03) (61, -3.86460177709502389343e-02) (62, -7.34978492273788003297e-02) (63, 4.98158356897608067815e-02) (64, -7.03444588421846955795e-02) (65, 7.38837330732868002858e-02) (66, -4.69009541984452965613e-02) (67, -3.40243826774354121700e-02) (68, -2.76535392459893135386e-02) (69, -5.78800948526089278912e-02) (70, 9.63319583489336273008e-02) (71, -3.12489291299531922463e-02) (72, -5.83479955177702222513e-02) (73, -6.10478817172941529146e-02) (74, -2.44577529613420885379e-02) (75, -5.73909310010160197968e-02) (76, 1.68933024656478456005e-02) (77, 5.33608416109572769592e-02) (78, -3.67926749628340182818e-02) (79, 2.45699503057043725299e-03) (80, 2.24705774706781130634e-02) (81, 4.96140480010928419663e-02) (82, 8.07188932971553141371e-02) (83, -4.05260256005074079311e-02) (84, 7.55670789501771272834e-02) (85, -7.77800387559034606122e-02) (86, 7.81948872602199751558e-02) (87, 2.24980549674448013220e-02) (88, 1.46777026237583066610e-03) (89, -4.74842166467928095130e-02) (90, -8.82361879649688207738e-02) (0, 3.05446082178285286540e-03) (1, 7.62178421851204962456e-02) (2, -4.50667809574844310111e-03) (3, -9.69578380348424806456e-02) (4, -4.18070904110194527248e-02) (5, -5.45945591706325436543e-02) (6, 3.52082714572885813187e-02) (7, 1.70035313499655518776e-02) (8, -7.25451360067842637713e-02) (9, 7.14360006643232313406e-03) (10, 9.66721737818796410247e-03) (11, 7.07228255907944719505e-02) (12, 5.75004333064761882777e-02) (13, 2.25262194588851105692e-02) (14, -2.24103275886181653453e-02) (15, 4.78936430581365230053e-02) (16, -8.08768020481764882135e-02) (17, 5.83026191900760312747e-02) (18, -1.91675405327518220966e-02) (19, 5.57752943690576000191e-02) (20, 4.76663928349851245825e-02) (21, -2.57159215983602390532e-02) (22, -3.85281672326233740056e-02) (23, -9.61254449332054755617e-02) (24, 1.48011384677753463773e-02) (25, 1.55416948676283025316e-02) (26, 9.86681363365416452815e-02) (27, 1.77999841610436311534e-02) (28, -5.29722442068641455326e-02) (29, 9.76439526936160977211e-03) (30, -1.06749018239995843715e-02) (31, 6.80108656737973826800e-02) (32, -3.04005233909082697719e-02) (33, 8.07969206619436330907e-02) (34, -6.09810228962501393868e-02) (35, 3.78438671238371104888e-02) (36, 1.26334676458486581951e-02) (37, 6.58477812484661723103e-02) (38, -2.41315249857636422715e-02) (39, -5.88875960158589673021e-02) (40, 3.39261032077574076204e-02) (41, 5.61536082173288847441e-02) (42, -4.39251907497184984619e-02) (43, 1.84931393217062575718e-02) (44, -5.79386803481892961876e-02) (45, -7.79242649617930931150e-03) (46, -7.26545857930968458360e-02) (47, -5.16664231189920344911e-02) (48, -6.56699095938474836087e-02) (49, 4.25401845037578565933e-02) (50, -7.46882923485590322077e-02) (51, -8.05305463334638760298e-02) (52, -1.76515890070562848913e-02) (53, 3.54133329034355542886e-02) (54, 4.82134632281527256842e-03) (55, 5.14898131887503995863e-02) (56, -6.95811670360967082782e-02) (57, 9.15644457773728132066e-02) (58, -9.39011889345722911004e-02) (59, -5.28043363655699010684e-02) (60, 5.29140198046960871792e-02) (61, 6.87228811811980023344e-03) (62, 7.76418962944138146831e-02) (63, 4.89162977615449356961e-02) (64, 1.43354515064036923400e-02) (65, 2.45662342840183740844e-02) (66, 2.58063963645779916034e-02) (67, 6.71103224317858969988e-03) (68, -5.09242133258848567179e-02) (69, -6.99603619722340835940e-02) (70, -5.22755599594349334991e-02) (71, 5.43554822435991999430e-02) (72, -2.25122650385199199463e-02) (73, 1.74698998957941095678e-02) (74, -2.20690749314978590379e-02) (75, -8.79321415743056916670e-02) (76, 1.55689497345556557804e-03) (77, 6.38133048571568745055e-03) (78, -5.99331543356315110671e-02) (79, -7.03047505549482948384e-02) (80, -4.16129016564310491577e-02) (81, -5.81221564182401242982e-02) (82, 7.07419660009080963903e-02) (83, -8.91099988128912223750e-02) (84, -2.07166338562491773867e-02) (85, -8.21878873687734295972e-02) (86, -8.63829053606089414252e-02) (87, -3.67144050102434643668e-02) (88, -3.73822737237840124758e-02) (89, 8.47084720715903958729e-04) (90, 7.24848055571650773388e-02) (0, 4.11215840296375104157e-02) (1, 4.63699513422300910181e-02) (2, 6.69977178965847214309e-02) (3, 6.95905073281160996279e-02) (4, -2.44581176844278977422e-02) (5, -3.16093537753857171946e-03) (6, 8.87659674646685409316e-02) (7, -4.47962339162492409472e-02) (8, -4.53287284999124365226e-02) (9, 6.18131902914927505721e-02) (10, 9.65928517986636703263e-02) (11, 9.80125626451185810728e-02) (12, 1.26466105187217174588e-02) (13, -5.62740648434226983787e-02) (14, -5.87239930626300005168e-02) (15, 9.54761965452340793936e-02) (16, -2.78198157157168932119e-02) (17, 6.99412748458377170335e-02) (18, 3.22169801130204533357e-02) (19, 5.87254430021900697412e-02) (20, -5.70388859585149732290e-02) (21, -5.58858404543503967110e-02) (22, -9.54238105174090439631e-02) (23, 1.76419396361081060043e-02) (24, 9.61606830309625487674e-02) (25, 6.26355820713942173378e-03) (26, -6.76259686452394953582e-02) (27, -1.96859542153120653518e-02) (28, 3.09787947114050152275e-02) (29, 5.11057778125355646748e-02) (30, -6.94285371833922998475e-02) (31, -7.34101954660190958446e-02) (32, 5.53899223782074387468e-02) (33, 4.37259572946313013198e-02) (34, 4.64236464763816067403e-02) (35, -4.39628251824289301153e-02) (36, -7.21888522062271997815e-02) (37, -7.17062724690877700828e-02) (38, -9.99894308143935983679e-02) (39, -2.97795154891586089096e-02) (40, -9.05905348782263530882e-02) (41, 2.12858772228584069985e-02) (42, -2.52419228824443762221e-03) (43, -5.78508624363221826692e-02) (44, -7.89333592077084283956e-02) (45, 1.17748149544920181764e-02) (46, -2.23015649387939066117e-02) (47, 8.65291163289150407067e-03) (48, -9.52648962520487585515e-02) (49, 2.33581443010488984391e-02) (50, 6.79973937557222102290e-02) (51, 1.67791003943671725163e-02) (52, 1.47808362821169880785e-02) (53, -4.08042665709185264911e-02) (54, -1.90580130166069922071e-02) (55, 2.30643003077038444282e-02) (56, 9.58025606754533548548e-02) (57, 8.09113973565082494899e-02) (58, 1.88053587632644077232e-02) (59, 9.61619136643100391737e-02) (60, 5.74765289673047907737e-02) (61, 2.88381344657617213686e-03) (62, 6.38695889389618715049e-02) (63, -5.91326465506628873303e-02) (64, -1.20769240847645922127e-02) (65, 8.03841607548349407208e-02) (66, -2.06884904602636365833e-02) (67, 8.17211627139856344737e-02) (68, -1.62185864337720036729e-03) (69, 2.86673480174269405818e-02) (70, -6.70214242033664031606e-02) (71, 7.79329165495473430436e-02) (72, 8.04548353043870595469e-02) (73, -2.78418123567478505154e-02) (74, 3.71792129220838152293e-02) (75, -8.10069020486077623344e-02) (76, 7.61175082926349999557e-02) (77, -2.85400907626334673917e-02) (78, -2.02136559713056614129e-02) (79, 8.94417809427835858171e-02) (80, -9.11262785601286984249e-02) (81, 6.54333357092993644910e-02) (82, -7.16184413730621416416e-02) (83, -3.78802518289113390737e-02) (84, -1.43823146098891862382e-02) (85, 1.98265902014153581889e-02) (86, 8.92143282539064191861e-02) (87, -6.77109744469152619040e-02) (88, -9.64895626560728220111e-02) (89, 3.19449672956994695783e-02) (90, 6.77733371693813035908e-02) (0, 7.51128127049570243345e-02) (1, 8.19299748975249597649e-02) (2, 2.89250886305611083771e-02) (3, 3.94696157721522028483e-02) (4, 2.84379875949661298229e-02) (5, -1.54059423124711415698e-02) (6, 8.83139171649316156998e-02) (7, 3.55882029931097604303e-02) (8, 5.41353178907850035584e-02) (9, -2.29901618852099316748e-02) (10, 2.16830477070758184666e-02) (11, -9.56537114469775164027e-03) (12, 2.65682706128551361646e-02) (13, 7.25539660717213347185e-02) (14, -7.52082044788699166649e-02) (15, 5.33737658859535571421e-02) (16, 5.68295998114044104144e-02) (17, -8.48324350621251221938e-02) (18, 1.32160809685604764552e-02) (19, -5.30554433323040652154e-03) (20, -8.83664109707973238761e-02) (21, -7.31345042420795954374e-02) (22, 6.97822896048366642097e-02) (23, 6.62134979195419803855e-02) (24, -6.46268825774135285273e-03) (25, 2.00550527858306508466e-02) (26, 6.08117949927790904519e-02) (27, 3.73267506086289030387e-02) (28, -1.29682622124286557608e-02) (29, -9.03876895305004840475e-02) (30, 2.89032435728956496601e-02) (31, -1.98900945374769974605e-02) (32, -9.64113873798957965455e-02) (33, -5.99925731157868527554e-02) (34, -5.29191705867453343615e-02) (35, 1.08511994222637731672e-02) (36, -5.35893870689740162150e-02) (37, -1.94747095944620279839e-03) (38, 7.39531405469103925165e-02) (39, -5.58061785143680808008e-02) (40, 7.74023096954337685993e-02) (41, 5.95942780639890160033e-02) (42, 8.41231330365669049964e-02) (43, -4.60464685543904087006e-02) (44, 7.10666006821540630067e-02) (45, -6.82138625662181419251e-02) (46, -8.86520606364008534328e-02) (47, -4.70406994660626104343e-02) (48, 3.15729844869000247573e-03) (49, 3.01593909713574956366e-02) (50, -4.29257318219639638635e-02) (51, -4.64515864246924994885e-02) (52, 1.34406941103601094978e-02) (53, 2.50668620050776870534e-02) (54, 1.80347872809120228499e-02) (55, 5.09512696476038251525e-02) (56, 8.08658660175705229500e-02) (57, 8.52486447160166055381e-02) (58, 5.81762890995815747097e-03) (59, 8.23705554465431477595e-02) (60, -3.08866792111045646019e-02) (61, -6.23820213010383359253e-02) (62, -6.52252247835210102744e-02) (63, 5.63931287410730786025e-02) (64, 6.78696389120379273141e-02) (65, -4.06112801206281112676e-02) (66, 5.64287440998985090346e-02) (67, -4.67710056004871643776e-02) (68, 9.12593998967344416373e-02) (69, -4.91877437433288627888e-02) (70, 6.71694080114844799256e-02) (71, -7.61774259498441685956e-02) (72, -1.78375994845814365986e-02) (73, 4.53659395408363835811e-02) (74, -6.32314860064116246452e-02) (75, -6.11864397888938413295e-02) (76, 4.85705765715302266450e-03) (77, 3.03375367832183773231e-02) (78, 3.37746494296048416217e-02) (79, -5.58139023420843108370e-02) (80, 7.47899361580395185406e-03) (81, -1.56274906593624855755e-02) (82, 5.58952929187464392369e-02) (83, -3.71881513918788202122e-03) (84, 1.26300258555426900969e-02) (85, 5.11670010997832547250e-02) (86, 8.76772639647898852089e-03) (87, 3.45247057277330987590e-02) (88, -3.01680961632410996054e-02) (89, 2.98606651056390198784e-02) (90, 8.49501399310339661008e-02) (0, -6.53015198804764579465e-02) (1, 6.45037456711751167049e-02) (2, -6.45688229812028946508e-02) (3, 3.24825388336318354732e-02) (4, 4.37014744068726507242e-02) (5, 7.75781122961720220887e-02) (6, 2.35324863473652425017e-02) (7, -2.53597213852112916832e-02) (8, -9.07506447636966528947e-02) (9, -7.62689586134988883881e-02) (10, -1.21076199596064602859e-02) (11, -3.53607980528543586196e-02) (12, 9.52330173323116258022e-02) (13, -2.61151010276299035129e-02) (14, -7.60216464862729507379e-02) (15, -5.39368149055353338084e-02) (16, 2.19014823434492793275e-02) (17, 6.39456340859984734282e-02) (18, 7.57088593649848790035e-02) (19, 3.84694125026892666530e-02) (20, -7.86660520358082593351e-02) (21, 7.69608260138526928396e-02) (22, -5.90566606924490464237e-02) (23, 6.73879881952034742731e-02) (24, 6.33430938144322469574e-02) (25, -6.05322541865315963405e-02) (26, -8.70237633282504481624e-03) (27, 9.69184607706855272280e-02) (28, 2.59255173065336790017e-02) (29, 4.90539323129447063510e-03) (30, 4.68969016320159581834e-02) (31, 9.78354195782718677465e-02) (32, -3.32872402889447735475e-02) (33, 8.25246700137704097822e-02) (34, -5.42208168070907534086e-02) (35, -5.23863699002679594763e-02) (36, -7.55083280855413097044e-02) (37, 5.38604817623513504321e-03) (38, 2.66632906751661930000e-02) (39, 3.52767584481591400802e-02) (40, 8.86348703170774243620e-02) (41, -6.23056770457394298868e-02) (42, -9.34850031462804240828e-04) (43, -6.28923175435045778148e-02) (44, -9.56611408634725213229e-02) (45, -6.66552051277419649322e-02) (46, -8.88231880130607026613e-03) (47, -1.40889339686528711204e-02) (48, -6.45326605552953153078e-02) (49, 9.46831234197545168474e-02) (50, -1.91989819464198872845e-02) (51, 4.29831096982377300342e-02) (52, 1.66824160925167115643e-02) (53, -8.52909853562125314097e-02) (54, 9.45043342273520770025e-02) (55, -6.09165062614225524817e-02) (56, 8.65060001161578606688e-04) (57, 6.40899786148874106573e-02) (58, -9.36855934222605019057e-02) (59, 5.68262623143749451282e-02) (60, 7.11121768598688142049e-02) (61, 4.20862732833604397120e-02) (62, -6.33167515661738479309e-04) (63, -8.70266845916691823837e-03) (64, 5.65852241025685629566e-03) (65, -9.61029224120215491700e-03) (66, -5.93766364847918975967e-02) (67, 3.63025216096214860262e-03) (68, -2.28869605296921352355e-02) (69, -2.99654469856998903823e-03) (70, 5.69826781235322210595e-02) (71, 6.35852559593969544893e-03) (72, -1.55461187782044395200e-02) (73, 5.19421875334593469153e-02) (74, -6.56833625099747658860e-02) (75, 4.64891100092525572096e-02) (76, 2.60681372653362511405e-02) (77, 8.44441810883584942360e-02) (78, -2.26680925707542606229e-02) (79, -9.42624010802420864152e-02) (80, -6.01912034175496254984e-02) (81, -8.59227996280044828414e-03) (82, -7.80435954549394683699e-02) (83, -1.60178102742978556439e-02) (84, -4.04271261177997984215e-02) (85, 6.72191004794401442135e-02) (86, 6.29679202003103621887e-02) (87, -3.38143681690725450562e-02) (88, -4.75984120219725692635e-02) (89, -2.46626762714333355730e-02) (90, -4.27139101378995467151e-02) (0, -7.47992468638556950999e-02) (1, -7.57860202638700741762e-03) (2, -4.89481237849614392310e-02) (3, -9.05833781350372235774e-02) (4, -7.64714308725669422717e-02) (5, -9.05742864226444649445e-02) (6, -2.80262133714772945781e-02) (7, -7.29161191716563433785e-02) (8, 9.84086411103271552214e-02) (9, 4.40843087365345095985e-02) (10, 1.03203883459335482575e-01) (11, -7.58104712517480433531e-02) (12, 2.94097937416585852866e-02) (13, 8.44663417153612532118e-03) (14, -1.43811419694297674271e-02) (15, 7.38099852570829328968e-02) (16, -6.28486524330767598601e-02) (17, 7.36254180251828538317e-02) (18, 4.71847987905223212324e-02) (19, -7.09506094544348625552e-02) (20, -5.12383438887082584556e-02) (21, 1.57703309154115511870e-02) (22, -7.57620466782624318869e-02) (23, -1.07695519354859894912e-02) (24, 8.71810174509552449074e-02) (25, 3.97550017916675074714e-02) (26, 5.00795312991476129771e-02) (27, -2.97177111276646539750e-02) (28, -6.31813026688070322745e-02) (29, -3.30589101224608925000e-02) (30, -8.97450205560387237469e-02) (31, 1.00083573684478982502e-01) (32, 4.40723506231140843559e-02) (33, -7.64248284702460922713e-02) (34, 3.08502043458978962576e-02) (35, 9.16855240140183741504e-02) (36, -3.77032787264541466299e-02) (37, 2.40219232849059327606e-02) (38, 7.03210085993630634738e-02) (39, -5.87513813110306162835e-02) (40, 1.59557447685218269096e-02) (41, 2.66665220432380431492e-02) (42, -4.71046945267945063596e-02) (43, 9.54059855561441294558e-03) (44, 5.20211107091657770640e-02) (45, -3.94762191488136141015e-02) (46, -1.58916770044847978360e-02) (47, 2.26491521782829600962e-02) (48, 5.81330068994670434712e-02) (49, 6.45351573572003345269e-02) (50, -7.75919277423064990273e-02) (51, 1.40436973330700411167e-02) (52, -9.56924751467586459652e-02) (53, -8.00258444834246879251e-02) (54, 1.61139037747136185108e-02) (55, 5.74669109947114273296e-02) (56, 5.26429834576658331469e-02) (57, 6.99304421748388888025e-02) (58, -7.15502584065933477930e-02) (59, 7.20341933829724001548e-02) (60, 7.88214801623285388210e-02) (61, -6.92971423689559412606e-02) (62, -4.60706297687267646301e-02) (63, -4.66791858167138681845e-02) (64, -3.97945406342970070535e-02) (65, 2.25280513669484996897e-02) (66, 5.74105668193657589504e-02) (67, -9.18788813584019148362e-02) (68, -1.29187527289773718825e-02) (69, 1.48592848004345141899e-02) (70, 6.17224125944150769918e-02) (71, -4.83606234063097689679e-02) (72, -8.39844475142068336293e-02) (73, -6.78334622644663765012e-02) (74, -6.96093012439790576051e-03) (75, 1.03565154619605068187e-01) (76, 1.03277775324116874445e-01) (77, -2.77046906259886920043e-02) (78, 9.97969723432119981688e-02) (79, -4.46844554379997593863e-02) (80, -8.31319207704785539947e-02) (81, -7.92379486811055772089e-02) (82, 2.33302451934651045029e-02) (83, -5.04190719817557211901e-02) (84, 6.53727283897249100697e-02) (85, 4.50842554168367909417e-02) (86, -6.56315706472778703784e-02) (87, -8.76376764724559748077e-02) (88, 7.69832260255671613214e-02) (89, 8.44718575141879535195e-02) (90, -5.82459491665135858929e-02) (0, 1.65009781939439402476e-02) (1, 4.37027728308034407734e-02) (2, 8.19885831627106403952e-02) (3, -4.66399845111880179127e-02) (4, 2.61067012750366943263e-02) (5, 4.17317915440004565120e-03) (6, -5.20803265389058970408e-03) (7, -1.25359232982530967304e-02) (8, -1.08020952177605242955e-02) (9, 3.00872250912000973808e-03) (10, -5.08937105294526501154e-03) (11, 1.64354690671878189701e-02) (12, -9.28014042571925351632e-02) (13, 5.56341854642408706333e-02) (14, 1.34185866620687346135e-02) (15, 5.42576265015847977735e-02) (16, 3.11318621679708106009e-02) (17, 8.83867535043582480681e-02) (18, -5.99443625629759724305e-02) (19, 6.58134258572882352434e-02) (20, 9.16468368220561685478e-02) (21, -4.30338316855669866801e-02) (22, -9.25303144952634437637e-02) (23, 5.36045151446764168296e-03) (24, -7.52453491218331022017e-02) (25, 3.41808617133266129384e-02) (26, -1.67275278939386859434e-02) (27, 7.40649462035785771663e-02) (28, -2.45830433457796086738e-02) (29, -9.50691873880990523382e-02) (30, 8.04352871627763282847e-02) (31, -8.87226639747532297431e-02) (32, -1.52516410161160232556e-02) (33, -3.16962147667361540671e-02) (34, 2.82826039974263705734e-02) (35, 2.11907200527003507229e-02) (36, -1.38818489045362813972e-02) (37, -2.07566876902161856489e-02) (38, -1.81052885875300738350e-02) (39, 3.88928829293347516627e-02) (40, 2.56797577363843398945e-02) (41, -6.32084916413228337095e-02) (42, -6.04787755672611046509e-02) (43, -2.13296322307384329797e-02) (44, -1.22823643195546193529e-02) (45, 1.20494317138999094442e-03) (46, 2.17524123831742272062e-02) (47, -5.31976585506016841354e-02) (48, 5.52859790599912782894e-03) (49, 5.61006102604360776254e-02) (50, -6.15681737412818175237e-02) (51, 4.03100800437333969817e-02) (52, 4.22909033830887043370e-02) (53, -5.35909326844281469482e-02) (54, 9.03706122937496247882e-02) (55, 2.81196649345804294828e-02) (56, -1.22923121396847061931e-02) (57, -8.32302032680437425816e-02) (58, -2.31805954249679826984e-02) (59, 1.89296011660518856759e-03) (60, 6.03850786463468666709e-02) (61, 1.33298155738334235532e-02) (62, -6.51872989063242425090e-02) (63, 1.15229731944463884008e-02) (64, 3.92075603201676586851e-02) (65, -7.94824583641209475582e-02) (66, -6.53484322537321027369e-02) (67, -4.89778908684866398637e-02) (68, -8.18977324757837882307e-02) (69, 3.55139488335409134190e-02) (70, 9.69149307899639794739e-02) (71, -3.06213916080013692778e-02) (72, -9.04387977400383097359e-02) (73, 3.48433286944851497435e-02) (74, 5.71227271766949554199e-02) (75, 5.75589381802589505899e-02) (76, 7.28114547511276299918e-02) (77, 7.37492191849692391159e-02) (78, -4.69232049621481281387e-02) (79, 6.72174355918003230137e-02) (80, 8.41235200934051796651e-02) (81, -7.96659100939482583970e-02) (82, 4.82296568723868807060e-03) (83, -7.02627169096276815718e-02) (84, -7.38136068754331221842e-03) (85, 2.67666480977446739897e-02) (86, 6.52187945337156377290e-02) (87, 6.30159948959342214314e-02) (88, -8.04623283235470915242e-02) (89, -1.30857351274302931288e-02) (90, -7.38189975669784198553e-02) (0, -9.00807799911352430344e-02) (1, -4.34617404947363894507e-02) (2, 3.63496188809937781361e-02) (3, -4.61931494079445073564e-02) (4, -7.18878328131429961134e-02) (5, -5.82480956955799041713e-03) (6, 3.28640503339536274585e-02) (7, 8.70076389598601618314e-02) (8, 3.54761773677689587481e-02) (9, -5.66816809718159522746e-02) (10, 9.56659984637781533878e-03) (11, 8.62697264733230106959e-02) (12, -3.09536341113407064557e-03) (13, -1.89901736836962341248e-02) (14, 7.15642930437541818778e-02) (15, 8.48892462644294520935e-02) (16, 4.88241197068392043801e-02) (17, -6.55570323118420811292e-02) (18, -2.05346325396091218540e-02) (19, -2.41782908379546100652e-02) (20, -8.66178690829891434477e-02) (21, 8.76793912289634963519e-02) (22, -6.36650241929058030577e-02) (23, 3.63523332197673810715e-03) (24, -3.54039822521793820509e-02) (25, 7.36698235291085995469e-02) (26, -5.00772810209898916467e-02) (27, -1.18793051095776629666e-04) (28, 2.35289384524898816109e-02) (29, 8.05200977037895115895e-02) (30, 4.87593674984984973286e-02) (31, 9.57797512629461889055e-02) (32, -4.03094526011235007590e-02) (33, 4.83797483215284637725e-02) (34, 7.83975540099258322302e-02) (35, 6.91147247955857663149e-02) (36, -8.98721461905222090971e-02) (37, 5.18490623603197683944e-02) (38, -3.15826677891642010332e-02) (39, 5.93635039181093920879e-02) (40, -3.01636858028520374320e-02) (41, -4.71439681930519993713e-02) (42, -3.07733179888569144400e-02) (43, -3.35609375398812082025e-02) (44, -9.47065496190173938817e-02) (45, -2.78641405371580323791e-02) (46, 9.23164560401557726665e-02) (47, 4.17307036466397218710e-02) (48, -8.25804426718042272615e-02) (49, -7.32745550690200309063e-02) (50, 3.60800101442758716641e-02) (51, 5.25330898716343114296e-02) (52, -7.98448523126519815740e-02) (53, -2.58225174198273531301e-02) (54, -3.92815877409468106052e-02) (55, 8.83294026747569877012e-02) (56, -6.29732440918733769051e-05) (57, -5.80131830045555393904e-02) (58, 1.00116273132464878026e-01) (59, 2.87545399571556350993e-02) (60, 1.86498280297249454003e-03) (61, 7.38709015270847535461e-02) (62, -5.95909135290106015126e-02) (63, -4.74524078105215060819e-02) (64, 3.64705967056574223428e-02) (65, 3.26579265597341655836e-02) (66, -6.25963012531824541940e-02) (67, 4.44787792261495742996e-02) (68, 7.34357818457242322863e-02) (69, -9.41690724770246206932e-02) (70, -5.60919070126026791945e-02) (71, 5.66727127935665528358e-02) (72, 2.07485513198501711485e-02) (73, -3.61826756481893538342e-02) (74, -4.58370429266960546788e-02) (75, -6.39187265372206378034e-05) (76, -1.19159901854701114933e-03) (77, 6.06382920299790295626e-02) (78, -1.73015182306397521939e-02) (79, -4.70770420789594842836e-02) (80, -7.79812971355784700922e-02) (81, 2.01331189972079709072e-02) (82, -7.44548569450693420446e-02) (83, -5.03798637657352985086e-02) (84, -5.48762016357968868130e-02) (85, -8.64972760080517794057e-02) (86, -8.20231149141527754454e-02) (87, -1.92062802364140611244e-02) (88, -8.92963562819546613492e-02) (89, 4.93399193609677377825e-02) (90, 1.47939051020101949852e-02) (0, 3.00356670512816337215e-02) (1, -1.00210089600997975801e-01) (2, -7.72794290246118786847e-02) (3, 2.46739530299068011987e-02) (4, 3.03964986346758822555e-02) (5, -1.00295313493793628035e-01) (6, -8.79977057398316636627e-02) (7, -4.60613082595946188302e-02) (8, 3.22536135821004307789e-02) (9, -6.53454189610045386993e-03) (10, -4.30733657907588357583e-02) (11, 8.61292172023280788729e-02) (12, 7.62742560554379445126e-02) (13, -2.68764972123279703708e-02) (14, 7.38520290852385657976e-02) (15, 6.33100601406703378249e-02) (16, -9.70051246208871453813e-02) (17, 2.41308376488480295918e-02) (18, 9.56766027998656315434e-02) (19, -7.33282102134806407223e-02) (20, -2.12316892753789468462e-02) (21, 3.97937257516392042800e-02) (22, -2.11628913229036548505e-02) (23, 4.81978505372248067218e-02) (24, -9.40537472555997011714e-02) (25, -8.97981966780658086291e-02) (26, -5.24322090173096472254e-02) (27, 6.56656711509778223679e-02) (28, 3.60274821020153124262e-02) (29, -2.83466981896550798692e-02) (30, 3.71449559134997692178e-02) (31, -5.19223812465192079146e-03) (32, 8.99655833398672472034e-02) (33, -9.12946141945499868575e-03) (34, 5.54055092719298730719e-02) (35, -8.41489398932281085219e-02) (36, 4.28118341143821357075e-02) (37, 9.32418864127086549631e-02) (38, 8.39732623521940030331e-02) (39, 4.11626174923619067569e-02) (40, -1.01864420662564722497e-01) (41, 4.75955143907881086940e-02) (42, 5.70143982475780977670e-02) (43, 3.79990471019930609042e-02) (44, 8.02366203930525850874e-02) (45, -1.37740082307318302546e-02) (46, -1.58210716710430604470e-02) (47, -4.03427529197164236319e-02) (48, -6.33314771688049948928e-02) (49, 8.63426677367807315910e-02) (50, 9.08287060958213599005e-02) (51, -4.40686637672069933536e-02) (52, 1.44396678753318293692e-02) (53, 5.58815262119630173920e-02) (54, -7.07891416844448201351e-02) (55, 1.82933639854039320483e-02) (56, -7.02495513487757378135e-02) (57, 1.15305205293281080869e-03) (58, 3.75451159966774944410e-02) (59, 6.63799353044233209076e-02) (60, -8.48749732986380789335e-02) (61, 3.26506783989341173302e-02) (62, 3.04147127268388564603e-02) (63, -3.85878058521054168040e-02) (64, -4.76075456921017312051e-02) (65, 2.56613709644226035966e-02) (66, 1.29259501792344626281e-02) (67, -5.50768490663087161019e-03) (68, 3.82143589305972003478e-02) (69, -2.49183742247215955778e-02) (70, -2.69242558415473589445e-03) (71, 3.67318278234333231436e-02) (72, -8.94939842131672047554e-02) (73, 8.33358324459118199323e-02) (74, -4.52420165744183006007e-02) (75, 8.25890723284236237187e-04) (76, -2.96383199097083431528e-02) (77, -6.86337854674757830153e-02) (78, 2.75087972523123521981e-03) (79, 6.11149609648069941370e-02) (80, -9.01917387872010721528e-03) (81, -4.90903107693024948199e-02) (82, -6.48560809151411538087e-02) (83, 2.51527505283592571483e-02) (84, -1.18715995257380572958e-02) (85, 8.79689005680319990876e-02) (86, -9.03511057668010403310e-02) (87, -8.40270863494392283854e-02) (88, 4.09627376251389049844e-02) (89, 1.66276292638240855148e-02) (90, -9.60466327327924029866e-02) (0, -1.35871789956001701172e-02) (1, -3.88499269800874971748e-02) (2, 2.72835577659332924327e-02) (3, -1.61658941625608294779e-02) (4, 1.25803334550903186950e-02) (5, 2.10726326293159751946e-02) (6, -2.65058566877465172362e-02) (7, -3.12585935960920735868e-03) (8, 2.26873641460611091825e-02) (9, 6.85060615316952434273e-03) (10, -2.32360338973448196653e-02) (11, -5.63714174266092202248e-02) (12, -7.11881193736921685788e-02) (13, 2.69736342925889979738e-02) (14, -3.44388119964117792038e-02) (15, 7.37300185892801884791e-02) (16, -5.67045338719275454631e-02) (17, 9.31239425234482581795e-02) (18, -2.39366667661487612928e-02) (19, 5.33854304284584399443e-02) (20, -9.44864114657829358424e-03) (21, -6.73351660340655300274e-02) (22, -3.44949026710749950819e-02) (23, 2.06544607377942730786e-03) (24, 3.66570757766023699875e-02) (25, -8.31003262666747261056e-02) (26, 2.56481664916273777166e-02) (27, -9.62432716821122989648e-03) (28, 7.72887119530048932736e-02) (29, -2.18845870904497211140e-02) (30, -7.32537410980983183517e-02) (31, -9.13157431665739295623e-03) (32, -5.85057007037796186766e-02) (33, 2.99775354734207431784e-02) (34, -4.43098761214589728641e-02) (35, -1.29750423682793939589e-02) (36, 5.65151751950550562675e-02) (37, -5.43905415682361115248e-02) (38, -9.16661744464658395648e-02) (39, 5.56541992104747709758e-02) (40, 9.15239552676214013216e-02) (41, 4.79955364612974569316e-02) (42, -2.16036793037660233840e-02) (43, 8.71850245903865173069e-02) (44, -5.78711904701884327640e-02) (45, 1.16276929199719391422e-03) (46, 8.74375159968630993879e-02) (47, 6.41320957511969796938e-02) (48, -5.26119004330214985049e-03) (49, -4.13710815572962339881e-02) (50, 6.11086720116484280463e-02) (51, 9.71907282352151707938e-02) (52, -2.96758127262185221473e-02) (53, -2.18125957687132568386e-02) (54, 5.23324376171926744505e-02) (55, -8.64505760924869602613e-03) (56, 9.31639521286548449863e-02) (57, 2.79617387456010391134e-03) (58, 2.28342254138462728841e-02) (59, 2.99659545373859467993e-05) (60, -7.73055115912694990055e-02) (61, 8.56797862369295948337e-02) (62, 9.09534983151414899716e-02) (63, 7.31721489556618198691e-02) (64, -2.57879242452596323110e-02) (65, -5.17183191041489034867e-02) (66, -1.08527611392437873389e-02) (67, -5.94278764493001571134e-02) (68, 8.98490106692191072002e-03) (69, 8.85215734302716994453e-02) (70, 1.71304661353299352011e-02) (71, 1.75949539375144445308e-02) (72, 4.66594060962651196317e-03) (73, 6.86870801702769567809e-02) (74, 4.38907249844154856433e-02) (75, -2.72263816893647987716e-02) (76, -2.76861005514610104827e-02) (77, -2.07794643656579241728e-03) (78, 5.65043632564663292350e-02) (79, -1.11967037446006299761e-02) (80, 7.46061101264221121498e-02) (81, -8.47363056440696843508e-02) (82, 5.45491579197526221812e-02) (83, 3.40209147831362912484e-02) (84, -7.88977699705980528577e-02) (85, -4.38819531988932920452e-02) (86, 4.48049594205227486726e-03) (87, -2.06080483744593111195e-02) (88, -5.23679266184619504609e-02) (89, 1.30573503386683682087e-02) (90, -5.00400501537077088687e-02) (0, -2.74462136647383413146e-02) (1, 5.46516627506052968255e-02) (2, -3.02476410128221170903e-02) (3, 1.23415910179147277070e-02) (4, 4.83708770183146549715e-02) (5, 3.73241753702003714599e-02) (6, 8.64656490530241600423e-02) (7, 3.96141391913519200219e-02) (8, -3.39995927156841876160e-02) (9, 1.03033580521071796432e-01) (10, -3.38048487914424308776e-02) (11, 7.07105506037484649040e-02) (12, -5.78244292297189974028e-02) (13, 1.03185875591135844953e-01) (14, 8.16548401204475748916e-02) (15, -8.68172606623942161308e-02) (16, 9.79514762432714541918e-02) (17, 4.59861352871517442553e-02) (18, -8.12652636562523900121e-02) (19, 6.08299380021578642297e-02) (20, 1.52014318261092361978e-02) (21, -5.45470659661626902648e-02) (22, -9.10672037470417888860e-02) (23, 5.21806224798488510475e-02) (24, -5.23796289663130132386e-02) (25, -4.31146749546164591987e-03) (26, 5.42593946511205973970e-02) (27, -6.15631557571352378000e-02) (28, -2.62281270627376210391e-02) (29, -6.90867819300356594825e-02) (30, 6.99565614092320792183e-02) (31, -8.86031052166817018056e-02) (32, -9.28595001469375153080e-02) (33, -5.65493885861918302305e-02) (34, 8.55880829147275118407e-02) (35, 2.76133021866678818323e-02) (36, -1.33705935274651098454e-02) (37, 9.24717710070310436321e-03) (38, -9.12592132700275754376e-02) (39, 3.53204351001514954556e-02) (40, 2.70671597809642103249e-02) (41, 8.91390738023925023603e-03) (42, 7.98108702860349933372e-02) (43, 9.22964456707850711137e-02) (44, 4.74490291872797370631e-02) (45, 6.08818944308434154000e-02) (46, -4.06624856747244481370e-02) (47, 3.76331762953017387452e-02) (48, 9.62768151777926156631e-02) (49, 1.05831796802152905412e-01) (50, -1.11323620376866938564e-02) (51, 1.03723771039367612667e-01) (52, 5.69007788801620673080e-02) (53, 2.09857829603282072806e-02) (54, -6.11157356581284449959e-02) (55, 8.30772763549656040327e-02) (56, -8.28278193182883926138e-02) (57, -8.18805730209120202767e-02) (58, -4.37714414728674131028e-02) (59, 9.09681655572063506410e-03) (60, -1.75123743859113573801e-03) (61, -4.39868520263073537607e-03) (62, 9.89890270502185587453e-02) (63, 3.73563803585980694355e-02) (64, 9.29686354717818297377e-02) (65, -6.78274477492630673003e-02) (66, -2.74497151513486380148e-02) (67, -3.69892476480859072607e-02) (68, 6.47036583971562218043e-03) (69, -4.67559236507782416403e-02) (70, 4.20288988155502127309e-02) (71, 8.39365547092823377495e-02) (72, -8.87677864262729210409e-02) (73, -8.29266155400693177890e-02) (74, 8.91760631537690806603e-02) (75, -4.76190038993908187903e-02) (76, 5.54518370228185373400e-03) (77, 8.96793647864403548065e-02) (78, 1.34431285995712870851e-02) (79, 8.26025945080361909123e-03) (80, -1.39550043301563606035e-02) (81, 8.36514685505302946211e-02) (82, -5.15937373393949016975e-02) (83, -8.91561207638822267318e-02) (84, 1.02634707429416965896e-01) (85, 5.81657532026097490174e-02) (86, -2.79180136185361756074e-02) (87, -2.03678239769248987934e-02) (88, 7.97900949242674739637e-02) (89, 3.49367186237808033389e-02) (90, 3.72956074807641660418e-02) (0, -4.78007348427689215953e-02) (1, 9.34672268274299444801e-02) (2, 9.90853381880315853270e-02) (3, -8.16895763246704986749e-02) (4, 3.99447370652297323312e-02) (5, -1.02224114491388288171e-03) (6, 8.36288417599383021583e-02) (7, -3.41811499735031679159e-02) (8, 1.66899102253054362754e-02) (9, -4.99078276187408451103e-02) (10, -6.28855036122149407829e-02) (11, 4.25523141235291946227e-02) (12, 3.90628196632513136066e-02) (13, 4.88703722152120795252e-02) (14, 3.35325473862018164084e-02) (15, 8.77344375228992362503e-02) (16, -6.69398908497669531403e-02) (17, 1.03834497897551201323e-02) (18, -5.56448355125479382499e-02) (19, 2.84177515643439897175e-02) (20, 8.91236374737764680543e-02) (21, -6.06374981830415799022e-02) (22, 6.93475427056253479474e-02) (23, 5.51948366809763280028e-02) (24, -9.06419885724183138631e-02) (25, 3.11804141580404627077e-02) (26, 4.59236825839074574995e-02) (27, -1.96696375766402080376e-02) (28, 4.57943482099959289777e-02) (29, 6.33601639072834399435e-02) (30, -8.24901564982386120706e-02) (31, 8.19931334699151026513e-02) (32, 5.91193477732973940442e-02) (33, 5.42133849787842930779e-02) (34, -7.19513066452048960508e-02) (35, 8.22674895962854785259e-02) (36, 6.58926856726766291272e-02) (37, -8.51174994988644628702e-02) (38, 3.64100690831688361682e-02) (39, 3.67523337743155473212e-02) (40, 4.66806134440664668994e-02) (41, 9.17896935628711718724e-02) (42, 9.02119139719797791255e-02) (43, 2.36852993146485536757e-02) (44, -3.79796595744569462361e-02) (45, -9.09441057904865068906e-02) (46, 5.13086733110166698379e-02) (47, 2.79800385408522298003e-02) (48, 5.99677367067598041106e-02) (49, 3.84892214163180743092e-02) (50, -7.17966240045761622257e-02) (51, 6.78647890668895442667e-02) (52, 4.82107572780995433104e-02) (53, 4.71537612606379510916e-02) (54, 1.01690391317821510198e-01) (55, -9.48858679717782677043e-02) (56, 7.18786830059457149122e-02) (57, 4.91874192555033507013e-02) (58, 9.12177957628058644346e-02) (59, -5.92304595356578367227e-02) (60, -2.36727444477201932893e-02) (61, -1.75005738689672160624e-02) (62, -3.89526456852081690019e-02) (63, -4.43805517205531074865e-03) (64, 2.26784010166655794483e-02) (65, -5.77503819227406164916e-02) (66, -6.23365925571477547118e-02) (67, -7.70299400787378268918e-02) (68, 2.86620804727752941099e-02) (69, 6.57327398988622607634e-02) (70, -5.09471015895118853334e-02) (71, -7.86758036743490235532e-02) (72, 6.18327336868391003177e-02) (73, 2.33798486070527604397e-02) (74, -3.05871356071723068948e-02) (75, -7.13887671356947927509e-03) (76, -8.20635403547181896400e-02) (77, -4.95778075126793865701e-02) (78, -2.65012544654266261890e-02) (79, 2.18746841414635094514e-02) (80, -6.62052080275247617491e-02) (81, 1.03536714584318186028e-02) (82, -5.82407829505213192611e-03) (83, -2.50129639016676980079e-02) (84, 5.15925797093780835745e-02) (85, 4.67979705584031097088e-02) (86, 4.73531679735638075246e-02) (87, -1.66230931549906542355e-02) (88, -2.35875103466806693153e-02) (89, -5.59392079634679021544e-03) (90, 5.09478636357166628224e-02) (0, 3.15458448795713913837e-02) (1, -3.07058705021964750692e-02) (2, 2.78687977463583499635e-04) (3, -4.92199262190695305264e-02) (4, -5.36074724800395530089e-02) (5, -8.96196261343524952503e-02) (6, 8.66375383909573637542e-02) (7, -1.10059853266984645354e-02) (8, -1.85181307844775322469e-02) (9, 6.68694919574080309799e-02) (10, -8.78042900850784235889e-02) (11, -1.05966590976035775901e-02) (12, -5.35193885163917359993e-02) (13, 6.74859490255851346419e-02) (14, 3.13378447225963613354e-02) (15, 2.99638779767501493845e-02) (16, -7.24482314974825708509e-02) (17, 6.44807273588187540581e-02) (18, -7.68226242187062813294e-02) (19, -6.50388293362630376393e-02) (20, -5.32751829336493634703e-02) (21, 2.79610930655077721818e-02) (22, 3.09768899478559157912e-02) (23, -6.40930853810632323447e-03) (24, 5.16880275732748296208e-03) (25, -7.07565577528445743133e-03) (26, -8.15335547220859685469e-02) (27, 4.24649794965227048160e-02) (28, 4.84462032178564552809e-02) (29, 7.17154525308284634955e-02) (30, -7.10587469736853605262e-02) (31, -3.17940336696601348263e-03) (32, -9.06118307669922379288e-02) (33, 5.02155881276272822444e-02) (34, -8.69108538807702585283e-02) (35, -4.17638998161754329552e-02) (36, 9.76045691036669660345e-02) (37, -5.09137951436271635197e-02) (38, -6.72192088641785367997e-02) (39, -1.39166234101015494351e-02) (40, -6.27039392706942450006e-02) (41, 9.67956663618736584676e-02) (42, 4.73283591049888791025e-02) (43, 8.23151064033281615329e-02) (44, 9.68562020765016268298e-02) (45, 1.17058952599875237127e-02) (46, 9.78495577064228266861e-02) (47, -7.94442466162359473003e-03) (48, 6.58899914495632704758e-02) (49, -7.26238281074126218462e-02) (50, -2.27776295518970911536e-02) (51, 6.76382320777664247657e-02) (52, -9.21391400399286519818e-03) (53, -3.69658814407465216578e-02) (54, 6.83863247525816064787e-02) (55, 4.67886578185434040544e-02) (56, 9.87214210320123408682e-02) (57, -5.05305790224695183799e-02) (58, -2.29961776506898661621e-02) (59, -1.08752038270101252654e-02) (60, -7.26054151977488515524e-02) (61, 5.25904502318278593842e-02) (62, -8.86648527476979475548e-02) (63, 9.88197201395681484870e-02) (64, -5.91015760159704153787e-02) (65, 8.73100574430893949796e-02) (66, -1.50069650499812523581e-02) (67, -6.65028226753872353516e-02) (68, -9.88992130827129056758e-02) (69, -1.26800887527627643980e-02) (70, -9.20763621113708102817e-02) (71, -1.89236105520675622349e-02) (72, -5.98626170210344379918e-02) (73, -6.74556365647657335538e-02) (74, -8.46129042002840559000e-02) (75, -3.39829291994380652819e-02) (76, -7.30235477671455079918e-02) (77, -1.19397235158668919147e-02) (78, 3.18063407642870318859e-02) (79, -5.08869210992445655806e-02) (80, -4.98885871984801332335e-02) (81, 1.33411023239759472803e-02) (82, -3.50379887007152696077e-02) (83, -3.18687842634996013058e-02) (84, 9.18534191688342473159e-03) (85, -5.22530607525098066829e-03) (86, 6.91327685397980559040e-03) (87, 1.67973105687416954246e-02) (88, -4.70244777689752535554e-02) (89, 2.86868245193995638140e-03) (90, -7.00058185907492802613e-02) (91, 2.10791684832240325265e-02) (92, -6.69487714767456054688e-02) (93, -7.95351258189568553758e-03) (94, 5.22622802550583506753e-02) (95, 7.86246358536230212366e-03) (96, -8.38704441163326819275e-02) (97, 5.22991998159250959244e-02) (98, -5.46186343389196762854e-02) (99, 2.52651492485771386742e-02) (100, -3.20541459685015281411e-02) (101, -5.15877059881566651933e-02) (102, 8.50484439903631261881e-02) (103, -6.56041081386809221687e-02) (104, -9.01370319909612222053e-02) (105, -5.55291331756888467686e-02) (106, 7.67856223516822050494e-04) (107, 6.12107091473559211670e-02) (108, -8.31833797109463313202e-02) (109, -7.64232141443369761280e-02) (110, -6.81916695536137346112e-02) (111, 2.49260692208695747163e-02) (91, 5.61870598835171250474e-02) (92, 1.18301957845687866211e-02) (93, 3.00812639601703325776e-02) (94, 6.75976937904872454688e-02) (95, -3.10385939941595183356e-02) (96, -9.71235956912724907042e-02) (97, -1.09411195521869255426e-02) (98, -1.20303800146618795897e-02) (99, -2.95288303953917044553e-02) (100, -2.06508828983538207658e-02) (101, 1.79857384390971221898e-03) (102, 1.03040118543117151934e-02) (103, 5.39719806480485220918e-03) (104, -3.03249604071303933972e-02) (105, 8.25634400279443847470e-02) (106, -9.10681999633146388451e-02) (107, -1.18291853327570934545e-02) (108, -2.17520150341611387401e-02) (109, -9.74817035637610546095e-02) (110, -3.45761288263546837096e-02) (111, -7.85106296083283999865e-02) (91, 8.39249252411276985830e-02) (92, 6.12649992108345031738e-02) (93, 8.06353501004338779623e-02) (94, -7.06612444740969177642e-03) (95, -9.53647452105864795735e-02) (96, -2.14274184596260179603e-02) (97, -5.08691056999073520917e-02) (98, -7.49608214675114986614e-02) (99, -2.50312615132983855293e-02) (100, 2.01750547582213203557e-02) (101, -8.07781544993885630701e-02) (102, 6.34935780435914309816e-02) (103, 3.70839501706771781930e-02) (104, 3.09645083678808941130e-02) (105, 2.87860650255091221617e-02) (106, 3.34927861315930802677e-02) (107, -7.64772599497376831534e-02) (108, 9.08642297831215306481e-02) (109, 7.41074728244319885784e-02) (110, -5.32284335420185744647e-02) (111, 5.59783851612444816048e-02) (91, 2.19399638553385810391e-02) (92, 2.64973714947700500488e-02) (93, -5.87625171547152130858e-02) (94, -8.96619544291792774926e-02) (95, 7.17171317473790786989e-02) (96, 6.38935144304900726198e-02) (97, 3.63823988254397476250e-02) (98, -4.33115746410555405022e-02) (99, -4.24559931843032853371e-02) (100, 5.37556783256140438554e-02) (101, 8.33131022427692491394e-03) (102, -7.21947440624867153858e-02) (103, -5.54550564658306474608e-02) (104, 5.58253477698047589906e-02) (105, -7.83269864978587415649e-02) (106, 8.51989023801999062480e-02) (107, -4.05711005938919344604e-02) (108, -6.00528538016462110072e-02) (109, -7.96917634457755402755e-02) (110, -5.28160399886917000800e-02) (111, 3.12589736087436342871e-02) (91, 6.38446609311823093380e-02) (92, -9.10447761416435241699e-02) (93, 1.04369670063395765525e-02) (94, -3.01820367556634924777e-02) (95, -6.35125339935973254324e-02) (96, -1.81336637591255900315e-02) (97, -1.33505453960901434435e-02) (98, 2.93341061301775332323e-03) (99, 2.22747614852398384544e-02) (100, 9.85687474069389529818e-02) (101, -7.26439659438940944086e-03) (102, -6.14251472190857628064e-02) (103, -1.76533393133699429388e-03) (104, -8.95902901200456291964e-02) (105, -5.39540104352050006731e-02) (106, 5.09350241676258322365e-02) (107, -4.60337589984701617274e-02) (108, 6.83038127855678384170e-02) (109, 3.99752201906301563028e-02) (110, 9.41402506502784890141e-03) (111, -9.07375371757299375997e-02) (91, -8.94564635797598650679e-02) (92, -9.99172627925872802734e-02) (93, 9.06094819764049486110e-02) (94, -5.51731046503970770645e-02) (95, 6.27008101972916509492e-02) (96, -1.06247010561813827467e-02) (97, 3.52963646123004917698e-02) (98, -8.13539261747570630057e-02) (99, 6.26889028396200725934e-02) (100, 6.92160749112386980419e-02) (101, -2.75742826833687733334e-02) (102, 2.93595373857556060648e-02) (103, -3.72541218416642394562e-02) (104, 3.21411217084965061819e-02) (105, -4.77222987995869485367e-02) (106, -7.19715220100638625178e-02) (107, 4.89863744506227813402e-02) (108, 7.80397337840655347385e-02) (109, -3.45762756541557504664e-03) (110, -7.39472902861037506561e-02) (111, 6.46236266314721610055e-03) (91, -6.47478112964985363931e-02) (92, 7.59192183613777160645e-02) (93, -2.56527389314171912205e-02) (94, 1.18020316709451181941e-02) (95, -5.51565030423770488732e-02) (96, -1.32892162920895673395e-02) (97, 4.79421520971963291413e-02) (98, -3.12948416761872558189e-02) (99, 6.74678757543556856247e-02) (100, -6.90579255925825585827e-02) (101, -3.37181495782616150181e-02) (102, -3.86045021656985926084e-02) (103, 6.71729562948412406431e-02) (104, -3.23911458922444064901e-02) (105, 7.06402484267795172102e-02) (106, -9.33390289816965895708e-02) (107, 8.21082865686329765875e-02) (108, -6.74950886727117699282e-02) (109, -7.49797187712170493112e-02) (110, 8.29522281864909782900e-03) (111, 5.90868175884037560852e-02) (91, -3.49656621755287388975e-02) (92, 6.93498551845550537109e-03) (93, -4.37052407277279952869e-02) (94, -2.92824986477628820825e-02) (95, -3.69385508689198394094e-02) (96, 4.43069704239568915027e-02) (97, -3.22418724562319181093e-02) (98, 7.84371562625574975103e-02) (99, 4.32605434013840009499e-02) (100, -2.27051420687509296348e-02) (101, -8.09064788626124159476e-02) (102, 4.47181673056942646793e-02) (103, 4.18746308849175311040e-02) (104, -1.24610835869586721730e-02) (105, 7.64743273670593776137e-02) (106, -3.38324909363674972140e-02) (107, 8.75025723126556242981e-02) (108, -9.41705054913268002625e-02) (109, 5.07287703652635549312e-02) (110, 6.66525535861231949175e-02) (111, -9.05153006223119033224e-02) (91, -6.43349455264702191348e-02) (92, 8.21671560406684875488e-02) (93, -1.65369825502013206853e-02) (94, 4.95896031119803307186e-02) (95, 6.79718915259761441439e-02) (96, 8.21490521506976489885e-02) (97, 6.62975699596035916716e-02) (98, -3.13893412020249673589e-02) (99, -4.62925575082419535344e-02) (100, -6.18593430516531442298e-02) (101, 9.19719057372702653019e-02) (102, 3.78908378004005480522e-02) (103, 4.52531915978591769978e-02) (104, 6.47662784728539470125e-02) (105, -2.26019234320848291797e-02) (106, -7.59133186556862626926e-02) (107, -9.72475468780042567873e-02) (108, -2.69756350698583044490e-02) (109, 7.66173447262999962604e-02) (110, 2.44230305257852903927e-03) (111, 2.10239160097019719964e-02) (91, 9.90439615435315390268e-02) (92, -6.05557486414909362793e-02) (93, 3.95901280721003695495e-02) (94, -1.77374452432554757797e-02) (95, 4.98892853205724698396e-02) (96, 6.48192249989122393217e-02) (97, -2.45610817698490753458e-02) (98, 3.28926001726820432802e-02) (99, -6.08625154722195194079e-02) (100, 5.34734845166479969003e-02) (101, 5.13808613945201664297e-02) (102, -7.05865440769166442581e-03) (103, -9.28218576897018310401e-02) (104, 5.74297792296950548874e-02) (105, 7.07478178267360174880e-02) (106, 5.71619496528759235554e-02) (107, 2.42336313665731627187e-02) (108, 8.04259153375136703890e-02) (109, -6.95105841720162487274e-02) (110, 6.72883107890966201264e-03) (111, 5.42131951075393719863e-02) (91, 5.23475661897027724767e-02) (92, -8.85201767086982727051e-02) (93, 4.14654376416166217667e-02) (94, 3.40207622185686245353e-02) (95, -5.57491009130055073517e-02) (96, 3.22780962657425720894e-03) (97, 4.55593732339857546143e-02) (98, -7.12922977466651647260e-02) (99, -6.44882361273115406464e-02) (100, 4.59814556446618907803e-02) (101, -3.85551804810645923349e-02) (102, -7.78053755441946992555e-02) (103, 4.56698957383581891079e-02) (104, 4.93402917301340795952e-02) (105, -7.03132622004473267774e-02) (106, -8.90025415249994650280e-02) (107, 2.50428888766628630902e-02) (108, 9.19448351884622275265e-03) (109, -3.80634400163559830088e-02) (110, 7.39296719914115385563e-02) (111, -9.50374691180375444355e-03) (91, -7.65354860596284408691e-02) (92, -1.90282166004180908203e-02) (93, -7.15744715747996824301e-03) (94, 3.67765024907343932026e-02) (95, -2.49149249914970005726e-02) (96, 3.35508351431184209668e-02) (97, 2.08719524252289345689e-02) (98, -6.88242180588968244237e-02) (99, 7.39777857526609794458e-02) (100, -1.36555584113082165848e-02) (101, 7.49405224156165367111e-02) (102, -4.10665770333054416796e-02) (103, 8.63272659216390569892e-02) (104, 6.47117281349251409830e-04) (105, -4.10575924054558949461e-02) (106, -6.31312376001917502366e-02) (107, -5.71106426147245521685e-02) (108, 7.00540398037257372454e-02) (109, 3.66720247032480475835e-02) (110, -9.33309615900735634053e-02) (111, -7.59215378873974444662e-02) (91, 2.03378420043810251294e-02) (92, 6.39020279049873352051e-02) (93, 1.43314073005436229749e-03) (94, -7.64940153786076298958e-02) (95, -5.31732614921681945308e-02) (96, -1.31149481772631984478e-02) (97, 2.25009098063203502593e-02) (98, 5.53670436473812296874e-02) (99, 7.88037163428418618860e-02) (100, 9.30122403867120334242e-02) (101, 5.07323097327960353953e-02) (102, -8.07696761277321428896e-02) (103, -9.31739549574099046314e-02) (104, 2.84348146729290693346e-02) (105, -5.13363740295119490298e-03) (106, 2.02810249604999937034e-02) (107, 6.52096209958167860599e-02) (108, 6.47678396605462225466e-02) (109, -5.51665599531236394704e-02) (110, 4.76375278523780976148e-02) (111, 9.01694734443176382221e-02) (91, 4.28700749110754383842e-02) (92, 2.42200866341590881348e-02) (93, 6.70740167067933323874e-02) (94, -2.32125289391113716342e-02) (95, 8.81920468016769293351e-02) (96, -8.03153377141329199995e-02) (97, 5.81321171645262022021e-02) (98, -1.68597846142458265666e-03) (99, -1.20408041009564745205e-02) (100, -7.67168292179032373923e-02) (101, -6.26190419878290965849e-02) (102, -5.12060713824862706600e-02) (103, 8.10112256925160992282e-03) (104, 2.68122836378087044118e-02) (105, -9.06991623490954607112e-02) (106, -8.21900365211285094391e-02) (107, 6.86366997974398457272e-02) (108, 9.82580424058566853640e-02) (109, 1.38304129358192452737e-02) (110, -2.27032120586439130350e-02) (111, -4.06531971752006268672e-02) (91, -5.04877538429993662911e-03) (92, 1.57584920525550842285e-02) (93, 5.30261790887668130190e-02) (94, -5.53407616616821140809e-02) (95, -5.05095830372835966071e-02) (96, 2.01310955112873994632e-02) (97, -6.75357513367580569730e-02) (98, -1.18072154643908376614e-02) (99, -7.24769675694716952741e-02) (100, -9.14009901305475741529e-03) (101, -7.53110059908356499481e-02) (102, 1.43485027173222198099e-02) (103, 5.12162306602534367350e-02) (104, -6.89393166113113214921e-02) (105, -9.90983684464881581233e-02) (106, 9.19117614333534310722e-02) (107, 6.70573439458298781179e-02) (108, 5.68081541321869970540e-02) (109, 6.59575820284445946129e-02) (110, -3.43905182808936366046e-02) (111, 7.46819579285342705077e-02) (91, 5.14986470801884633347e-03) (92, -5.66647648811340332031e-02) (93, 3.52801702771861902530e-02) (94, 9.87641424633712849968e-02) (95, 7.27134151025884412078e-02) (96, 3.50557951708362902643e-02) (97, 7.12576889300866878063e-02) (98, -2.52741342940553219421e-02) (99, -3.11853338272718196011e-02) (100, 5.29575185233353007419e-02) (101, -3.32144718422958534765e-02) (102, 6.84506087475726526792e-02) (103, -7.34965329349347579191e-02) (104, -9.81720539297501748610e-02) (105, 2.45848769449609066973e-02) (106, 5.11819356123538390935e-02) (107, -8.11306001542539401150e-02) (108, -9.78203599137977136690e-02) (109, -1.59746855533963137697e-02) (110, 7.88292690431754983216e-02) (111, -9.39491035461529622186e-02) (91, 7.70499738212393342485e-02) (92, -8.19513872265815734863e-02) (93, 4.30182729007327971371e-02) (94, -9.46312848087346863979e-02) (95, 9.00540904017340104737e-02) (96, -4.70294284215863681031e-02) (97, 1.18247398312465341885e-02) (98, -3.26280614831747708959e-02) (99, 5.60856194816133774017e-02) (100, -5.98549969805202281004e-02) (101, 1.57615872962380103306e-02) (102, -3.78356293932304368899e-02) (103, 4.15290237273736179135e-02) (104, 9.49071455371868211159e-02) (105, -5.21020810246469734395e-02) (106, -3.16922952740037039421e-02) (107, -7.33238917007999618791e-02) (108, -5.44501554790583208732e-02) (109, -1.04047040741631485750e-02) (110, 6.45503269507529814364e-02) (111, 1.89940928628304604719e-02) (91, 2.83835472712486089342e-02) (92, 8.21160003542900085449e-02) (93, -7.63989499783057496307e-02) (94, -5.49469265472199222544e-02) (95, 8.46889338013469689104e-02) (96, -8.16278012044207440523e-02) (97, -3.26039596548834340051e-02) (98, 4.23251600178539688635e-02) (99, -4.06993419474977746741e-02) (100, -7.72401956486096913368e-02) (101, 4.86985661884791892762e-02) (102, 5.50101856910506295528e-02) (103, 8.26772454700229753044e-02) (104, -3.05982595679336784322e-02) (105, -9.51714728906193907498e-02) (106, 3.13796888745637089779e-02) (107, 9.72828687800118552254e-02) (108, 3.73111813008605991415e-02) (109, -8.75691966304727453796e-02) (110, 3.50469830745699512109e-02) (111, -4.63910788398158857593e-02) (91, 2.23454718407297241167e-02) (92, -9.11283344030380249023e-02) (93, 6.09010511160087975036e-03) (94, -8.59805192737900757238e-03) (95, 9.96556533051614762408e-02) (96, 6.20079847104512554834e-02) (97, -7.68524371914957038499e-02) (98, 3.61907509888031164724e-02) (99, 9.16801656331207165396e-03) (100, -4.93321387634070990247e-02) (101, -1.50121800863623616751e-02) (102, 6.61655682948179280078e-02) (103, 9.71532024649050807152e-03) (104, 4.89065419110294302696e-02) (105, -5.61948478875628973372e-02) (106, 3.15007337008958027136e-02) (107, -9.22452397202953855437e-02) (108, -6.27516908079972096646e-02) (109, 8.66445111999989553420e-02) (110, 9.14929788695297008250e-02) (111, 2.80624840309971340657e-02) (91, -7.24888027579449756299e-02) (92, 3.82446721196174621582e-02) (93, -2.15955767306455735655e-02) (94, -7.51283845620038647634e-03) (95, -6.52102120787261818613e-02) (96, -8.94747174849386539552e-02) (97, -8.08332956622672890723e-03) (98, 7.22452790860333426970e-02) (99, 3.68436698306038520889e-02) (100, -4.22635412587498010550e-02) (101, -5.57834559189734446698e-04) (102, -6.03805873726516659228e-02) (103, -3.27035990005946700099e-02) (104, -1.06112697187864171017e-02) (105, -4.68361875889615128510e-03) (106, 6.41840647076358516987e-02) (107, 3.51341525545587800641e-03) (108, 8.31099400009134986478e-02) (109, 8.64554875875636757998e-02) (110, -7.43700791939201910630e-02) (111, -4.52555243974716026045e-02) (112, -8.63428325462549245417e-02) (113, -4.60122693939297444654e-02) (114, -1.34373046949402847466e-02) (115, 1.35482883232984994276e-02) (116, 3.37256011447538556203e-02) (117, 5.66214915579620683972e-02) (118, -1.94310440535375751614e-02) (119, 5.57562951823163885368e-02) (120, -2.41488267783702345581e-02) (121, 3.31701791097716806173e-03) (122, -7.67495749560686158636e-03) (123, -5.25719440073812924186e-02) (124, 5.13215536631236261128e-03) (125, 8.17547163755953099074e-02) (126, 4.95732445704453600355e-02) (127, 2.35526309606736115876e-02) (128, 2.78062389636259156556e-02) (129, 9.81798751630282434677e-02) (130, 1.00030862170682688372e-01) (131, 9.95098857603245318115e-02) (132, -3.84978180018610074975e-02) (112, -9.30425950994266809380e-02) (113, -2.42391683002233931932e-02) (114, -5.92960498429186896874e-02) (115, 3.67324443409479256539e-02) (116, 5.62089364213283829153e-02) (117, 2.19837344747651278198e-02) (118, -1.28229297383582081793e-02) (119, -3.74946083824610823521e-02) (120, -5.80688194652358782855e-02) (121, 5.43408456188292868921e-03) (122, 8.41766653107047235771e-02) (123, 9.77919398427028740972e-02) (124, -5.46026271351671144139e-02) (125, -7.86144899813109865327e-03) (126, 1.61657322904165297317e-02) (127, -1.47527930170865267945e-02) (128, -8.80426227518810167183e-02) (129, 7.50260433010179698249e-03) (130, 1.84169892641903414077e-02) (131, -6.37614143943329436670e-02) (132, 8.25397305078265641765e-02) (112, -7.20805098238319758019e-02) (113, 5.69669034860270651066e-02) (114, -4.48737039723381206380e-02) (115, 3.05962079345684506704e-02) (116, 1.21045907666663711544e-02) (117, -3.86401410649291829347e-02) (118, -5.80168145003287782924e-02) (119, -7.49243090811064216261e-02) (120, 1.83963257407333720395e-02) (121, -7.36776526222787248033e-02) (122, -4.76315048441724731010e-02) (123, -1.74521984059544700563e-02) (124, 5.36294169047183411081e-02) (125, 4.11464326014528633535e-02) (126, -4.97612061896074691497e-03) (127, -6.35540768074704109925e-02) (128, -2.58956419572438333032e-02) (129, -2.69228337739984939503e-02) (130, -3.16972693492550555705e-02) (131, 2.48262450688472059712e-02) (132, 1.00627874687941890053e-01) (112, 1.40386791938115779860e-02) (113, -7.74952091379988022846e-02) (114, 2.07796790784850644862e-02) (115, -4.34051300894665037511e-02) (116, 8.02658686757361378161e-02) (117, 8.94711166208793651222e-02) (118, -2.16391079087849269591e-03) (119, 4.31941812647733680564e-02) (120, 5.08065301811823841205e-02) (121, -5.06219750171126026128e-02) (122, 8.80584549035587776933e-02) (123, 6.43987705547287569985e-02) (124, 7.97462672841726775974e-03) (125, 1.04141561370510365991e-01) (126, -2.24935465301246417802e-02) (127, 5.01189650114982482298e-02) (128, -8.32065919433956080464e-02) (129, -9.37828707394453009449e-02) (130, 3.01769871392213763495e-02) (131, -1.97867682389296743739e-02) (132, 8.27108355335136186115e-02) (112, -6.85231957306482453163e-02) (113, 5.87805144886463688814e-03) (114, -4.10239357192027347815e-03) (115, 3.57474459996781415705e-02) (116, 3.69759646937031435932e-02) (117, -4.40702010651984055212e-02) (118, -9.60132899024692364198e-03) (119, 1.04999182291923967569e-01) (120, 9.04019646128310372379e-02) (121, 3.94945975359077341982e-02) (122, 1.38057787061157278413e-02) (123, -5.82999017613597472764e-02) (124, 1.95738689950668912076e-02) (125, -1.17071819584276294590e-02) (126, -2.65345063083400299619e-02) (127, -7.56980864886981907880e-02) (128, -3.63719927480841975775e-02) (129, -4.17391542175630982786e-03) (130, -7.01293397277686220148e-02) (131, 2.24676981959601521077e-02) (132, 3.79748171575553170043e-02) (112, 4.02805133308073784471e-03) (113, 6.97542890294084033664e-02) (114, 5.69635673030755990132e-02) (115, -5.78463374501057420174e-02) (116, -3.62310200945142324436e-02) (117, 9.28926685232604187892e-02) (118, 8.82979892426951767925e-02) (119, 9.98601246939161829586e-02) (120, 7.69373983073074266259e-03) (121, 8.34601605966016624194e-02) (122, 7.27367927024952509729e-02) (123, 6.98313899994736364540e-02) (124, 9.94692067432444287922e-02) (125, 2.54193935244942468415e-03) (126, 4.97184352919144076366e-03) (127, 5.50816418620867567779e-02) (128, -1.11598253288491978258e-02) (129, -1.07352173408591469207e-03) (130, -1.86218296201988674221e-02) (131, 3.51313146582479945979e-02) (132, 7.33631142499874266960e-02) (112, 5.13420464526041266107e-03) (113, 4.03625422875494369035e-02) (114, 7.68979877751685692022e-02) (115, -6.06223718126294580655e-02) (116, 4.49538389866125792649e-02) (117, -1.27103677972572777499e-02) (118, -7.24991816049950776879e-02) (119, 9.46830929305802065921e-02) (120, 5.27191147262533188478e-02) (121, -1.46779642495839888344e-02) (122, -8.77042633503141433327e-02) (123, 8.49075521888806028503e-02) (124, 5.27149626298358472964e-02) (125, -6.25653017404932954015e-02) (126, 1.71859434735477170642e-02) (127, -9.14569897723904318143e-02) (128, -5.27311731422159743476e-02) (129, 2.12682559075274488225e-02) (130, -3.62497229269284557129e-02) (131, -6.67017348143640609326e-02) (132, -7.83766055839586403553e-03) (112, -2.57542446407791232599e-02) (113, -5.89357736589855990550e-02) (114, -2.57283562702052201465e-02) (115, 6.87964531893148884510e-04) (116, -9.65388623680958485318e-02) (117, -4.75153762748859523346e-02) (118, -2.98933804690846467722e-02) (119, 2.14779806527505418012e-02) (120, 3.30606204629463260036e-02) (121, 6.93646298240555292391e-02) (122, -2.22259091258251093026e-02) (123, 6.70433940782479698139e-02) (124, 9.55310989925825665425e-02) (125, 9.07467242956234571016e-02) (126, 2.40982763115108709895e-02) (127, 5.76799985690050961984e-02) (128, -3.16909076152120314229e-03) (129, 9.16127596909207565778e-03) (130, -4.66620787074386363796e-03) (131, 2.22765811874419614180e-02) (132, -7.51877372036918994319e-03) (112, 1.11404902747265950602e-02) (113, -5.34679300701483700697e-02) (114, -3.53696771993534386791e-02) (115, 7.64580090023083691619e-02) (116, -3.49153557235862277430e-02) (117, -7.06968936603979414279e-02) (118, 8.94183657039637619368e-02) (119, 7.87543852444146652569e-02) (120, -8.32807764533900901638e-02) (121, -3.62831972007700426230e-02) (122, -7.36645454765571944256e-02) (123, -1.54550601165527913550e-02) (124, -3.29668678360588232601e-02) (125, 3.63720623039887405725e-02) (126, -4.27963304154524715184e-02) (127, 8.18310612002696863287e-02) (128, -9.59579928708470530907e-02) (129, -6.74863956499847233994e-02) (130, 7.41700583368300799675e-03) (131, 2.79181305689980181761e-02) (132, -7.08845315460654989970e-02) (112, -5.82157723846368560516e-02) (113, -1.52662206851538213154e-02) (114, 5.18703150802481277593e-02) (115, -2.39468746332220927542e-02) (116, -6.42851979327700162603e-02) (117, -9.05244811388152409437e-02) (118, 8.49872377022547163816e-03) (119, -2.82275418305921871331e-02) (120, -8.15705713529274178963e-02) (121, 6.77364801051497378293e-02) (122, 6.52865093985920408315e-02) (123, 8.82759609236140607713e-02) (124, -7.13911580327368233689e-02) (125, -8.30683481424484282396e-02) (126, 4.83028242283181294403e-02) (127, 1.31876265101039270161e-02) (128, -9.84789090788074604477e-03) (129, 1.12571080601543728472e-02) (130, 9.38419227677250444852e-02) (131, -7.35876848911841685563e-02) (132, -1.59935019763069938281e-02) (112, -9.08521632628338238202e-02) (113, -1.79431553708015367396e-03) (114, 4.59730448005455649696e-02) (115, -6.35278310336767348954e-02) (116, -8.19770286946608361944e-02) (117, 3.53510573085894924672e-02) (118, 8.13503189009240519625e-03) (119, 7.51670291948937918658e-02) (120, 5.81164362687198454704e-02) (121, 1.19156159170526413510e-02) (122, 1.62566042710375023572e-02) (123, 1.68526424674565050710e-02) (124, -4.39266902983000070981e-02) (125, -2.45509507058168548188e-02) (126, -4.85668651728857134198e-02) (127, 5.26866088444121333234e-02) (128, -6.46830255715004770467e-02) (129, -5.04089703113248452371e-02) (130, -8.64646049382734316335e-02) (131, 8.09566278007419759533e-02) (132, 1.70073336916175127387e-02) (112, 4.43468016241235635233e-02) (113, 2.18979784377348364599e-02) (114, -1.21264347420774946766e-03) (115, -3.56974246823450677701e-02) (116, 9.15571926899392957155e-02) (117, 2.76888103321474461638e-02) (118, -5.23494218449705658869e-02) (119, -9.11024604902648527105e-02) (120, -4.92291018020305157221e-02) (121, -6.78661608908603108947e-02) (122, -6.30995861156115472879e-02) (123, 1.04482686489097018057e-01) (124, -3.87603694787364352892e-02) (125, 9.73497910430645013724e-02) (126, 1.58089531653159108548e-02) (127, -4.48004146265440841845e-02) (128, -9.12638790553540746320e-02) (129, 7.57765474757021995078e-02) (130, -6.83545081453928449200e-02) (131, 7.55712975317652108087e-02) (132, -1.27188509633945350148e-03) (112, -5.75956654213737803683e-02) (113, 6.16969426261100711839e-02) (114, -7.25479009852045830797e-02) (115, -2.46046809280493668226e-02) (116, -6.84828129318167944106e-02) (117, 5.15551535514110759184e-02) (118, 1.42883738467582156739e-02) (119, -4.42669019540690156234e-02) (120, 4.28922204256762182317e-02) (121, 9.66296559549030820158e-02) (122, 8.97911018636001478921e-02) (123, 8.29923248948866709718e-02) (124, 3.05159010254911211568e-02) (125, -6.92025843565683973502e-02) (126, 4.47920165293600347923e-04) (127, -1.68890217645183415840e-02) (128, 8.01428681042305746107e-02) (129, -5.96682621502285098769e-02) (130, 2.49810160731385386135e-02) (131, -1.24961561042890995088e-02) (132, -3.82091160621002512649e-05) (112, 6.79169070222134917819e-03) (113, 1.37082639093448494655e-02) (114, 3.58044242016760244640e-02) (115, -1.97929837585618037532e-02) (116, 2.99568394272789716160e-02) (117, -2.42767689166165298587e-02) (118, 8.21305185358639916471e-02) (119, -1.04806497082501511031e-02) (120, 5.37946219020973698255e-02) (121, 9.20863324974186686633e-02) (122, 7.51338116847153625333e-02) (123, -8.84007920938758157137e-02) (124, -6.82252785809890766044e-02) (125, 9.42027062214395929929e-03) (126, -8.88286609467946047802e-02) (127, -5.00629759051786638047e-02) (128, -2.57116489025664904378e-02) (129, 3.95449879353702293816e-02) (130, 3.04865546732288432430e-02) (131, -7.35657552386405205747e-02) (132, -7.84601383258024254186e-02) (112, 5.47534812272468182637e-02) (113, -3.11725628452234268528e-02) (114, 6.10599418322667134018e-02) (115, -8.33750054060075490581e-02) (116, 7.16183683162043560610e-02) (117, -8.55769839526269032737e-02) (118, -7.19451252088672971174e-02) (119, 2.40681171040131244854e-02) (120, 1.32355620997541278960e-02) (121, -5.64331609074675000226e-02) (122, -5.62024758074169440702e-03) (123, -2.03201446213110495376e-02) (124, -5.40356559163309921323e-02) (125, 6.36655681770346149051e-02) (126, -2.87306308721858444377e-02) (127, -1.46859852831748519814e-02) (128, 7.07097487647215389162e-02) (129, -9.70407454833720206633e-02) (130, -6.66544390020356591897e-02) (131, 2.30100838607080089571e-02) (132, 4.23677503955181278261e-02) (112, 9.97489354744543615938e-02) (113, 5.35361719783594269123e-03) (114, -8.78856487619518733645e-02) (115, -9.40317103331384657183e-02) (116, 7.24183267843148820164e-02) (117, 3.79758496589863783766e-02) (118, -5.61625020254777132522e-02) (119, -4.15166518477608631477e-02) (120, -6.00769131328744640519e-02) (121, 2.14152935135791949728e-02) (122, 1.30078091591613979883e-02) (123, -5.01657943103216708014e-02) (124, 1.90974779579981754352e-02) (125, 2.75865407142928883988e-02) (126, -2.89438731348043397362e-02) (127, 4.00217494022479195609e-03) (128, 8.86509786759500789666e-02) (129, 8.37239231964676533515e-02) (130, 4.73564529260734265459e-02) (131, 8.39750638607119764822e-02) (132, 8.36701835172562885523e-02) (112, 8.70279799419175770225e-02) (113, -9.05706237464259933390e-03) (114, 9.36348262504473893841e-02) (115, -6.32441924285948309237e-02) (116, 8.09562690070272095166e-02) (117, -6.53866394522802929501e-02) (118, -1.91768846632000521113e-02) (119, -2.88123487511449394294e-02) (120, 6.99586194182278547915e-02) (121, 3.33579499170963689192e-02) (122, 2.59490567385230533337e-02) (123, -3.45514230263389982012e-02) (124, -5.91835215939587322431e-02) (125, -7.87585047914260844015e-02) (126, 5.59709632130109407955e-02) (127, -3.35935047017609858533e-02) (128, 8.70929626265518480599e-02) (129, 6.22996372899516717703e-02) (130, -4.96410043348737700653e-02) (131, 6.90737525565623122770e-02) (132, -2.28995918594759352571e-02) (112, -6.82060706302012736968e-02) (113, -2.33681654570362766499e-02) (114, 7.22497710655447822337e-02) (115, -7.51021542311756107324e-02) (116, -9.03532691588339181843e-02) (117, -1.97029303691448783031e-02) (118, -4.32740572229947800809e-02) (119, -1.62576133299028799395e-02) (120, 2.98669964785596223078e-02) (121, 1.14533768144054123872e-02) (122, -3.10967320800720724294e-02) (123, -3.55234572455737432350e-02) (124, 9.03151061570084956465e-02) (125, 3.69669632805166986644e-02) (126, -7.36570988229993950380e-03) (127, -5.21231389285750461304e-03) (128, 4.87134733350553586484e-02) (129, 4.11771196501678204971e-02) (130, -7.75838120026375588356e-02) (131, 6.66113522062521667966e-02) (132, 5.59428061459360109753e-02) (112, -3.54451684372851447136e-02) (113, 8.03295795992935574015e-02) (114, -4.11524471121662849260e-02) (115, -6.40643030618611906100e-04) (116, -4.30738538290428782385e-02) (117, 3.69215609191874544193e-02) (118, 8.95855976536628767493e-02) (119, 7.43750416766445904271e-02) (120, 4.61103164251222483183e-02) (121, -4.85260746790655769778e-02) (122, 7.25742413937723040984e-02) (123, -3.28339571666254673166e-02) (124, 1.75523520360853085842e-02) (125, 7.41682749570036492504e-02) (126, -5.68189363004392850032e-02) (127, -3.62463277197653185868e-02) (128, 8.19286886824714816191e-02) (129, -2.25355842526181677013e-03) (130, 9.11665814967099474853e-02) (131, 4.44918617649384257051e-02) (132, -1.87678433651488722755e-02) (112, -6.16780428128847202363e-02) (113, -6.84652920149157184770e-02) (114, -1.56407907466573070643e-02) (115, -9.17306595505230776277e-02) (116, -3.91717498723373538927e-02) (117, 3.77670383884778568251e-02) (118, -4.19307166736967440457e-02) (119, 4.99336329082316222189e-03) (120, 8.61695708577896041236e-02) (121, 8.06554664159869622031e-02) (122, -5.28131342683830218299e-02) (123, -1.18548169165727090152e-02) (124, 4.04012360417769916809e-02) (125, 2.20568099917686118172e-02) (126, 6.06998519719614409995e-02) (127, -9.70505037141804888234e-02) (128, 8.76250013676799083262e-02) (129, 6.14173024417772467354e-03) (130, -2.73945976281267516983e-02) (131, -2.23246280046309787670e-02) (132, 9.65229036646657323484e-02) (133, 2.14367526046222410530e-02) (134, -4.96762024792009662666e-02) (135, -2.51878310509236792714e-02) (136, 1.98003939509379389694e-02) (137, 7.15988247169708352802e-02) (138, 6.31387878952484327133e-02) (139, 7.11355207890248808500e-02) (140, 4.92768609903626655933e-02) (141, 4.89563944127288860897e-02) (142, -3.03190369549323004983e-02) (143, 4.08339416485222761466e-02) (144, 1.24282053409558376766e-01) (145, 3.85340695295255664110e-02) (146, -3.13050014471270496297e-02) (147, 8.98243505231854644233e-02) (148, 2.67175424214143725221e-02) (149, 8.63351721265115668036e-02) (150, -1.47301095205755998990e-02) (151, 1.38088438117545064809e-01) 