FANN_FLO_2.1
num_layers=9
learning_rate=0.070000
connection_rate=1.000000
network_type=0
learning_momentum=0.000000
training_algorithm=1
train_error_function=1
train_stop_function=0
cascade_output_change_fraction=0.010000
quickprop_decay=-0.000100
quickprop_mu=1.750000
rprop_increase_factor=1.200000
rprop_decrease_factor=0.500000
rprop_delta_min=0.000000
rprop_delta_max=50.000000
rprop_delta_zero=0.100000
cascade_output_stagnation_epochs=12
cascade_candidate_change_fraction=0.010000
cascade_candidate_stagnation_epochs=12
cascade_max_out_epochs=150
cascade_min_out_epochs=50
cascade_max_cand_epochs=150
cascade_min_cand_epochs=50
cascade_num_candidate_groups=2
bit_fail_limit=3.49999999999999977796e-01
cascade_candidate_limit=1.00000000000000000000e+03
cascade_weight_multiplier=4.00000000000000022204e-01
cascade_activation_functions_count=10
cascade_activation_functions=3 5 7 8 10 11 14 15 16 17 
cascade_activation_steepnesses_count=4
cascade_activation_steepnesses=2.50000000000000000000e-01 5.00000000000000000000e-01 7.50000000000000000000e-01 1.00000000000000000000e+00 
layer_sizes=91 21 21 21 21 21 21 21 2 
scale_included=0
neurons (num_inputs, activation_function, activation_steepness)=(0, 0, 0.00000000000000000000e+00) (0, 0, 0.00000000000000000000e+00) (0, 0, 0.00000000000000000000e+00) (0, 0, 0.00000000000000000000e+00) (0, 0, 0.00000000000000000000e+00) (0, 0, 0.00000000000000000000e+00) (0, 0, 0.00000000000000000000e+00) (0, 0, 0.00000000000000000000e+00) (0, 0, 0.00000000000000000000e+00) (0, 0, 0.00000000000000000000e+00) (0, 0, 0.00000000000000000000e+00) (0, 0, 0.00000000000000000000e+00) (0, 0, 0.00000000000000000000e+00) (0, 0, 0.00000000000000000000e+00) (0, 0, 0.00000000000000000000e+00) (0, 0, 0.00000000000000000000e+00) (0, 0, 0.00000000000000000000e+00) (0, 0, 0.00000000000000000000e+00) (0, 0, 0.00000000000000000000e+00) (0, 0, 0.00000000000000000000e+00) (0, 0, 0.00000000000000000000e+00) (0, 0, 0.00000000000000000000e+00) (0, 0, 0.00000000000000000000e+00) (0, 0, 0.00000000000000000000e+00) (0, 0, 0.00000000000000000000e+00) (0, 0, 0.00000000000000000000e+00) (0, 0, 0.00000000000000000000e+00) (0, 0, 0.00000000000000000000e+00) (0, 0, 0.00000000000000000000e+00) (0, 0, 0.00000000000000000000e+00) (0, 0, 0.00000000000000000000e+00) (0, 0, 0.00000000000000000000e+00) (0, 0, 0.00000000000000000000e+00) (0, 0, 0.00000000000000000000e+00) (0, 0, 0.00000000000000000000e+00) (0, 0, 0.00000000000000000000e+00) (0, 0, 0.00000000000000000000e+00) (0, 0, 0.00000000000000000000e+00) (0, 0, 0.00000000000000000000e+00) (0, 0, 0.00000000000000000000e+00) (0, 0, 0.00000000000000000000e+00) (0, 0, 0.00000000000000000000e+00) (0, 0, 0.00000000000000000000e+00) (0, 0, 0.00000000000000000000e+00) (0, 0, 0.00000000000000000000e+00) (0, 0, 0.00000000000000000000e+00) (0, 0, 0.00000000000000000000e+00) (0, 0, 0.00000000000000000000e+00) (0, 0, 0.00000000000000000000e+00) (0, 0, 0.00000000000000000000e+00) (0, 0, 0.00000000000000000000e+00) (0, 0, 0.00000000000000000000e+00) (0, 0, 0.00000000000000000000e+00) (0, 0, 0.00000000000000000000e+00) (0, 0, 0.00000000000000000000e+00) (0, 0, 0.00000000000000000000e+00) (0, 0, 0.00000000000000000000e+00) (0, 0, 0.00000000000000000000e+00) (0, 0, 0.00000000000000000000e+00) (0, 0, 0.00000000000000000000e+00) (0, 0, 0.00000000000000000000e+00) (0, 0, 0.00000000000000000000e+00) (0, 0, 0.00000000000000000000e+00) (0, 0, 0.00000000000000000000e+00) (0, 0, 0.00000000000000000000e+00) (0, 0, 0.00000000000000000000e+00) (0, 0, 0.00000000000000000000e+00) (0, 0, 0.00000000000000000000e+00) (0, 0, 0.00000000000000000000e+00) (0, 0, 0.00000000000000000000e+00) (0, 0, 0.00000000000000000000e+00) (0, 0, 0.00000000000000000000e+00) (0, 0, 0.00000000000000000000e+00) (0, 0, 0.00000000000000000000e+00) (0, 0, 0.00000000000000000000e+00) (0, 0, 0.00000000000000000000e+00) (0, 0, 0.00000000000000000000e+00) (0, 0, 0.00000000000000000000e+00) (0, 0, 0.00000000000000000000e+00) (0, 0, 0.00000000000000000000e+00) (0, 0, 0.00000000000000000000e+00) (0, 0, 0.00000000000000000000e+00) (0, 0, 0.00000000000000000000e+00) (0, 0, 0.00000000000000000000e+00) (0, 0, 0.00000000000000000000e+00) (0, 0, 0.00000000000000000000e+00) (0, 0, 0.00000000000000000000e+00) (0, 0, 0.00000000000000000000e+00) (0, 0, 0.00000000000000000000e+00) (0, 0, 0.00000000000000000000e+00) (0, 0, 0.00000000000000000000e+00) (91, 4, 5.00000000000000000000e-01) (91, 4, 5.00000000000000000000e-01) (91, 4, 5.00000000000000000000e-01) (91, 4, 5.00000000000000000000e-01) (91, 4, 5.00000000000000000000e-01) (91, 4, 5.00000000000000000000e-01) (91, 4, 5.00000000000000000000e-01) (91, 4, 5.00000000000000000000e-01) (91, 4, 5.00000000000000000000e-01) (91, 4, 5.00000000000000000000e-01) (91, 4, 5.00000000000000000000e-01) (91, 4, 5.00000000000000000000e-01) (91, 4, 5.00000000000000000000e-01) (91, 4, 5.00000000000000000000e-01) (91, 4, 5.00000000000000000000e-01) (91, 4, 5.00000000000000000000e-01) (91, 4, 5.00000000000000000000e-01) (91, 4, 5.00000000000000000000e-01) (91, 4, 5.00000000000000000000e-01) (91, 4, 5.00000000000000000000e-01) (0, 4, 0.00000000000000000000e+00) (21, 4, 5.00000000000000000000e-01) (21, 4, 5.00000000000000000000e-01) (21, 4, 5.00000000000000000000e-01) (21, 4, 5.00000000000000000000e-01) (21, 4, 5.00000000000000000000e-01) (21, 4, 5.00000000000000000000e-01) (21, 4, 5.00000000000000000000e-01) (21, 4, 5.00000000000000000000e-01) (21, 4, 5.00000000000000000000e-01) (21, 4, 5.00000000000000000000e-01) (21, 4, 5.00000000000000000000e-01) (21, 4, 5.00000000000000000000e-01) (21, 4, 5.00000000000000000000e-01) (21, 4, 5.00000000000000000000e-01) (21, 4, 5.00000000000000000000e-01) (21, 4, 5.00000000000000000000e-01) (21, 4, 5.00000000000000000000e-01) (21, 4, 5.00000000000000000000e-01) (21, 4, 5.00000000000000000000e-01) (21, 4, 5.00000000000000000000e-01) (0, 4, 0.00000000000000000000e+00) (21, 4, 5.00000000000000000000e-01) (21, 4, 5.00000000000000000000e-01) (21, 4, 5.00000000000000000000e-01) (21, 4, 5.00000000000000000000e-01) (21, 4, 5.00000000000000000000e-01) (21, 4, 5.00000000000000000000e-01) (21, 4, 5.00000000000000000000e-01) (21, 4, 5.00000000000000000000e-01) (21, 4, 5.00000000000000000000e-01) (21, 4, 5.00000000000000000000e-01) (21, 4, 5.00000000000000000000e-01) (21, 4, 5.00000000000000000000e-01) (21, 4, 5.00000000000000000000e-01) (21, 4, 5.00000000000000000000e-01) (21, 4, 5.00000000000000000000e-01) (21, 4, 5.00000000000000000000e-01) (21, 4, 5.00000000000000000000e-01) (21, 4, 5.00000000000000000000e-01) (21, 4, 5.00000000000000000000e-01) (21, 4, 5.00000000000000000000e-01) (0, 4, 0.00000000000000000000e+00) (21, 4, 5.00000000000000000000e-01) (21, 4, 5.00000000000000000000e-01) (21, 4, 5.00000000000000000000e-01) (21, 4, 5.00000000000000000000e-01) (21, 4, 5.00000000000000000000e-01) (21, 4, 5.00000000000000000000e-01) (21, 4, 5.00000000000000000000e-01) (21, 4, 5.00000000000000000000e-01) (21, 4, 5.00000000000000000000e-01) (21, 4, 5.00000000000000000000e-01) (21, 4, 5.00000000000000000000e-01) (21, 4, 5.00000000000000000000e-01) (21, 4, 5.00000000000000000000e-01) (21, 4, 5.00000000000000000000e-01) (21, 4, 5.00000000000000000000e-01) (21, 4, 5.00000000000000000000e-01) (21, 4, 5.00000000000000000000e-01) (21, 4, 5.00000000000000000000e-01) (21, 4, 5.00000000000000000000e-01) (21, 4, 5.00000000000000000000e-01) (0, 4, 0.00000000000000000000e+00) (21, 4, 5.00000000000000000000e-01) (21, 4, 5.00000000000000000000e-01) (21, 4, 5.00000000000000000000e-01) (21, 4, 5.00000000000000000000e-01) (21, 4, 5.00000000000000000000e-01) (21, 4, 5.00000000000000000000e-01) (21, 4, 5.00000000000000000000e-01) (21, 4, 5.00000000000000000000e-01) (21, 4, 5.00000000000000000000e-01) (21, 4, 5.00000000000000000000e-01) (21, 4, 5.00000000000000000000e-01) (21, 4, 5.00000000000000000000e-01) (21, 4, 5.00000000000000000000e-01) (21, 4, 5.00000000000000000000e-01) (21, 4, 5.00000000000000000000e-01) (21, 4, 5.00000000000000000000e-01) (21, 4, 5.00000000000000000000e-01) (21, 4, 5.00000000000000000000e-01) (21, 4, 5.00000000000000000000e-01) (21, 4, 5.00000000000000000000e-01) (0, 4, 0.00000000000000000000e+00) (21, 4, 5.00000000000000000000e-01) (21, 4, 5.00000000000000000000e-01) (21, 4, 5.00000000000000000000e-01) (21, 4, 5.00000000000000000000e-01) (21, 4, 5.00000000000000000000e-01) (21, 4, 5.00000000000000000000e-01) (21, 4, 5.00000000000000000000e-01) (21, 4, 5.00000000000000000000e-01) (21, 4, 5.00000000000000000000e-01) (21, 4, 5.00000000000000000000e-01) (21, 4, 5.00000000000000000000e-01) (21, 4, 5.00000000000000000000e-01) (21, 4, 5.00000000000000000000e-01) (21, 4, 5.00000000000000000000e-01) (21, 4, 5.00000000000000000000e-01) (21, 4, 5.00000000000000000000e-01) (21, 4, 5.00000000000000000000e-01) (21, 4, 5.00000000000000000000e-01) (21, 4, 5.00000000000000000000e-01) (21, 4, 5.00000000000000000000e-01) (0, 4, 0.00000000000000000000e+00) (21, 4, 5.00000000000000000000e-01) (21, 4, 5.00000000000000000000e-01) (21, 4, 5.00000000000000000000e-01) (21, 4, 5.00000000000000000000e-01) (21, 4, 5.00000000000000000000e-01) (21, 4, 5.00000000000000000000e-01) (21, 4, 5.00000000000000000000e-01) (21, 4, 5.00000000000000000000e-01) (21, 4, 5.00000000000000000000e-01) (21, 4, 5.00000000000000000000e-01) (21, 4, 5.00000000000000000000e-01) (21, 4, 5.00000000000000000000e-01) (21, 4, 5.00000000000000000000e-01) (21, 4, 5.00000000000000000000e-01) (21, 4, 5.00000000000000000000e-01) (21, 4, 5.00000000000000000000e-01) (21, 4, 5.00000000000000000000e-01) (21, 4, 5.00000000000000000000e-01) (21, 4, 5.00000000000000000000e-01) (21, 4, 5.00000000000000000000e-01) (0, 4, 0.00000000000000000000e+00) (21, 4, 5.00000000000000000000e-01) (0, 4, 0.00000000000000000000e+00) 
connections (connected_to_neuron, weight)=(0, -8.45810621976852416992e-02) (1, 4.60642799735069274902e-02) (2, 2.43917852640151977539e-03) (3, -4.65683639049530029297e-03) (4, -6.73921257257461547852e-02) (5, -5.93441203236579895020e-02) (6, 3.41387093067169189453e-03) (7, -2.31518521904945373535e-02) (8, 8.68051871657371520996e-02) (9, -6.52882829308509826660e-02) (10, 9.98650565743446350098e-02) (11, 3.19651439785957336426e-02) (12, 3.82228419184684753418e-02) (13, 1.12598165869712829590e-02) (14, 4.36693802475929260254e-02) (15, -4.87986207008361816406e-02) (16, 4.15572449564933776855e-02) (17, 5.24887517094612121582e-02) (18, -2.17601358890533447266e-02) (19, 7.73669853806495666504e-02) (20, -9.30862799286842346191e-02) (21, 9.89559069275856018066e-02) (22, -4.81270626187324523926e-02) (23, -7.15112835168838500977e-02) (24, -9.01981964707374572754e-02) (25, 3.89339104294776916504e-02) (26, -3.78273725509643554688e-02) (27, 3.53907272219657897949e-02) (28, 1.18251293897628784180e-02) (29, -5.50948642194271087646e-02) (30, 2.06205472350120544434e-02) (31, -3.04820239543914794922e-02) (32, 8.85942056775093078613e-02) (33, 2.75994837284088134766e-03) (34, -1.35531574487686157227e-02) (35, 1.21319517493247985840e-02) (36, -9.81718078255653381348e-02) (37, 2.64478102326393127441e-02) (38, -9.17604342103004455566e-02) (39, -1.76192745566368103027e-02) (40, 7.28735253214836120605e-02) (41, -1.47509202361106872559e-02) (42, 8.12873914837837219238e-02) (43, -2.84591317176818847656e-03) (44, -3.12853977084159851074e-02) (45, -1.36615261435508728027e-02) (46, -9.32712852954864501953e-03) (47, 3.88575866818428039551e-02) (48, 7.96341970562934875488e-02) (49, 1.18965506553649902344e-02) (50, -5.47442622482776641846e-02) (51, -8.68136882781982421875e-02) (52, -7.76431336998939514160e-02) (53, 5.18176481127738952637e-02) (54, 9.91566702723503112793e-02) (55, -7.38521292805671691895e-02) (56, -3.27632278203964233398e-02) (57, -5.14974482357501983643e-02) (58, 8.23816135525703430176e-02) (59, -1.21084600687026977539e-02) (60, 9.31107476353645324707e-02) (61, -8.76598507165908813477e-02) (62, -9.91077646613121032715e-02) (63, 9.57664772868156433105e-02) (64, -5.28788827359676361084e-02) (65, 6.45869299769401550293e-02) (66, -8.76372084021568298340e-02) (67, 8.15073475241661071777e-02) (68, 9.40945670008659362793e-02) (69, 4.73922416567802429199e-02) (70, -7.87373259663581848145e-02) (71, 6.17595240473747253418e-02) (72, -7.75946676731109619141e-03) (73, -1.33118480443954467773e-02) (74, 6.78488686680793762207e-02) (75, -6.42101168632507324219e-02) (76, 2.05520763993263244629e-02) (77, 1.86738520860671997070e-02) (78, 5.14611080288887023926e-02) (79, -9.30528640747070312500e-02) (80, 6.04979023337364196777e-02) (81, -1.18277892470359802246e-02) (82, 1.03562101721763610840e-02) (83, 5.67673072218894958496e-02) (84, 8.82182195782661437988e-02) (85, 8.37916806340217590332e-02) (86, 8.66041108965873718262e-02) (87, -4.47395741939544677734e-02) (88, 6.20239153504371643066e-02) (89, 3.59042957425117492676e-02) (90, 4.35778722167015075684e-02) (0, 1.32900848984718322754e-02) (1, -3.36564928293228149414e-02) (2, -6.46228119730949401855e-02) (3, 8.44464078545570373535e-02) (4, 9.06999930739402770996e-02) (5, -5.24465739727020263672e-03) (6, 5.31002208590507507324e-02) (7, 5.53223863244056701660e-02) (8, 3.41548025608062744141e-03) (9, 3.91642749309539794922e-03) (10, 2.33992561697959899902e-02) (11, 7.12790563702583312988e-02) (12, -1.27886757254600524902e-02) (13, 6.07324615120887756348e-02) (14, -6.95353299379348754883e-02) (15, -8.02305489778518676758e-02) (16, -3.48208621144294738770e-02) (17, -3.42493951320648193359e-02) (18, -2.95928567647933959961e-02) (19, 3.27739492058753967285e-02) (20, 3.17042991518974304199e-02) (21, 5.41130527853965759277e-02) (22, 7.80152007937431335449e-02) (23, 1.36686861515045166016e-03) (24, -2.70383879542350769043e-02) (25, -3.42515185475349426270e-02) (26, -6.52513653039932250977e-02) (27, -7.96963945031166076660e-02) (28, -5.72646893560886383057e-02) (29, -4.76180203258991241455e-02) (30, 8.39281007647514343262e-02) (31, -2.04778760671615600586e-02) (32, 2.82812193036079406738e-02) (33, -7.76745155453681945801e-02) (34, -7.55356401205062866211e-02) (35, 7.25311264395713806152e-02) (36, 3.05698588490486145020e-02) (37, -1.24924331903457641602e-02) (38, 3.96181419491767883301e-02) (39, 6.20721355080604553223e-02) (40, 4.63796332478523254395e-02) (41, -9.76953878998756408691e-02) (42, 3.36406305432319641113e-02) (43, -1.94489210844039916992e-03) (44, -8.78181159496307373047e-02) (45, 4.09049913287162780762e-02) (46, 9.00213196873664855957e-02) (47, -1.17599219083786010742e-02) (48, -4.90005612373352050781e-02) (49, 4.75473478436470031738e-02) (50, -7.19459056854248046875e-02) (51, 5.15866279602050781250e-03) (52, -9.82533916831016540527e-02) (53, 5.53289577364921569824e-02) (54, -8.62483680248260498047e-02) (55, 2.36536711454391479492e-02) (56, -5.27684390544891357422e-02) (57, -7.91610777378082275391e-02) (58, -6.02756403386592864990e-02) (59, -5.26586882770061492920e-02) (60, -3.45359295606613159180e-02) (61, -4.54521365463733673096e-02) (62, 8.59086140990257263184e-02) (63, 6.61975815892219543457e-02) (64, -1.73044055700302124023e-02) (65, -3.52126434445381164551e-02) (66, -1.88462138175964355469e-02) (67, 5.17272725701332092285e-02) (68, -1.98539495468139648438e-02) (69, -8.53074938058853149414e-02) (70, 3.69783267378807067871e-02) (71, 9.47776958346366882324e-02) (72, -7.14070200920104980469e-02) (73, 6.21681436896324157715e-02) (74, 6.00032284855842590332e-02) (75, 7.40808323025703430176e-02) (76, 7.66390934586524963379e-02) (77, 7.32247903943061828613e-02) (78, 8.91036018729209899902e-02) (79, -3.57681065797805786133e-02) (80, 4.54942658543586730957e-02) (81, 2.20616087317466735840e-02) (82, -1.04972571134567260742e-02) (83, -2.74919569492340087891e-02) (84, -5.73136173188686370850e-02) (85, -6.99643790721893310547e-02) (86, -9.13157016038894653320e-02) (87, 5.70188686251640319824e-02) (88, -8.39504897594451904297e-02) (89, 4.41750958561897277832e-02) (90, 5.07119670510292053223e-02) (0, -8.40640738606452941895e-02) (1, -6.49174302816390991211e-02) (2, -6.71800374984741210938e-02) (3, -9.47913676500320434570e-02) (4, 4.14823815226554870605e-02) (5, -5.61577081680297851562e-03) (6, 1.57202705740928649902e-02) (7, 1.06134861707687377930e-02) (8, -1.90932303667068481445e-02) (9, -9.99925807118415832520e-02) (10, 2.47523337602615356445e-02) (11, 1.23430043458938598633e-02) (12, 4.88357916474342346191e-02) (13, -1.68971419334411621094e-02) (14, 9.76435095071792602539e-03) (15, -9.05699282884597778320e-02) (16, -8.81753861904144287109e-03) (17, 3.58687341213226318359e-03) (18, 8.47090408205986022949e-02) (19, -9.52387079596519470215e-02) (20, -7.68848136067390441895e-02) (21, -3.02924215793609619141e-03) (22, 8.76170322299003601074e-02) (23, -2.05581933259963989258e-02) (24, 7.84626081585884094238e-02) (25, -7.89182409644126892090e-02) (26, 2.11821943521499633789e-02) (27, 9.08820331096649169922e-03) (28, -5.45269660651683807373e-02) (29, -3.47339585423469543457e-02) (30, 2.64328643679618835449e-02) (31, 5.70350363850593566895e-02) (32, -1.23128592967987060547e-02) (33, 5.77259734272956848145e-02) (34, 2.34708189964294433594e-04) (35, -5.52852749824523925781e-02) (36, 2.03586667776107788086e-02) (37, -3.17409560084342956543e-02) (38, -7.02517926692962646484e-02) (39, 7.80754461884498596191e-02) (40, 1.40380039811134338379e-02) (41, -6.32474124431610107422e-02) (42, 7.19010829925537109375e-04) (43, 8.43485072255134582520e-02) (44, 4.52402904629707336426e-02) (45, -4.64354865252971649170e-02) (46, -4.12278734147548675537e-02) (47, 8.31460729241371154785e-02) (48, 3.59254106879234313965e-02) (49, -1.58862769603729248047e-03) (50, 9.98364761471748352051e-02) (51, -4.84377443790435791016e-02) (52, -9.32116359472274780273e-02) (53, -7.99035280942916870117e-03) (54, -9.39184278249740600586e-02) (55, -8.70257988572120666504e-02) (56, -4.25934679806232452393e-02) (57, -6.83705061674118041992e-02) (58, 9.68702211976051330566e-02) (59, 9.78060886263847351074e-02) (60, 2.67593488097190856934e-02) (61, -5.56658282876014709473e-02) (62, 2.44728475809097290039e-02) (63, -8.49655643105506896973e-02) (64, -1.62298530340194702148e-02) (65, 2.47746258974075317383e-02) (66, -1.29147842526435852051e-02) (67, -5.87923415005207061768e-02) (68, 7.71402046084403991699e-02) (69, 9.53811034560203552246e-02) (70, 7.02918395400047302246e-02) (71, -5.05778193473815917969e-03) (72, -6.09953701496124267578e-03) (73, 8.50821211934089660645e-02) (74, -2.47344374656677246094e-02) (75, 8.83586332201957702637e-02) (76, 4.34451326727867126465e-02) (77, -1.76556110382080078125e-02) (78, 6.21443614363670349121e-02) (79, 6.02588877081871032715e-02) (80, -2.89090350270271301270e-02) (81, -7.41605311632156372070e-02) (82, -1.61034092307090759277e-02) (83, -4.99748066067695617676e-02) (84, 7.34554901719093322754e-02) (85, -3.35502773523330688477e-02) (86, -7.95359835028648376465e-02) (87, 3.87003794312477111816e-02) (88, 3.73392328619956970215e-02) (89, -3.95247340202331542969e-02) (90, -9.22339484095573425293e-02) (0, 2.40870565176010131836e-02) (1, 3.11582908034324645996e-02) (2, 7.75010064244270324707e-02) (3, -4.07198145985603332520e-02) (4, 2.20811963081359863281e-02) (5, -8.12419056892395019531e-02) (6, -3.27447727322578430176e-02) (7, 5.85911348462104797363e-02) (8, -5.89143596589565277100e-02) (9, 2.63622328639030456543e-02) (10, 6.99876919388771057129e-02) (11, 8.30536559224128723145e-02) (12, 8.28137472271919250488e-02) (13, 5.05055114626884460449e-02) (14, 4.60681542754173278809e-02) (15, 6.74825683236122131348e-02) (16, -2.04071328043937683105e-02) (17, 1.73195824027061462402e-02) (18, 9.01722684502601623535e-02) (19, -7.46294483542442321777e-02) (20, -9.71461161971092224121e-02) (21, 6.52016177773475646973e-02) (22, 4.36006709933280944824e-02) (23, -3.56531888246536254883e-03) (24, 7.76847377419471740723e-02) (25, 4.72884401679039001465e-02) (26, -2.31552049517631530762e-02) (27, 3.04678454995155334473e-02) (28, 7.30975493788719177246e-02) (29, -4.94862310588359832764e-02) (30, 8.48555043339729309082e-02) (31, -3.34589481353759765625e-02) (32, 5.54529502987861633301e-02) (33, -2.29598581790924072266e-03) (34, 1.14234685897827148438e-02) (35, -5.69053739309310913086e-03) (36, -4.08533997833728790283e-02) (37, -2.31147408485412597656e-02) (38, -8.94457101821899414062e-02) (39, 8.59662666916847229004e-02) (40, 3.50754931569099426270e-02) (41, -8.63607674837112426758e-02) (42, -6.53829872608184814453e-02) (43, -9.19245406985282897949e-02) (44, 2.43102759122848510742e-02) (45, -1.70477628707885742188e-02) (46, 7.82281681895256042480e-02) (47, -1.92134082317352294922e-02) (48, 8.02124813199043273926e-02) (49, -6.88453912734985351562e-02) (50, -8.45456793904304504395e-02) (51, 4.08495739102363586426e-02) (52, -4.13526296615600585938e-02) (53, -1.36227831244468688965e-02) (54, 4.18737456202507019043e-02) (55, -2.79421657323837280273e-02) (56, -2.39272490143775939941e-02) (57, 5.47733679413795471191e-02) (58, -2.39881426095962524414e-02) (59, 3.12439277768135070801e-02) (60, -8.33063945174217224121e-02) (61, 6.94493874907493591309e-02) (62, 3.59007194638252258301e-02) (63, -1.67524740099906921387e-02) (64, 4.10963967442512512207e-02) (65, -9.28431600332260131836e-02) (66, -1.50297507643699645996e-02) (67, -5.07991015911102294922e-03) (68, 2.19162553548812866211e-02) (69, -5.33732064068317413330e-02) (70, -4.34562377631664276123e-02) (71, 3.10483649373054504395e-02) (72, 2.97578200697898864746e-02) (73, -6.01981095969676971436e-02) (74, 5.03535345196723937988e-02) (75, 9.18120220303535461426e-02) (76, 8.46401080489158630371e-02) (77, -5.36274425685405731201e-02) (78, 8.35543349385261535645e-02) (79, 9.76273491978645324707e-02) (80, 2.29409113526344299316e-02) (81, -3.21348085999488830566e-02) (82, -8.96649956703186035156e-02) (83, 3.91244888305664062500e-04) (84, -2.44262069463729858398e-02) (85, 6.87639191746711730957e-02) (86, -8.47480669617652893066e-02) (87, 3.92746999859809875488e-02) (88, 8.97867158055305480957e-02) (89, 4.51915934681892395020e-02) (90, -6.49641454219818115234e-02) (0, -5.23386150598526000977e-02) (1, -5.50810247659683227539e-02) (2, 5.32280728220939636230e-02) (3, 4.11937385797500610352e-03) (4, 3.43751683831214904785e-02) (5, -5.66691569983959197998e-02) (6, -3.84900271892547607422e-02) (7, 9.81088206171989440918e-02) (8, -8.51332992315292358398e-02) (9, -3.53021472692489624023e-02) (10, 7.67174437642097473145e-02) (11, -1.00590139627456665039e-02) (12, -6.18814043700695037842e-02) (13, -4.07566912472248077393e-02) (14, 2.33919918537139892578e-03) (15, -8.51489305496215820312e-02) (16, -9.80302393436431884766e-02) (17, 5.78458607196807861328e-03) (18, 2.15170234441757202148e-02) (19, 3.66499796509742736816e-02) (20, -2.38097161054611206055e-02) (21, 3.00378277897834777832e-02) (22, 4.59026023745536804199e-02) (23, 8.49703773856163024902e-02) (24, 9.71592143177986145020e-02) (25, -4.51225526630878448486e-02) (26, 2.53094807267189025879e-02) (27, -2.36534923315048217773e-02) (28, 5.57549819350242614746e-02) (29, 7.39810392260551452637e-02) (30, -7.33412802219390869141e-04) (31, 7.35490396618843078613e-02) (32, -6.14862702786922454834e-02) (33, 2.77638435363769531250e-04) (34, 6.63169249892234802246e-02) (35, -1.14216208457946777344e-02) (36, 3.68128791451454162598e-02) (37, -8.59782695770263671875e-02) (38, -3.67610231041908264160e-02) (39, -4.24396805465221405029e-02) (40, -8.37699770927429199219e-02) (41, 7.80248716473579406738e-02) (42, -3.60183939337730407715e-02) (43, 3.88161018490791320801e-02) (44, -1.79880112409591674805e-02) (45, 7.54597261548042297363e-02) (46, 5.14091178774833679199e-02) (47, 3.29170003533363342285e-02) (48, 3.60087677836418151855e-02) (49, -7.57753849029541015625e-04) (50, 6.43833205103874206543e-02) (51, 9.03344824910163879395e-02) (52, 5.17911538481712341309e-02) (53, 5.39599135518074035645e-02) (54, -9.57004278898239135742e-02) (55, -3.70320305228233337402e-02) (56, 2.66818702220916748047e-03) (57, 4.42952141165733337402e-02) (58, 6.97446092963218688965e-02) (59, -2.24692374467849731445e-03) (60, 3.60128656029701232910e-02) (61, 6.82833418250083923340e-02) (62, 3.81351932883262634277e-02) (63, -6.17552362382411956787e-02) (64, 7.97949358820915222168e-02) (65, -8.65785330533981323242e-02) (66, 7.46576860547065734863e-02) (67, -2.82456353306770324707e-02) (68, 7.56545141339302062988e-02) (69, -7.45310485363006591797e-02) (70, -4.34045568108558654785e-02) (71, 9.96798649430274963379e-02) (72, -8.05192962288856506348e-02) (73, -8.78193974494934082031e-02) (74, 1.94654241204261779785e-02) (75, -4.45955209434032440186e-02) (76, 8.30204561352729797363e-02) (77, -7.51719549298286437988e-02) (78, -1.50228291749954223633e-02) (79, -8.87409374117851257324e-02) (80, -6.88629895448684692383e-02) (81, 1.97412222623825073242e-02) (82, -9.24519449472427368164e-03) (83, 1.60324946045875549316e-02) (84, 5.80625906586647033691e-02) (85, 5.80219104886054992676e-02) (86, -2.56302207708358764648e-02) (87, 3.28847840428352355957e-02) (88, 9.45382788777351379395e-02) (89, -9.52455550432205200195e-02) (90, 7.92511552572250366211e-03) (0, -2.50268727540969848633e-03) (1, -6.26361072063446044922e-02) (2, 7.50701352953910827637e-02) (3, -9.62910726666450500488e-02) (4, 3.59855517745018005371e-02) (5, 9.11182165145874023438e-03) (6, -5.75876049697399139404e-02) (7, -7.48873502016067504883e-02) (8, -3.17149907350540161133e-02) (9, -3.38440537452697753906e-02) (10, -1.70123428106307983398e-02) (11, 7.35299810767173767090e-02) (12, 1.84888020157814025879e-02) (13, -5.88022060692310333252e-02) (14, -8.86708199977874755859e-02) (15, -9.05060544610023498535e-02) (16, 6.48147538304328918457e-02) (17, -5.84827363491058349609e-02) (18, 8.06552097201347351074e-02) (19, -2.80312597751617431641e-02) (20, 7.86175206303596496582e-02) (21, -7.53058865666389465332e-02) (22, -6.60682022571563720703e-02) (23, -8.28759372234344482422e-03) (24, -8.95697548985481262207e-02) (25, 1.11697614192962646484e-03) (26, -2.69248411059379577637e-02) (27, 7.41913989186286926270e-02) (28, -6.49957954883575439453e-02) (29, 1.57891660928726196289e-02) (30, -3.16254422068595886230e-02) (31, 7.11370185017585754395e-02) (32, -1.96009874343872070312e-04) (33, -9.43121314048767089844e-02) (34, 9.59871783852577209473e-02) (35, 5.64366653561592102051e-02) (36, -6.91848397254943847656e-02) (37, 1.04224532842636108398e-02) (38, -2.98173949122428894043e-02) (39, 5.90332970023155212402e-02) (40, -2.72883847355842590332e-02) (41, -3.58378514647483825684e-02) (42, 7.31839761137962341309e-02) (43, 3.08320671319961547852e-03) (44, 1.94122046232223510742e-02) (45, 6.09772577881813049316e-02) (46, 4.47478666901588439941e-02) (47, 7.73073807358741760254e-02) (48, -9.49695482850074768066e-02) (49, 4.68521043658256530762e-02) (50, 4.32785227894783020020e-02) (51, -1.77693068981170654297e-02) (52, -4.87748272716999053955e-02) (53, 4.14471402764320373535e-02) (54, 2.08147615194320678711e-03) (55, -1.67015194892883300781e-02) (56, 9.75876525044441223145e-02) (57, -4.45372536778450012207e-02) (58, 6.23731687664985656738e-02) (59, -9.40526574850082397461e-02) (60, 5.69700524210929870605e-02) (61, 9.55173149704933166504e-02) (62, -4.06094193458557128906e-02) (63, 7.75223895907402038574e-02) (64, -8.11951905488967895508e-02) (65, -4.76221926510334014893e-02) (66, 1.38069614768028259277e-02) (67, 5.35554811358451843262e-02) (68, -9.31635275483131408691e-02) (69, 6.03511929512023925781e-04) (70, -5.68759553134441375732e-02) (71, 8.58053043484687805176e-02) (72, -7.03735798597335815430e-02) (73, 3.11903133988380432129e-02) (74, 1.55404061079025268555e-02) (75, -1.23983398079872131348e-02) (76, 2.11661458015441894531e-02) (77, -6.06225691735744476318e-02) (78, -8.34743976593017578125e-02) (79, 4.57736328244209289551e-02) (80, -8.26834589242935180664e-02) (81, -6.09472244977951049805e-02) (82, 5.99997416138648986816e-02) (83, 1.55709013342857360840e-02) (84, -9.98650640249252319336e-02) (85, -3.21639329195022583008e-02) (86, 2.07173451781272888184e-02) (87, -3.63499671220779418945e-03) (88, -9.33827310800552368164e-02) (89, -8.34892094135284423828e-02) (90, -3.12057137489318847656e-03) (0, -4.74219918251037597656e-02) (1, -2.14036703109741210938e-02) (2, 6.85043111443519592285e-02) (3, -4.81132827699184417725e-02) (4, -3.99086736142635345459e-02) (5, 5.49512133002281188965e-02) (6, -3.50085049867630004883e-02) (7, 1.20665878057479858398e-02) (8, 3.14056873321533203125e-03) (9, -1.65575370192527770996e-02) (10, -8.25850740075111389160e-02) (11, -7.35905766487121582031e-03) (12, -8.36626663804054260254e-02) (13, 8.15866217017173767090e-02) (14, 2.63382866978645324707e-02) (15, 6.73789009451866149902e-02) (16, 3.72333303093910217285e-02) (17, -1.95338129997253417969e-02) (18, 9.52290222048759460449e-02) (19, -8.58191475272178649902e-02) (20, 3.76439765095710754395e-02) (21, 8.22187885642051696777e-02) (22, 5.12356087565422058105e-02) (23, -8.31146165728569030762e-02) (24, 9.26018282771110534668e-02) (25, -4.11175973713397979736e-02) (26, -6.34601265192031860352e-02) (27, 2.56867483258247375488e-02) (28, -8.28183367848396301270e-02) (29, 7.21777901053428649902e-02) (30, 9.21227857470512390137e-02) (31, -9.24605354666709899902e-02) (32, 1.57538652420043945312e-02) (33, -2.48579755425453186035e-02) (34, 1.20259895920753479004e-02) (35, -7.91341364383697509766e-02) (36, -7.39182531833648681641e-03) (37, -3.43948751688003540039e-02) (38, -7.47196674346923828125e-02) (39, -1.34582072496414184570e-02) (40, 7.97561556100845336914e-03) (41, 4.60573211312294006348e-02) (42, 8.52752998471260070801e-02) (43, 2.20395475625991821289e-02) (44, 1.86924934387207031250e-02) (45, -3.52790653705596923828e-02) (46, 6.47629126906394958496e-02) (47, 7.02451542019844055176e-02) (48, 1.00826025009155273438e-02) (49, 5.83543255925178527832e-02) (50, -3.90488803386688232422e-02) (51, -9.45642441511154174805e-02) (52, 5.87219819426536560059e-02) (53, -5.95965944230556488037e-02) (54, -3.99480648338794708252e-02) (55, -7.12206214666366577148e-03) (56, 9.94959697127342224121e-02) (57, 2.87144258618354797363e-02) (58, 3.50047647953033447266e-03) (59, 3.24401333928108215332e-02) (60, 2.12556570768356323242e-02) (61, 4.39233556389808654785e-02) (62, 1.98409184813499450684e-02) (63, 6.62756040692329406738e-02) (64, 9.38675776124000549316e-02) (65, 3.24332341551780700684e-02) (66, -9.46450382471084594727e-02) (67, -9.91812571883201599121e-02) (68, 6.06245324015617370605e-02) (69, -8.35280641913414001465e-02) (70, -5.61512559652328491211e-02) (71, 6.58429041504859924316e-02) (72, 2.16334313154220581055e-02) (73, -6.77336007356643676758e-03) (74, -3.98495011031627655029e-02) (75, 4.93759587407112121582e-02) (76, 6.15831986069679260254e-02) (77, 2.87889465689659118652e-02) (78, 5.58228567242622375488e-02) (79, 1.48418396711349487305e-02) (80, 4.67971190810203552246e-02) (81, -8.07871520519256591797e-02) (82, 1.03543996810913085938e-02) (83, 2.63493433594703674316e-02) (84, 5.34508302807807922363e-02) (85, -5.18535748124122619629e-02) (86, 9.70013812184333801270e-02) (87, -9.78844985365867614746e-02) (88, 5.52503392100334167480e-02) (89, -7.70108401775360107422e-03) (90, -3.20307090878486633301e-02) (0, 5.98791465163230895996e-02) (1, -1.10658556222915649414e-02) (2, 1.62028223276138305664e-02) (3, -7.92252793908119201660e-02) (4, 6.07857927680015563965e-02) (5, 2.67905667424201965332e-02) (6, 6.91094473004341125488e-02) (7, -7.74490237236022949219e-02) (8, -8.57806801795959472656e-02) (9, 8.41459110379219055176e-02) (10, 4.01310399174690246582e-02) (11, 8.22387263178825378418e-02) (12, -1.37770026922225952148e-02) (13, 4.99086007475852966309e-02) (14, 1.38445496559143066406e-02) (15, 8.52890387177467346191e-02) (16, 5.29424920678138732910e-02) (17, 4.36363369226455688477e-03) (18, -6.03372827172279357910e-02) (19, -8.86649265885353088379e-02) (20, 8.60395282506942749023e-03) (21, 6.74867630004882812500e-03) (22, 2.50754132866859436035e-02) (23, 4.24658283591270446777e-02) (24, -7.68435671925544738770e-02) (25, 9.01694968342781066895e-02) (26, 7.88960084319114685059e-02) (27, 5.16033172607421875000e-03) (28, -7.03226402401924133301e-02) (29, 8.73872712254524230957e-02) (30, -8.19745212793350219727e-02) (31, 5.42444810271263122559e-02) (32, 8.69484469294548034668e-02) (33, -5.76169155538082122803e-02) (34, 3.25507000088691711426e-02) (35, 7.97428712248802185059e-02) (36, 3.84772196412086486816e-02) (37, 8.65548923611640930176e-02) (38, -7.18772336840629577637e-02) (39, -4.06537838280200958252e-02) (40, -6.81772083044052124023e-02) (41, -5.42645901441574096680e-02) (42, -2.49630659818649291992e-02) (43, 4.57772389054298400879e-02) (44, -2.19320505857467651367e-02) (45, -1.20205432176589965820e-02) (46, -2.92472541332244873047e-02) (47, 4.13549467921257019043e-02) (48, 5.25386258959770202637e-02) (49, 1.66240185499191284180e-02) (50, -1.53757631778717041016e-04) (51, 1.58432275056838989258e-02) (52, 7.70379379391670227051e-02) (53, -2.33537554740905761719e-02) (54, 9.34057310223579406738e-02) (55, 7.02245458960533142090e-02) (56, 6.39990046620368957520e-02) (57, 3.10550704598426818848e-02) (58, -5.75174130499362945557e-02) (59, -9.51279252767562866211e-02) (60, -1.50698274374008178711e-02) (61, -7.86078572273254394531e-02) (62, 3.77140119671821594238e-02) (63, 5.93250766396522521973e-02) (64, 7.65705928206443786621e-02) (65, -7.80826508998870849609e-02) (66, 6.49334564805030822754e-02) (67, -6.34159892797470092773e-02) (68, -3.25424969196319580078e-02) (69, 5.82814142107963562012e-02) (70, -6.43530786037445068359e-02) (71, 1.77862793207168579102e-02) (72, -6.61261975765228271484e-02) (73, 1.70993432402610778809e-02) (74, -1.14045515656471252441e-02) (75, -7.62927755713462829590e-02) (76, -5.26631884276866912842e-02) (77, 8.97768214344978332520e-02) (78, 7.89062902331352233887e-02) (79, -2.20412611961364746094e-02) (80, -4.74982261657714843750e-02) (81, 9.72960218787193298340e-02) (82, 5.42882159352302551270e-02) (83, 2.20793038606643676758e-02) (84, 8.68233814835548400879e-02) (85, 4.04644832015037536621e-02) (86, 8.66344496607780456543e-02) (87, 6.50873407721519470215e-02) (88, -7.70733058452606201172e-02) (89, 2.89238020777702331543e-02) (90, -7.77983441948890686035e-02) (0, 4.32230308651924133301e-02) (1, 4.94511350989341735840e-02) (2, -7.48244374990463256836e-02) (3, 2.56055817008018493652e-02) (4, -4.69717197120189666748e-02) (5, -5.36786988377571105957e-02) (6, 2.21324786543846130371e-02) (7, -1.94850862026214599609e-02) (8, -8.58150050044059753418e-02) (9, -9.27451699972152709961e-02) (10, 3.19216474890708923340e-02) (11, -9.27866622805595397949e-02) (12, -6.53812438249588012695e-02) (13, -6.24817386269569396973e-02) (14, 6.94692805409431457520e-02) (15, -2.98256650567054748535e-02) (16, -7.99755379557609558105e-02) (17, 5.11337444186210632324e-02) (18, 4.67143952846527099609e-03) (19, -8.69992002844810485840e-02) (20, 4.51918691396713256836e-03) (21, -4.60716784000396728516e-02) (22, 7.33219012618064880371e-02) (23, -7.88072645664215087891e-02) (24, 8.62654671072959899902e-02) (25, 6.36899098753929138184e-02) (26, 3.63525673747062683105e-02) (27, -2.25555971264839172363e-02) (28, -9.18608158826828002930e-02) (29, 9.52268317341804504395e-02) (30, 7.72701427340507507324e-02) (31, 7.91275277733802795410e-02) (32, 9.63982567191123962402e-02) (33, -3.45165655016899108887e-02) (34, 8.00402984023094177246e-02) (35, 3.72872576117515563965e-02) (36, 8.70634093880653381348e-02) (37, 7.47621729969978332520e-02) (38, -7.20224604010581970215e-02) (39, -8.14541727304458618164e-02) (40, -3.20062041282653808594e-04) (41, 2.06288322806358337402e-02) (42, -9.12258774042129516602e-02) (43, -3.32338064908981323242e-02) (44, 3.93788293004035949707e-02) (45, 3.99741902947425842285e-02) (46, 4.61406782269477844238e-02) (47, 8.64223763346672058105e-02) (48, -9.92869734764099121094e-02) (49, 8.39197561144828796387e-02) (50, 3.91890630125999450684e-02) (51, 5.05095794796943664551e-02) (52, -8.55857282876968383789e-02) (53, -3.93211320042610168457e-02) (54, -7.02494680881500244141e-02) (55, -8.28083604574203491211e-02) (56, 3.99031415581703186035e-02) (57, 5.21529242396354675293e-02) (58, -6.59216418862342834473e-02) (59, 5.50010874867439270020e-02) (60, 3.25355678796768188477e-03) (61, 8.25563594698905944824e-02) (62, -7.53729641437530517578e-02) (63, 6.58243894577026367188e-03) (64, 3.10193374752998352051e-02) (65, -5.82053400576114654541e-02) (66, -5.71359358727931976318e-02) (67, -8.36378782987594604492e-02) (68, 9.81967821717262268066e-02) (69, -6.73840939998626708984e-03) (70, -5.23521415889263153076e-02) (71, -8.24041813611984252930e-02) (72, 3.29412296414375305176e-02) (73, 4.30519655346870422363e-02) (74, -2.56266593933105468750e-02) (75, 9.27064195275306701660e-02) (76, -8.32242742180824279785e-02) (77, 4.95951846241950988770e-02) (78, -5.39265088737010955811e-02) (79, 5.71532025933265686035e-02) (80, -2.61994823813438415527e-02) (81, 6.52986243367195129395e-02) (82, 7.40587785840034484863e-02) (83, -9.40067991614341735840e-02) (84, 2.77312472462654113770e-02) (85, 7.88918957114219665527e-02) (86, -6.39058127999305725098e-02) (87, -6.49954527616500854492e-02) (88, 2.15399712324142456055e-02) (89, 2.23412886261940002441e-02) (90, 8.99277701973915100098e-02) (0, 1.59209221601486206055e-02) (1, -1.69460847973823547363e-02) (2, -1.28027126193046569824e-02) (3, 2.48206481337547302246e-02) (4, -3.93908880650997161865e-02) (5, -4.25785370171070098877e-02) (6, -1.74774602055549621582e-02) (7, 5.63598349690437316895e-02) (8, 3.98618057370185852051e-02) (9, -4.25015352666378021240e-02) (10, 7.67707899212837219238e-02) (11, 8.66926386952400207520e-02) (12, 4.31142672896385192871e-02) (13, 2.15446725487709045410e-02) (14, -9.86249148845672607422e-02) (15, 1.11275464296340942383e-02) (16, 2.07065790891647338867e-02) (17, 1.55461281538009643555e-02) (18, 8.38675722479820251465e-02) (19, -3.77321355044841766357e-02) (20, 3.59615013003349304199e-02) (21, 4.87828254699707031250e-03) (22, -1.06527581810951232910e-02) (23, -4.08997908234596252441e-02) (24, -2.75886058807373046875e-03) (25, 3.17901596426963806152e-02) (26, 9.72219780087471008301e-02) (27, 9.69358533620834350586e-03) (28, -7.99103975296020507812e-02) (29, -5.40229491889476776123e-02) (30, 3.63152548670768737793e-02) (31, -4.95088174939155578613e-02) (32, -9.46858376264572143555e-02) (33, 1.51974931359291076660e-02) (34, 2.42320299148559570312e-02) (35, 6.78263679146766662598e-02) (36, -4.23082783818244934082e-02) (37, -7.52233564853668212891e-02) (38, -7.89256468415260314941e-02) (39, 9.66677889227867126465e-02) (40, 9.54939648509025573730e-02) (41, -3.29609662294387817383e-02) (42, 2.51271948218345642090e-02) (43, -8.72074738144874572754e-02) (44, -9.60357785224914550781e-02) (45, -7.33389854431152343750e-02) (46, -8.37352871894836425781e-03) (47, 6.61364123225212097168e-02) (48, -4.53825369477272033691e-02) (49, 5.57066425681114196777e-02) (50, 6.15459904074668884277e-02) (51, 3.47769260406494140625e-03) (52, 4.96258065104484558105e-02) (53, 6.08090981841087341309e-02) (54, 1.85566991567611694336e-02) (55, 8.24780985713005065918e-02) (56, 9.28515195846557617188e-03) (57, 5.56030347943305969238e-02) (58, -7.96975120902061462402e-02) (59, -7.60871097445487976074e-02) (60, 4.00149822235107421875e-03) (61, 5.31282201409339904785e-02) (62, -7.40451514720916748047e-02) (63, -7.69247636198997497559e-02) (64, -7.45176300406455993652e-02) (65, -1.78376287221908569336e-02) (66, 2.88705527782440185547e-03) (67, -7.72861838340759277344e-02) (68, 5.10928258299827575684e-02) (69, -8.28782245516777038574e-02) (70, 6.56973198056221008301e-02) (71, -2.52777785062789916992e-02) (72, -4.36212085187435150146e-02) (73, 5.84083423018455505371e-02) (74, 6.90901353955268859863e-02) (75, -2.08682566881179809570e-03) (76, -7.32328593730926513672e-02) (77, -2.46187523007392883301e-02) (78, 3.26588526368141174316e-02) (79, 9.72308591008186340332e-02) (80, -4.08258922398090362549e-02) (81, 3.92280295491218566895e-02) (82, -9.46111530065536499023e-02) (83, 7.03749433159828186035e-02) (84, -8.38114321231842041016e-03) (85, -6.18106424808502197266e-02) (86, -5.14506585896015167236e-02) (87, 6.87783434987068176270e-02) (88, -4.25407178699970245361e-02) (89, 1.81270390748977661133e-02) (90, 6.10558763146400451660e-02) (0, -3.39856967329978942871e-02) (1, 2.39239633083343505859e-03) (2, 8.97619873285293579102e-03) (3, 6.28837421536445617676e-02) (4, 8.69398191571235656738e-02) (5, -2.43134796619415283203e-03) (6, -6.37584179639816284180e-02) (7, 1.22241750359535217285e-02) (8, 5.16261830925941467285e-02) (9, 8.12541618943214416504e-02) (10, 3.87144759297370910645e-02) (11, 7.39945545792579650879e-02) (12, 2.64207050204277038574e-02) (13, 5.26196435093879699707e-02) (14, -2.14938148856163024902e-02) (15, -4.65633869171142578125e-02) (16, 9.16902720928192138672e-03) (17, -9.62058007717132568359e-02) (18, 6.91628083586692810059e-02) (19, 1.93370580673217773438e-02) (20, -2.01873481273651123047e-03) (21, 7.11106732487678527832e-02) (22, -4.27724979817867279053e-02) (23, -7.73089528083801269531e-02) (24, 6.83802440762519836426e-02) (25, 6.66664615273475646973e-02) (26, 6.31998404860496520996e-02) (27, -1.88887119293212890625e-04) (28, 2.53624394536018371582e-02) (29, 6.66132345795631408691e-02) (30, -3.14605981111526489258e-02) (31, 4.17124256491661071777e-02) (32, 6.08031824231147766113e-02) (33, -8.11074152588844299316e-02) (34, 2.76687666773796081543e-02) (35, 2.88701876997947692871e-02) (36, 2.13630795478820800781e-02) (37, 4.91943880915641784668e-02) (38, 1.00505128502845764160e-02) (39, -8.09592306613922119141e-02) (40, -8.17222744226455688477e-02) (41, 9.38043668866157531738e-02) (42, -3.01388353109359741211e-02) (43, 5.66267892718315124512e-02) (44, -7.36860930919647216797e-02) (45, -4.22164797782897949219e-02) (46, 6.76295235753059387207e-02) (47, 4.92475107312202453613e-02) (48, -9.70202311873435974121e-02) (49, -1.90192833542823791504e-02) (50, -5.70602677762508392334e-02) (51, -1.18841752409934997559e-02) (52, 6.26188889145851135254e-02) (53, 3.56969907879829406738e-02) (54, -4.05151061713695526123e-02) (55, 6.26063421368598937988e-02) (56, 2.48827785253524780273e-02) (57, 5.00835478305816650391e-03) (58, -2.45944261550903320312e-02) (59, 4.14692386984825134277e-02) (60, -2.64054760336875915527e-02) (61, 3.17896902561187744141e-03) (62, 2.88690403103828430176e-02) (63, 2.03506648540496826172e-03) (64, 3.47279012203216552734e-03) (65, -3.28531712293624877930e-02) (66, 3.66749837994575500488e-02) (67, -3.69177758693695068359e-03) (68, -4.78021986782550811768e-02) (69, -1.15230381488800048828e-02) (70, -6.76779970526695251465e-02) (71, -6.40899538993835449219e-02) (72, 4.02077063918113708496e-02) (73, -2.91010588407516479492e-02) (74, 9.85750630497932434082e-02) (75, -4.90389876067638397217e-02) (76, 1.69656425714492797852e-03) (77, -8.59141722321510314941e-02) (78, 4.05183508992195129395e-02) (79, -7.90002197027206420898e-03) (80, 2.42563337087631225586e-02) (81, 7.61937871575355529785e-02) (82, -1.09834298491477966309e-02) (83, 1.52026116847991943359e-03) (84, -4.88820932805538177490e-02) (85, 3.86883690953254699707e-02) (86, 3.55018600821495056152e-02) (87, 7.98417255282402038574e-02) (88, 9.98698398470878601074e-02) (89, -8.76251682639122009277e-02) (90, 8.37657824158668518066e-02) (0, 5.14611080288887023926e-02) (1, -9.31452214717864990234e-02) (2, -9.16480049490928649902e-02) (3, 7.20294192433357238770e-02) (4, -1.71534717082977294922e-03) (5, -2.98860892653465270996e-02) (6, -9.55001711845397949219e-02) (7, -7.13348016142845153809e-02) (8, 7.60004594922065734863e-02) (9, -6.04371614754199981689e-02) (10, 3.26477363705635070801e-02) (11, -8.94202142953872680664e-02) (12, -8.55353176593780517578e-02) (13, 7.89900124073028564453e-03) (14, -4.16073910892009735107e-02) (15, -9.54701006412506103516e-02) (16, 3.39841321110725402832e-02) (17, -2.88627371191978454590e-02) (18, -9.60832536220550537109e-02) (19, -7.12044611573219299316e-02) (20, 6.65839985013008117676e-02) (21, 7.70809724926948547363e-02) (22, 9.99984219670295715332e-02) (23, 7.34748765826225280762e-02) (24, 9.21284183859825134277e-02) (25, 2.44201719760894775391e-03) (26, 4.29728850722312927246e-02) (27, 4.52789738774299621582e-02) (28, 3.52569669485092163086e-03) (29, 5.63867166638374328613e-02) (30, 9.17015895247459411621e-02) (31, 2.86213383078575134277e-02) (32, 3.88370826840400695801e-02) (33, -6.52410313487052917480e-02) (34, 9.40317884087562561035e-02) (35, -7.75104016065597534180e-03) (36, -7.17969983816146850586e-02) (37, -9.21734943985939025879e-02) (38, 4.01047542691230773926e-02) (39, 4.05074879527091979980e-02) (40, 9.30728763341903686523e-03) (41, 2.76764705777168273926e-02) (42, -4.17113974690437316895e-02) (43, -4.34646308422088623047e-02) (44, 8.99232700467109680176e-02) (45, -5.96379712224006652832e-02) (46, 6.46320655941963195801e-02) (47, 7.11746886372566223145e-02) (48, 3.29870060086250305176e-02) (49, 1.25922411680221557617e-02) (50, 3.78529801964759826660e-02) (51, -5.02023845911026000977e-03) (52, 2.48373001813888549805e-02) (53, 4.06413152813911437988e-02) (54, 5.84039017558097839355e-02) (55, -5.68612664937973022461e-03) (56, 3.32701429724693298340e-02) (57, -2.87232324481010437012e-02) (58, 4.85608056187629699707e-02) (59, -3.86342816054821014404e-02) (60, 7.35810175538063049316e-02) (61, 7.60929509997367858887e-02) (62, 9.41771790385246276855e-02) (63, 3.58089283108711242676e-02) (64, 4.05699685215950012207e-02) (65, 5.93696907162666320801e-02) (66, 2.64040753245353698730e-02) (67, -2.67535597085952758789e-02) (68, -4.69944886863231658936e-02) (69, -3.63865941762924194336e-02) (70, 5.05998358130455017090e-02) (71, 3.13806459307670593262e-02) (72, 1.44639760255813598633e-02) (73, 9.58988144993782043457e-02) (74, -2.84979492425918579102e-02) (75, 3.48893776535987854004e-02) (76, -1.42631605267524719238e-02) (77, 7.91321471333503723145e-02) (78, -2.62036472558975219727e-02) (79, -4.71450388431549072266e-03) (80, -3.66863831877708435059e-02) (81, 1.19019001722335815430e-02) (82, 3.53810861706733703613e-02) (83, 4.97394576668739318848e-02) (84, -2.89948657155036926270e-02) (85, 8.32768157124519348145e-02) (86, 3.35558131337165832520e-02) (87, -2.74460464715957641602e-02) (88, -8.57807472348213195801e-02) (89, 8.30361321568489074707e-02) (90, -1.19273290038108825684e-02) (0, -6.25959634780883789062e-02) (1, -5.03657124936580657959e-02) (2, -9.64856669306755065918e-02) (3, -3.45680788159370422363e-02) (4, 1.43624693155288696289e-02) (5, -1.00743621587753295898e-02) (6, 8.01332965493202209473e-02) (7, 2.10069119930267333984e-04) (8, -6.92595094442367553711e-02) (9, -4.46376018226146697998e-02) (10, -2.41373926401138305664e-02) (11, -7.72498622536659240723e-02) (12, 6.16059824824333190918e-02) (13, 1.16690173745155334473e-02) (14, -7.88131579756736755371e-02) (15, -1.27068012952804565430e-02) (16, 3.68210598826408386230e-02) (17, 5.14480844140052795410e-02) (18, 8.78761038184165954590e-02) (19, -6.63451328873634338379e-02) (20, -6.26434832811355590820e-02) (21, -4.89465184509754180908e-02) (22, -4.40819859504699707031e-02) (23, -8.59499573707580566406e-02) (24, 3.91213670372962951660e-02) (25, -8.72316434979438781738e-02) (26, 9.78460982441902160645e-02) (27, 9.92964729666709899902e-02) (28, 7.58524611592292785645e-02) (29, 5.21407797932624816895e-02) (30, -7.00990930199623107910e-02) (31, 4.45689037442207336426e-02) (32, 6.93660005927085876465e-02) (33, 3.44546809792518615723e-02) (34, 7.98305347561836242676e-02) (35, -8.82541686296463012695e-02) (36, -8.77463296055793762207e-02) (37, 4.75151166319847106934e-02) (38, -1.34899616241455078125e-02) (39, 7.42156580090522766113e-02) (40, -5.74016086757183074951e-02) (41, 5.11805489659309387207e-02) (42, -8.68766009807586669922e-03) (43, -1.34524628520011901855e-02) (44, -9.55784767866134643555e-02) (45, 1.25281587243080139160e-02) (46, -3.92182245850563049316e-02) (47, 5.93452677130699157715e-02) (48, 1.59125700592994689941e-02) (49, 4.25658896565437316895e-02) (50, 4.97744232416152954102e-03) (51, 5.59240654110908508301e-02) (52, -8.44489932060241699219e-02) (53, 6.58495649695396423340e-02) (54, -6.62475600838661193848e-02) (55, -2.27279812097549438477e-02) (56, 1.08752027153968811035e-02) (57, -2.05641388893127441406e-02) (58, -2.15270817279815673828e-02) (59, -5.69956004619598388672e-03) (60, 7.58582353591918945312e-03) (61, 9.50027480721473693848e-02) (62, -8.87521430850028991699e-02) (63, -5.72984814643859863281e-02) (64, -1.55838951468467712402e-02) (65, 8.14123228192329406738e-02) (66, 9.68061760067939758301e-02) (67, 2.12874189019203186035e-02) (68, -2.23073065280914306641e-02) (69, 8.11451748013496398926e-02) (70, 7.09674507379531860352e-03) (71, 7.49749466776847839355e-02) (72, -9.61011275649070739746e-02) (73, 2.84053906798362731934e-02) (74, 9.50703769922256469727e-03) (75, -1.52744501829147338867e-02) (76, 8.23649689555168151855e-02) (77, -9.20780375599861145020e-02) (78, 4.44306209683418273926e-02) (79, -5.46086058020591735840e-02) (80, -6.81701302528381347656e-03) (81, 2.64894291758537292480e-02) (82, 7.73227214813232421875e-03) (83, -4.36510741710662841797e-02) (84, -4.36078496277332305908e-02) (85, 8.28999355435371398926e-02) (86, 9.90052297711372375488e-02) (87, -1.90249830484390258789e-02) (88, 4.71512302756309509277e-02) (89, 7.08191767334938049316e-02) (90, 5.79594895243644714355e-02) (0, -7.49976336956024169922e-02) (1, -8.52872431278228759766e-02) (2, -2.26669609546661376953e-02) (3, 3.64160165190696716309e-02) (4, 4.39656600356101989746e-02) (5, -6.91647380590438842773e-02) (6, -5.18227554857730865479e-02) (7, 1.49677172303199768066e-02) (8, -3.76820527017116546631e-02) (9, 7.78049156069755554199e-02) (10, 6.70599117875099182129e-02) (11, 7.58291557431221008301e-02) (12, 6.05405643582344055176e-02) (13, -9.48666259646415710449e-02) (14, -2.33324617147445678711e-02) (15, 5.13650849461555480957e-02) (16, 9.29635241627693176270e-02) (17, 3.79834249615669250488e-02) (18, -1.26710683107376098633e-02) (19, 3.72804477810859680176e-02) (20, -2.74473279714584350586e-02) (21, 9.27687361836433410645e-02) (22, -3.57336252927780151367e-02) (23, 2.50056013464927673340e-02) (24, 6.91224560141563415527e-02) (25, -5.88100105524063110352e-02) (26, -1.98235511779785156250e-02) (27, 2.55478098988533020020e-02) (28, -1.80535316467285156250e-02) (29, -2.56634801626205444336e-02) (30, 7.38440975546836853027e-02) (31, 9.77161005139350891113e-02) (32, -8.56520757079124450684e-02) (33, 4.55417707562446594238e-02) (34, 2.06220597028732299805e-02) (35, -4.89918887615203857422e-03) (36, 5.93160912394523620605e-02) (37, -7.45628625154495239258e-02) (38, 2.19980701804161071777e-02) (39, -7.83223882317543029785e-02) (40, 3.56164649128913879395e-02) (41, 5.88928163051605224609e-03) (42, -1.87739357352256774902e-02) (43, 6.64721205830574035645e-02) (44, -2.98823416233062744141e-03) (45, -2.31600254774093627930e-02) (46, -5.04755936563014984131e-02) (47, 5.66774681210517883301e-02) (48, -2.19705030322074890137e-02) (49, -5.82688972353935241699e-02) (50, 7.46648386120796203613e-02) (51, 9.19642671942710876465e-02) (52, 4.34652790427207946777e-02) (53, -7.90242701768875122070e-02) (54, 3.91617491841316223145e-02) (55, -8.66038352251052856445e-03) (56, 4.49990257620811462402e-02) (57, 9.86678078770637512207e-02) (58, -9.00293663144111633301e-02) (59, 7.64795616269111633301e-02) (60, -7.97504931688308715820e-03) (61, -3.66625413298606872559e-02) (62, 1.26855820417404174805e-02) (63, 6.58921152353286743164e-03) (64, -5.50741329789161682129e-02) (65, -3.09291481971740722656e-02) (66, -2.61556431651115417480e-02) (67, 2.11216509342193603516e-03) (68, 9.91235300898551940918e-02) (69, -3.09487432241439819336e-02) (70, 4.44011762738227844238e-02) (71, 5.04580661654472351074e-02) (72, 4.86910417675971984863e-02) (73, -4.96019311249256134033e-02) (74, -5.96904568374156951904e-02) (75, -1.75312310457229614258e-02) (76, -4.73838858306407928467e-02) (77, 1.90062150359153747559e-02) (78, 3.74022647738456726074e-02) (79, 1.97070389986038208008e-02) (80, 1.61662548780441284180e-02) (81, -9.37596186995506286621e-02) (82, -1.78769975900650024414e-02) (83, -5.87135069072246551514e-02) (84, 2.10069119930267333984e-03) (85, -9.36978682875633239746e-02) (86, 1.99496522545814514160e-02) (87, 9.38361212611198425293e-02) (88, -9.63021889328956604004e-02) (89, 4.91560176014900207520e-02) (90, -3.46591696143150329590e-02) (0, 8.32820162177085876465e-02) (1, -7.91065990924835205078e-02) (2, 5.53469583392143249512e-02) (3, 1.62517577409744262695e-02) (4, -5.66816926002502441406e-02) (5, -4.92181479930877685547e-02) (6, -9.45205986499786376953e-03) (7, -6.06755279004573822021e-02) (8, 2.64357551932334899902e-02) (9, -9.42567810416221618652e-02) (10, 2.62654349207878112793e-02) (11, 4.30091693997383117676e-02) (12, 5.51957562565803527832e-02) (13, 7.48934820294380187988e-02) (14, -6.52492940425872802734e-02) (15, -4.48674857616424560547e-02) (16, -8.77998918294906616211e-02) (17, -5.28131872415542602539e-02) (18, -3.12548130750656127930e-02) (19, -9.97179523110389709473e-02) (20, 4.04522046446800231934e-02) (21, 8.02765563130378723145e-02) (22, 8.22737067937850952148e-03) (23, 7.73963853716850280762e-02) (24, 8.95366072654724121094e-04) (25, 4.84528020024299621582e-02) (26, -5.36428838968276977539e-02) (27, 2.40554064512252807617e-02) (28, 9.91858914494514465332e-02) (29, 1.72728896141052246094e-02) (30, -9.45589914917945861816e-02) (31, -5.29558733105659484863e-02) (32, -2.93498411774635314941e-02) (33, -8.27660262584686279297e-02) (34, -4.86532822251319885254e-02) (35, 8.43236073851585388184e-02) (36, 2.69239768385887145996e-02) (37, -8.85966271162033081055e-02) (38, -4.34570685029029846191e-02) (39, 1.70548111200332641602e-02) (40, 4.01926264166831970215e-02) (41, -8.25141966342926025391e-02) (42, -1.60823464393615722656e-02) (43, -9.60084721446037292480e-02) (44, -1.43850445747375488281e-02) (45, 3.05987671017646789551e-02) (46, 7.34405592083930969238e-02) (47, -8.43462795019149780273e-02) (48, -7.95703381299972534180e-03) (49, 6.61506429314613342285e-02) (50, -6.13825023174285888672e-03) (51, 3.43523845076560974121e-02) (52, -3.93598265945911407471e-02) (53, 7.93604627251625061035e-02) (54, 1.13062486052513122559e-02) (55, 2.41759642958641052246e-02) (56, -7.45702385902404785156e-02) (57, 9.80080440640449523926e-02) (58, 2.11151689291000366211e-02) (59, 8.27390626072883605957e-02) (60, -4.69072163105010986328e-03) (61, -3.70093584060668945312e-02) (62, -1.63332000374794006348e-02) (63, 8.79749283194541931152e-02) (64, -5.32348453998565673828e-03) (65, -7.17146992683410644531e-02) (66, 9.10042300820350646973e-02) (67, -9.19833481311798095703e-02) (68, 3.59149798750877380371e-02) (69, 2.30725184082984924316e-02) (70, -2.01539769768714904785e-02) (71, 7.21659287810325622559e-02) (72, 9.26927998661994934082e-02) (73, 8.79295542836189270020e-02) (74, 3.20547446608543395996e-02) (75, -5.57896234095096588135e-02) (76, -5.61642982065677642822e-02) (77, 4.66716960072517395020e-02) (78, 1.11067146062850952148e-02) (79, 7.06628337502479553223e-02) (80, 3.01260873675346374512e-02) (81, -7.08939880132675170898e-02) (82, 8.47374275326728820801e-02) (83, -1.80524438619613647461e-02) (84, -7.48126208782196044922e-03) (85, 6.24335035681724548340e-02) (86, -7.99993872642517089844e-02) (87, 5.03344014286994934082e-02) (88, -2.96122655272483825684e-02) (89, -9.33962538838386535645e-02) (90, 8.91531929373741149902e-02) (0, -2.17368453741073608398e-03) (1, 6.68471828103065490723e-02) (2, -9.94660779833793640137e-02) (3, 7.37040415406227111816e-02) (4, -5.62679506838321685791e-02) (5, -9.54186245799064636230e-02) (6, 9.91532430052757263184e-02) (7, 6.85426667332649230957e-02) (8, -3.49907577037811279297e-03) (9, -8.91093164682388305664e-03) (10, 3.39506193995475769043e-02) (11, 7.91729986667633056641e-03) (12, 6.59157112240791320801e-02) (13, 4.51469644904136657715e-02) (14, -1.49698033928871154785e-02) (15, 2.50095129013061523438e-03) (16, 3.35298255085945129395e-02) (17, -6.41042366623878479004e-02) (18, 9.78261232376098632812e-05) (19, 4.41738292574882507324e-02) (20, 2.95322462916374206543e-02) (21, -5.16263507306575775146e-02) (22, -8.40403512120246887207e-02) (23, -6.61670416593551635742e-02) (24, -6.94892555475234985352e-02) (25, 9.41323414444923400879e-02) (26, 8.22438225150108337402e-02) (27, 7.20234885811805725098e-02) (28, 9.86800268292427062988e-02) (29, -8.50082337856292724609e-02) (30, 6.66853263974189758301e-02) (31, -1.98337584733963012695e-02) (32, 5.39233610033988952637e-02) (33, 8.97902920842170715332e-02) (34, -9.47738960385322570801e-02) (35, -6.48988559842109680176e-02) (36, 4.49668839573860168457e-02) (37, -4.16490696370601654053e-02) (38, 4.15281206369400024414e-03) (39, -3.75413894653320312500e-03) (40, -9.57827791571617126465e-02) (41, -2.11990028619766235352e-02) (42, -9.16201397776603698730e-02) (43, -5.96250034868717193604e-02) (44, 8.26027169823646545410e-02) (45, -9.61952954530715942383e-02) (46, 4.56944033503532409668e-02) (47, -1.43135860562324523926e-02) (48, 3.16286906599998474121e-02) (49, -1.65136530995368957520e-02) (50, 5.50345852971076965332e-02) (51, -3.39021384716033935547e-02) (52, 6.74357265233993530273e-03) (53, -6.07798583805561065674e-02) (54, 7.29298964142799377441e-02) (55, -6.72280490398406982422e-02) (56, 9.82223078608512878418e-02) (57, 2.23015919327735900879e-02) (58, 2.28863134980201721191e-02) (59, 5.02374842762947082520e-02) (60, -5.85567653179168701172e-02) (61, 3.64534482359886169434e-02) (62, 7.31760039925575256348e-02) (63, 6.91583827137947082520e-02) (64, -5.52184991538524627686e-02) (65, -5.72961457073688507080e-02) (66, 2.36903876066207885742e-02) (67, -3.56592237949371337891e-02) (68, 7.54340067505836486816e-02) (69, 1.93794369697570800781e-02) (70, -8.97565260529518127441e-02) (71, 6.21340200304985046387e-02) (72, 8.63898321986198425293e-02) (73, -4.61028702557086944580e-02) (74, -5.08773550391197204590e-02) (75, -9.57041978836059570312e-02) (76, 9.96323004364967346191e-02) (77, -8.00361335277557373047e-02) (78, 3.26648280024528503418e-02) (79, -2.31298804283142089844e-03) (80, -7.43924006819725036621e-02) (81, 8.69015976786613464355e-02) (82, -4.49778400361537933350e-02) (83, 5.75274750590324401855e-02) (84, 6.41508921980857849121e-02) (85, -1.59347578883171081543e-02) (86, -1.54908224940299987793e-02) (87, 4.57250997424125671387e-02) (88, -9.84055846929550170898e-02) (89, 9.73928645253181457520e-02) (90, 8.18411782383918762207e-02) (0, -9.51891392469406127930e-02) (1, -4.38257232308387756348e-02) (2, 2.11389660835266113281e-02) (3, 8.26852992177009582520e-02) (4, 9.19740870594978332520e-02) (5, 8.40757787227630615234e-03) (6, -9.38315913081169128418e-02) (7, -2.75519341230392456055e-02) (8, -6.54000639915466308594e-02) (9, 2.10809335112571716309e-02) (10, -9.26884859800338745117e-02) (11, -1.53337195515632629395e-02) (12, 8.61605033278465270996e-02) (13, 9.96372327208518981934e-02) (14, 3.05799394845962524414e-03) (15, -4.33090329170227050781e-03) (16, 1.05138197541236877441e-02) (17, -9.42117422819137573242e-02) (18, -1.67853608727455139160e-02) (19, 8.84952470660209655762e-02) (20, -6.03732578456401824951e-02) (21, -9.33771729469299316406e-02) (22, 9.86528396606445312500e-03) (23, 5.92396408319473266602e-03) (24, -3.60177829861640930176e-02) (25, 4.90999296307563781738e-02) (26, 2.26656049489974975586e-02) (27, -5.91469220817089080811e-02) (28, -8.23175460100173950195e-02) (29, 8.90669599175453186035e-02) (30, -5.16204051673412322998e-02) (31, 1.58679485321044921875e-02) (32, 9.26212742924690246582e-02) (33, 8.58117565512657165527e-02) (34, 3.82564142346382141113e-02) (35, -2.43102610111236572266e-02) (36, 1.74124687910079956055e-02) (37, 5.14327660202980041504e-02) (38, 3.04214283823966979980e-02) (39, 9.28836688399314880371e-02) (40, 9.57986637949943542480e-02) (41, 8.80437567830085754395e-02) (42, -4.85704503953456878662e-02) (43, 7.64484331011772155762e-02) (44, 6.88352957367897033691e-02) (45, -8.51847976446151733398e-02) (46, 9.91389825940132141113e-02) (47, 2.87301912903785705566e-02) (48, 6.82117566466331481934e-02) (49, 3.50484922528266906738e-02) (50, 6.00682571530342102051e-02) (51, -3.26645970344543457031e-02) (52, 6.11190497875213623047e-03) (53, -7.71652311086654663086e-02) (54, 8.39217975735664367676e-02) (55, 7.37518742680549621582e-02) (56, -5.23104295134544372559e-02) (57, 1.86381489038467407227e-02) (58, 5.13914749026298522949e-02) (59, -6.35756105184555053711e-02) (60, 8.47503021359443664551e-02) (61, -1.66273117065429687500e-03) (62, 5.45155480504035949707e-02) (63, 4.28658202290534973145e-02) (64, 4.57681491971015930176e-02) (65, 2.51281782984733581543e-02) (66, -7.08613246679306030273e-02) (67, 3.37885394692420959473e-02) (68, 8.39369520545005798340e-02) (69, -7.17079937458038330078e-02) (70, 3.78847122192382812500e-03) (71, 7.27740302681922912598e-02) (72, -8.69079306721687316895e-02) (73, -6.16063587367534637451e-02) (74, -1.80490761995315551758e-02) (75, 4.92082610726356506348e-02) (76, 4.32481393218040466309e-02) (77, 7.15913996100425720215e-02) (78, 3.66999879479408264160e-02) (79, 1.65952071547508239746e-02) (80, -8.44260081648826599121e-02) (81, 5.21262958645820617676e-02) (82, 8.65164771676063537598e-02) (83, 8.24332162737846374512e-02) (84, 5.50563856959342956543e-02) (85, -6.73478767275810241699e-02) (86, 8.42814967036247253418e-02) (87, -8.10305923223495483398e-02) (88, -8.12213644385337829590e-02) (89, -8.74500572681427001953e-02) (90, 2.68813446164131164551e-02) (0, -5.46230375766754150391e-03) (1, -5.00738620758056640625e-03) (2, 4.08419743180274963379e-02) (3, 3.09789404273033142090e-02) (4, 6.30543455481529235840e-02) (5, -4.55050952732563018799e-02) (6, -4.08417731523513793945e-03) (7, -4.27642576396465301514e-02) (8, 6.11504688858985900879e-02) (9, -4.39946055412292480469e-02) (10, -1.73364579677581787109e-02) (11, 2.61437520384788513184e-02) (12, -1.88492983579635620117e-03) (13, -8.00885483622550964355e-02) (14, -4.82634715735912322998e-02) (15, 3.57914045453071594238e-02) (16, -5.38533553481101989746e-02) (17, 8.67024138569831848145e-02) (18, 7.54629075527191162109e-03) (19, 3.04735675454139709473e-02) (20, -3.08055952191352844238e-02) (21, 5.03992512822151184082e-02) (22, 6.03646114468574523926e-02) (23, -5.19491136074066162109e-02) (24, 9.12542417645454406738e-02) (25, -9.00307372212409973145e-02) (26, 5.34481331706047058105e-02) (27, -9.73780006170272827148e-02) (28, -3.20046991109848022461e-02) (29, 9.70773622393608093262e-02) (30, -2.08370462059974670410e-02) (31, -8.16766172647476196289e-03) (32, -7.38257393240928649902e-02) (33, 1.07555612921714782715e-02) (34, -3.13509330153465270996e-02) (35, 8.48693475127220153809e-02) (36, -8.62382352352142333984e-04) (37, -9.40985530614852905273e-02) (38, 8.56375172734260559082e-02) (39, -9.01158154010772705078e-02) (40, 2.34984606504440307617e-02) (41, -6.14194050431251525879e-02) (42, -7.59386941790580749512e-02) (43, 9.83937308192253112793e-02) (44, -9.65708345174789428711e-02) (45, -6.59343153238296508789e-02) (46, 4.19814065098762512207e-02) (47, -1.85716822743415832520e-02) (48, 6.57757893204689025879e-02) (49, 9.36063155531883239746e-02) (50, 4.13611009716987609863e-02) (51, -4.39059920608997344971e-02) (52, 7.20216110348701477051e-02) (53, 6.72274008393287658691e-02) (54, 9.09287855029106140137e-02) (55, 4.00164797902107238770e-02) (56, -4.29839380085468292236e-02) (57, -3.10503616929054260254e-02) (58, -6.33877366781234741211e-02) (59, 4.23224642872810363770e-02) (60, -8.64230021834373474121e-02) (61, 8.85711088776588439941e-02) (62, 1.45407319068908691406e-02) (63, -1.39962062239646911621e-02) (64, -3.42702046036720275879e-02) (65, 2.06842646002769470215e-02) (66, 4.04032096266746520996e-02) (67, 5.67609444260597229004e-02) (68, -1.87619775533676147461e-02) (69, 6.74579814076423645020e-02) (70, -3.36660370230674743652e-02) (71, -2.51228585839271545410e-02) (72, -3.98977212607860565186e-02) (73, 3.89945432543754577637e-02) (74, -1.86900869011878967285e-02) (75, 7.57022574543952941895e-02) (76, -7.20871537923812866211e-02) (77, 3.12439873814582824707e-02) (78, -8.21512192487716674805e-02) (79, 8.44269171357154846191e-02) (80, -3.67537289857864379883e-02) (81, 8.00069943070411682129e-02) (82, 7.75406435132026672363e-02) (83, 2.55327299237251281738e-02) (84, -7.12444037199020385742e-02) (85, -4.64770197868347167969e-03) (86, 8.60657766461372375488e-02) (87, -9.27017629146575927734e-02) (88, -3.85495983064174652100e-02) (89, 9.69048812985420227051e-02) (90, 8.02429094910621643066e-02) (0, 4.26454022526741027832e-02) (1, -5.87091371417045593262e-02) (2, 7.55605623126029968262e-02) (3, -5.37107996642589569092e-02) (4, 8.26248452067375183105e-02) (5, 7.57043883204460144043e-02) (6, -3.64583879709243774414e-02) (7, 4.38707396388053894043e-02) (8, -6.44824653863906860352e-02) (9, 4.32874932885169982910e-02) (10, -6.71821385622024536133e-02) (11, 6.98068365454673767090e-02) (12, 4.34514954686164855957e-02) (13, 8.92698094248771667480e-02) (14, -4.22864668071269989014e-02) (15, 9.12917777895927429199e-02) (16, -5.90766705572605133057e-02) (17, 9.83904376626014709473e-02) (18, 4.80920448899269104004e-02) (19, 8.29808339476585388184e-02) (20, 5.89902922511100769043e-02) (21, 4.98055443167686462402e-02) (22, 8.17469432950019836426e-02) (23, -7.92165398597717285156e-02) (24, 7.69770145416259765625e-03) (25, -2.47730761766433715820e-02) (26, 3.88545021414756774902e-02) (27, 2.76373699307441711426e-02) (28, -9.88603234291076660156e-02) (29, 5.46161457896232604980e-02) (30, -6.65601640939712524414e-02) (31, -7.66150578856468200684e-02) (32, -6.92244842648506164551e-02) (33, -5.58645389974117279053e-02) (34, 8.47419425845146179199e-02) (35, 5.77756837010383605957e-02) (36, 3.58405038714408874512e-02) (37, -2.87208110094070434570e-02) (38, 8.93987938761711120605e-02) (39, -7.44557529687881469727e-02) (40, 2.21522226929664611816e-02) (41, -8.75186771154403686523e-02) (42, 7.36219957470893859863e-02) (43, -3.51568162441253662109e-02) (44, -8.06226283311843872070e-02) (45, -2.45376899838447570801e-02) (46, -4.95027005672454833984e-03) (47, 7.77460634708404541016e-04) (48, 6.68458566069602966309e-02) (49, 7.82428607344627380371e-02) (50, 2.77758464217185974121e-02) (51, 2.86533758044242858887e-02) (52, -2.27243751287460327148e-02) (53, 7.15076401829719543457e-02) (54, 2.89881601929664611816e-02) (55, 4.02502715587615966797e-03) (56, 4.86024841666221618652e-02) (57, 6.19275048375129699707e-02) (58, 1.56110748648643493652e-02) (59, -2.47014090418815612793e-02) (60, 4.34360429644584655762e-02) (61, 2.95313969254493713379e-02) (62, -6.57842531800270080566e-02) (63, -3.58991026878356933594e-02) (64, 4.38051149249076843262e-02) (65, 3.24221029877662658691e-02) (66, -8.18001404404640197754e-02) (67, -1.49242430925369262695e-02) (68, -3.16872447729110717773e-02) (69, 3.24072018265724182129e-02) (70, 6.77936151623725891113e-02) (71, 7.23656266927719116211e-03) (72, 2.49080508947372436523e-02) (73, 2.97062918543815612793e-02) (74, 7.34791681170463562012e-02) (75, -3.57218459248542785645e-02) (76, 2.30033546686172485352e-02) (77, 1.73171386122703552246e-02) (78, 4.91151288151741027832e-02) (79, 7.81339481472969055176e-02) (80, -2.66635417938232421875e-03) (81, -1.33904516696929931641e-02) (82, -5.33267967402935028076e-02) (83, -6.34568035602569580078e-02) (84, 8.16280767321586608887e-02) (85, -7.70162492990493774414e-02) (86, -1.21002271771430969238e-02) (87, 3.15357521176338195801e-02) (88, 2.11990326642990112305e-02) (89, 9.22259017825126647949e-02) (90, 4.06498089432716369629e-02) (0, 1.24923139810562133789e-03) (1, -4.28449362516403198242e-03) (2, -9.51021909713745117188e-03) (3, -3.82453985512256622314e-02) (4, 9.62460041046142578125e-03) (5, -3.93572635948657989502e-02) (6, -7.74927660822868347168e-02) (7, -2.08677202463150024414e-02) (8, 7.63172283768653869629e-02) (9, 6.36070594191551208496e-02) (10, 4.37879040837287902832e-02) (11, -5.68905994296073913574e-02) (12, 3.97082492709159851074e-02) (13, -2.35066264867782592773e-02) (14, -7.59239867329597473145e-02) (15, -5.43978773057460784912e-02) (16, -6.50718659162521362305e-02) (17, -6.28642737865447998047e-02) (18, 4.02384176850318908691e-02) (19, 8.70495662093162536621e-02) (20, 4.20106574892997741699e-02) (21, 7.30808451771736145020e-02) (22, 6.96269348263740539551e-02) (23, 1.99466124176979064941e-02) (24, 4.26485463976860046387e-02) (25, -6.05175644159317016602e-03) (26, 8.81067439913749694824e-02) (27, 1.00179910659790039062e-02) (28, -2.75575518608093261719e-02) (29, 4.02311310172080993652e-02) (30, -3.52609306573867797852e-02) (31, -3.05424481630325317383e-02) (32, 7.31055811047554016113e-02) (33, 8.53652432560920715332e-02) (34, -6.64396733045578002930e-02) (35, -5.15154004096984863281e-02) (36, -1.93139538168907165527e-02) (37, -9.68848168849945068359e-03) (38, -3.42124253511428833008e-02) (39, -8.13531130552291870117e-03) (40, 6.97641298174858093262e-02) (41, -7.43236094713211059570e-02) (42, 4.30285111069679260254e-02) (43, -1.98377519845962524414e-02) (44, -1.30672380328178405762e-02) (45, -2.10611075162887573242e-02) (46, 2.59102508425712585449e-02) (47, 7.34319314360618591309e-02) (48, -2.94784754514694213867e-02) (49, -4.47003617882728576660e-02) (50, -7.89441391825675964355e-02) (51, -1.41846388578414916992e-02) (52, -1.29817426204681396484e-03) (53, -1.85111016035079956055e-02) (54, 8.39973762631416320801e-02) (55, -5.60033544898033142090e-02) (56, -4.83738742768764495850e-02) (57, -1.96325629949569702148e-02) (58, 3.54830697178840637207e-02) (59, -3.60884517431259155273e-02) (60, 6.13607540726661682129e-02) (61, 9.00916531682014465332e-02) (62, -2.95696258544921875000e-02) (63, 2.32815966010093688965e-02) (64, 9.37966033816337585449e-02) (65, 3.95114198327064514160e-02) (66, 6.84577003121376037598e-02) (67, -3.14483195543289184570e-02) (68, 4.81063202023506164551e-02) (69, -7.72630348801612854004e-02) (70, 4.02073934674263000488e-02) (71, -3.45122069120407104492e-02) (72, -4.66516688466072082520e-02) (73, -7.45587572455406188965e-02) (74, 9.09953489899635314941e-02) (75, -4.11821193993091583252e-02) (76, 5.21369352936744689941e-02) (77, 6.54523298144340515137e-02) (78, 5.71910813450813293457e-02) (79, 1.06587857007980346680e-02) (80, -5.76516799628734588623e-02) (81, 4.81838956475257873535e-02) (82, 2.66382619738578796387e-02) (83, -9.07519310712814331055e-02) (84, -6.76553547382354736328e-02) (85, -8.35327431559562683105e-02) (86, 6.51561692357063293457e-02) (87, 7.96906873583793640137e-02) (88, -3.87601666152477264404e-02) (89, -4.21198271214962005615e-02) (90, 9.21317562460899353027e-02) (91, 5.85492625832557678223e-02) (92, 3.73760834336280822754e-02) (93, -2.01662182807922363281e-02) (94, 6.63214549422264099121e-02) (95, 6.47117421030998229980e-02) (96, 1.01083740592002868652e-02) (97, 9.14749875664710998535e-02) (98, 1.99923068284988403320e-02) (99, 1.06924176216125488281e-02) (100, -9.25972163677215576172e-02) (101, -8.13575237989425659180e-02) (102, 2.41743549704551696777e-02) (103, 9.83927920460700988770e-02) (104, 8.75651314854621887207e-02) (105, -9.30308848619461059570e-02) (106, 2.99933031201362609863e-02) (107, 9.76109132170677185059e-02) (108, -5.34144490957260131836e-02) (109, 6.33356347680091857910e-02) (110, 8.19240286946296691895e-02) (111, 9.73129197955131530762e-02) (91, -6.17930218577384948730e-02) (92, 4.47273328900337219238e-02) (93, -6.77822977304458618164e-02) (94, -1.69696956872940063477e-02) (95, -9.74050909280776977539e-03) (96, 9.12816002964973449707e-02) (97, -3.01219671964645385742e-02) (98, -5.99694326519966125488e-02) (99, 9.37754735350608825684e-02) (100, 8.43476578593254089355e-02) (101, 3.10166552662849426270e-02) (102, 9.67883542180061340332e-02) (103, -7.83404260873794555664e-02) (104, -6.76036924123764038086e-02) (105, -1.52518600225448608398e-02) (106, 6.19861409068107604980e-02) (107, 9.50969755649566650391e-04) (108, -1.71741843223571777344e-02) (109, -4.64996062219142913818e-02) (110, 8.11405703425407409668e-02) (111, -7.05940574407577514648e-02) (91, -7.43403956294059753418e-02) (92, -3.90134863555431365967e-02) (93, -9.97241809964179992676e-02) (94, -6.43053054809570312500e-02) (95, 2.06747055053710937500e-02) (96, 7.98687264323234558105e-02) (97, -4.63494472205638885498e-02) (98, 4.86916303634643554688e-03) (99, 3.59519794583320617676e-02) (100, 4.47601750493049621582e-02) (101, 8.40471759438514709473e-02) (102, -1.90655142068862915039e-02) (103, -3.40778604149818420410e-02) (104, 5.34333959221839904785e-02) (105, 5.50207272171974182129e-02) (106, -6.67006224393844604492e-02) (107, -3.73798608779907226562e-02) (108, -4.33306768536567687988e-02) (109, -5.87042197585105895996e-02) (110, -4.18117642402648925781e-02) (111, 6.96412995457649230957e-02) (91, 6.13744482398033142090e-02) (92, -7.96628221869468688965e-02) (93, -9.30726900696754455566e-02) (94, -7.26236850023269653320e-02) (95, 1.37576833367347717285e-02) (96, 2.54222974181175231934e-02) (97, 7.25521221756935119629e-02) (98, -1.64749771356582641602e-02) (99, -9.50151979923248291016e-02) (100, 7.95595571398735046387e-02) (101, -4.25483547151088714600e-02) (102, 8.98058935999870300293e-02) (103, -3.25185209512710571289e-02) (104, 6.11515864729881286621e-02) (105, -2.51706242561340332031e-02) (106, -4.26484160125255584717e-02) (107, 8.06470215320587158203e-03) (108, -5.65876327455043792725e-02) (109, -6.83291256427764892578e-02) (110, -7.62851536273956298828e-03) (111, -1.24976783990859985352e-02) (91, -4.84363436698913574219e-02) (92, -6.95822611451148986816e-02) (93, -6.91003948450088500977e-02) (94, 2.96703502535820007324e-02) (95, 6.94525018334388732910e-02) (96, 8.82497355341911315918e-02) (97, 1.32048502564430236816e-02) (98, -6.60245046019554138184e-02) (99, -7.38407522439956665039e-02) (100, -4.15321551263332366943e-02) (101, -3.08744013309478759766e-02) (102, 9.39451977610588073730e-02) (103, -6.30550235509872436523e-02) (104, 3.43431308865547180176e-02) (105, 4.89072501659393310547e-03) (106, -1.54625624418258666992e-03) (107, 1.20313763618469238281e-02) (108, 1.13606080412864685059e-02) (109, -6.22550807893276214600e-02) (110, 7.88246020674705505371e-02) (111, 5.02572953701019287109e-03) (91, 6.75545409321784973145e-02) (92, -1.07447132468223571777e-02) (93, 1.35456770658493041992e-02) (94, 6.22235015034675598145e-02) (95, -9.47904586791992187500e-03) (96, 8.57096835970878601074e-02) (97, -7.74574652314186096191e-02) (98, -2.76101380586624145508e-02) (99, -4.36508320271968841553e-02) (100, -3.95177900791168212891e-02) (101, 2.45480090379714965820e-02) (102, -2.16533839702606201172e-02) (103, 7.15339705348014831543e-02) (104, 7.13095143437385559082e-02) (105, 9.88899543881416320801e-02) (106, 4.34759184718132019043e-02) (107, 9.97033938765525817871e-02) (108, -8.49855542182922363281e-02) (109, 4.78404685854911804199e-02) (110, 5.46017214655876159668e-02) (111, 9.09617021679878234863e-02) (91, -6.67486339807510375977e-03) (92, 1.55622139573097229004e-02) (93, -4.59818132221698760986e-02) (94, -1.63610130548477172852e-02) (95, 2.04730257391929626465e-02) (96, 9.01320204138755798340e-02) (97, 4.88482341170310974121e-02) (98, -7.70612061023712158203e-03) (99, 8.33036378026008605957e-02) (100, 8.40870216488838195801e-02) (101, 5.05586341023445129395e-02) (102, -6.09243325889110565186e-02) (103, 4.48004081845283508301e-02) (104, -3.96919064223766326904e-02) (105, 9.81323644518852233887e-02) (106, -8.93976315855979919434e-02) (107, 9.40326377749443054199e-02) (108, 6.47103786468505859375e-03) (109, -4.13283891975879669189e-02) (110, -6.18200004100799560547e-03) (111, 9.91244837641716003418e-02) (91, -1.48686915636062622070e-02) (92, -9.80593115091323852539e-02) (93, -8.28469544649124145508e-02) (94, -8.74790549278259277344e-03) (95, -2.60359495878219604492e-02) (96, 1.38537734746932983398e-02) (97, 4.03372421860694885254e-02) (98, -5.19366078078746795654e-02) (99, -9.85983610153198242188e-02) (100, 5.74262514710426330566e-02) (101, -3.69245558977127075195e-02) (102, 9.04430449008941650391e-03) (103, 7.64050334692001342773e-03) (104, 1.39812976121902465820e-02) (105, -1.64381414651870727539e-02) (106, -7.58820846676826477051e-02) (107, 4.98266592621803283691e-02) (108, 3.66430357098579406738e-02) (109, 5.96321597695350646973e-02) (110, 3.77590134739875793457e-02) (111, 1.58391445875167846680e-02) (91, 8.55563580989837646484e-03) (92, -5.30757009983062744141e-03) (93, -4.28453832864761352539e-03) (94, -1.01598054170608520508e-02) (95, 4.41181883215904235840e-02) (96, 9.43828597664833068848e-02) (97, 9.26817879080772399902e-02) (98, -9.71734672784805297852e-02) (99, 5.51982223987579345703e-03) (100, -2.83859223127365112305e-02) (101, -8.21644440293312072754e-02) (102, 6.21862038969993591309e-02) (103, -3.64009588956832885742e-02) (104, 9.03581082820892333984e-03) (105, 6.49344995617866516113e-02) (106, -4.60477136075496673584e-02) (107, 7.61169567704200744629e-02) (108, 9.76124331355094909668e-02) (109, -2.79803127050399780273e-02) (110, -6.51604682207107543945e-02) (111, 4.81001064181327819824e-02) (91, 1.85116380453109741211e-02) (92, -7.48248770833015441895e-02) (93, 1.82910561561584472656e-02) (94, 1.78114771842956542969e-02) (95, -4.24128249287605285645e-02) (96, -3.22808176279067993164e-02) (97, 5.62548264861106872559e-02) (98, 7.49294534325599670410e-02) (99, -6.06434866786003112793e-02) (100, -3.50427329540252685547e-02) (101, 3.67924496531486511230e-02) (102, -2.93617844581604003906e-02) (103, -8.35233554244041442871e-02) (104, 2.29279398918151855469e-02) (105, -5.00381439924240112305e-02) (106, 8.92996788024902343750e-03) (107, 8.58896300196647644043e-02) (108, -5.31292445957660675049e-02) (109, 5.67864403128623962402e-02) (110, 9.79435443878173828125e-03) (111, 1.36611238121986389160e-02) (91, 2.56671756505966186523e-03) (92, -6.11989945173263549805e-02) (93, 2.84884944558143615723e-02) (94, 6.11950457096099853516e-03) (95, 5.04045858979225158691e-02) (96, -5.01314662396907806396e-02) (97, 4.05036434531211853027e-02) (98, -5.51600754261016845703e-02) (99, -7.53920301795005798340e-02) (100, 8.61286148428916931152e-02) (101, -3.63313108682632446289e-02) (102, -2.03647464513778686523e-02) (103, -7.02475905418395996094e-02) (104, -5.12806139886379241943e-02) (105, -7.32710957527160644531e-02) (106, -6.73671513795852661133e-02) (107, -3.97301986813545227051e-02) (108, 5.45402839779853820801e-02) (109, 5.84397688508033752441e-02) (110, -2.91168689727783203125e-03) (111, 6.32524713873863220215e-02) (91, 8.42237100005149841309e-02) (92, -5.21186701953411102295e-02) (93, 4.15636226534843444824e-02) (94, -4.02226932346820831299e-02) (95, -2.28375941514968872070e-02) (96, -3.15131694078445434570e-02) (97, -4.18877899646759033203e-02) (98, -8.09331238269805908203e-03) (99, -2.42253690958023071289e-02) (100, 4.43145558238029479980e-02) (101, -5.34053146839141845703e-03) (102, 4.16429713368415832520e-02) (103, 9.32059362530708312988e-02) (104, -8.80298018455505371094e-02) (105, 8.31032469868659973145e-02) (106, -8.35511460900306701660e-02) (107, -4.41450774669647216797e-02) (108, 5.36881461739540100098e-02) (109, -6.33354485034942626953e-02) (110, -7.87934884428977966309e-02) (111, -8.21976587176322937012e-02) (91, -9.60781052708625793457e-02) (92, 1.53254419565200805664e-02) (93, -2.53227427601814270020e-02) (94, 6.44229352474212646484e-04) (95, 2.75870040059089660645e-02) (96, 5.46051487326622009277e-02) (97, -5.13156950473785400391e-02) (98, -6.28721937537193298340e-02) (99, -9.29444730281829833984e-02) (100, 8.22011753916740417480e-02) (101, -4.48782034218311309814e-02) (102, -6.79441317915916442871e-02) (103, 6.29944428801536560059e-02) (104, -5.23189753293991088867e-02) (105, 7.50054940581321716309e-02) (106, 1.72883495688438415527e-02) (107, -3.46906632184982299805e-02) (108, -4.59308102726936340332e-02) (109, 4.08893898129463195801e-02) (110, 2.79443934559822082520e-02) (111, 6.12512007355690002441e-02) (91, 4.89382818341255187988e-02) (92, -9.42303091287612915039e-02) (93, 7.12352171540260314941e-02) (94, 5.02616241574287414551e-02) (95, -5.30897937715053558350e-02) (96, -8.01259875297546386719e-02) (97, -7.74127766489982604980e-02) (98, -7.65369608998298645020e-02) (99, 4.32639047503471374512e-02) (100, -6.35626986622810363770e-02) (101, -9.82416942715644836426e-02) (102, 5.18193468451499938965e-02) (103, -7.22316876053810119629e-02) (104, 1.99376046657562255859e-03) (105, -9.08263474702835083008e-02) (106, 8.16548392176628112793e-02) (107, -2.71518453955650329590e-02) (108, 5.88849261403083801270e-02) (109, 7.88187012076377868652e-02) (110, -9.40279215574264526367e-02) (111, 7.26926997303962707520e-02) (91, -5.39445467293262481689e-02) (92, -4.59839999675750732422e-02) (93, -5.30400760471820831299e-02) (94, -4.45248857140541076660e-02) (95, 7.02290162444114685059e-02) (96, -6.08600378036499023438e-02) (97, -7.46409744024276733398e-02) (98, -9.08190160989761352539e-02) (99, 4.78867441415786743164e-03) (100, 8.31765606999397277832e-02) (101, -5.14599233865737915039e-02) (102, -8.69257152080535888672e-02) (103, 3.94717380404472351074e-02) (104, 1.36302411556243896484e-03) (105, -9.15887206792831420898e-02) (106, 6.83794394135475158691e-02) (107, 5.31722381711006164551e-02) (108, 6.57455399632453918457e-02) (109, -1.48854106664657592773e-02) (110, 2.08049789071083068848e-02) (111, 6.93424865603446960449e-02) (91, 3.91103401780128479004e-02) (92, -7.26148486137390136719e-02) (93, -3.77416573464870452881e-02) (94, 7.60296508669853210449e-02) (95, 3.01775857806205749512e-02) (96, -5.41181862354278564453e-03) (97, 4.36543598771095275879e-02) (98, 9.87446233630180358887e-02) (99, 8.17552208900451660156e-04) (100, -5.95103725790977478027e-02) (101, 9.20437276363372802734e-03) (102, 9.80363413691520690918e-02) (103, 9.66485068202018737793e-02) (104, -2.86382511258125305176e-02) (105, 7.69279673695564270020e-02) (106, -7.15336352586746215820e-02) (107, -6.58811405301094055176e-02) (108, -6.42801001667976379395e-02) (109, 4.43755611777305603027e-02) (110, 2.00280994176864624023e-02) (111, 1.23414173722267150879e-02) (91, 2.22511738538742065430e-02) (92, -2.44559049606323242188e-02) (93, -3.03940847516059875488e-02) (94, -3.33380475640296936035e-02) (95, 8.74304249882698059082e-02) (96, 4.30227592587471008301e-02) (97, 8.35566744208335876465e-02) (98, -6.29089623689651489258e-02) (99, 8.90838429331779479980e-02) (100, 3.21418270468711853027e-02) (101, 7.76021182537078857422e-03) (102, 2.59091630578041076660e-02) (103, 5.53749278187751770020e-02) (104, 8.65367129445075988770e-02) (105, 2.27002725005149841309e-02) (106, -7.65285193920135498047e-02) (107, -1.47548019886016845703e-02) (108, 1.60671249032020568848e-02) (109, 4.01503667235374450684e-02) (110, 7.32262432575225830078e-03) (111, 7.13291093707084655762e-02) (91, 2.81766131520271301270e-02) (92, -3.56257483363151550293e-02) (93, 3.80294397473335266113e-02) (94, -3.93350087106227874756e-02) (95, 9.65873375535011291504e-02) (96, -5.65927214920520782471e-02) (97, 4.61443141102790832520e-02) (98, -5.25773465633392333984e-02) (99, -6.74586296081542968750e-02) (100, 2.29220017790794372559e-02) (101, 5.00473007559776306152e-02) (102, -5.50885908305644989014e-02) (103, -7.38956481218338012695e-02) (104, 3.58265712857246398926e-02) (105, -6.28732591867446899414e-02) (106, 8.92380103468894958496e-02) (107, 2.32726782560348510742e-02) (108, -5.59547133743762969971e-02) (109, -3.08344662189483642578e-02) (110, -3.48982438445091247559e-02) (111, 6.51974305510520935059e-02) (91, -2.67677828669548034668e-02) (92, -8.61260741949081420898e-02) (93, 7.91118219494819641113e-02) (94, 3.22222933173179626465e-02) (95, -3.99402268230915069580e-02) (96, -7.53682702779769897461e-02) (97, 8.55442360043525695801e-02) (98, -5.79285435378551483154e-02) (99, -4.98864799737930297852e-03) (100, -4.42249290645122528076e-02) (101, -8.84261801838874816895e-02) (102, 2.12194770574569702148e-02) (103, 3.58035042881965637207e-02) (104, -5.04507124423980712891e-02) (105, 7.48935863375663757324e-02) (106, -6.34930580854415893555e-02) (107, 7.22121670842170715332e-02) (108, 7.00344070792198181152e-02) (109, 6.82764127850532531738e-02) (110, -7.82867446541786193848e-02) (111, 3.47234681248664855957e-02) (91, -2.73591279983520507812e-03) (92, 1.75190344452857971191e-02) (93, 4.23408374190330505371e-02) (94, 2.24822312593460083008e-02) (95, 5.87615594267845153809e-02) (96, 5.48670440912246704102e-03) (97, 1.49807780981063842773e-02) (98, -1.79629921913146972656e-02) (99, 9.59767922759056091309e-02) (100, 8.19962695240974426270e-02) (101, -8.86372029781341552734e-02) (102, 7.45171234011650085449e-02) (103, 9.12219285964965820312e-03) (104, -8.33679288625717163086e-02) (105, 3.51993963122367858887e-02) (106, -3.87974083423614501953e-03) (107, -6.71736150979995727539e-03) (108, -9.86472070217132568359e-02) (109, 3.63931730389595031738e-02) (110, 5.98725005984306335449e-02) (111, 7.71141126751899719238e-02) (112, 5.69009408354759216309e-02) (113, -6.58266693353652954102e-02) (114, 5.11609241366386413574e-02) (115, 6.16093203425407409668e-02) (116, 6.78388699889183044434e-02) (117, -3.21076512336730957031e-02) (118, -3.33094075322151184082e-02) (119, -3.11821326613426208496e-02) (120, -7.80890136957168579102e-02) (121, -4.20436225831508636475e-02) (122, -2.71345600485801696777e-02) (123, -5.05705140531063079834e-02) (124, 6.13581761717796325684e-02) (125, 4.68321815133094787598e-02) (126, -9.15398076176643371582e-02) (127, 9.04236957430839538574e-02) (128, -4.89425919950008392334e-02) (129, 2.18833461403846740723e-02) (130, -6.54880702495574951172e-03) (131, -6.58599883317947387695e-02) (132, 9.12702903151512145996e-02) (112, -2.02166587114334106445e-02) (113, 1.86943635344505310059e-02) (114, -3.89532744884490966797e-03) (115, -6.87066316604614257812e-02) (116, 4.75871488451957702637e-02) (117, -2.88838148117065429688e-03) (118, 5.49763366580009460449e-02) (119, -1.27117037773132324219e-02) (120, -4.56532239913940429688e-02) (121, -9.37633737921714782715e-02) (122, -8.10091868042945861816e-02) (123, 7.85646513104438781738e-02) (124, 3.62086817622184753418e-02) (125, -4.08520400524139404297e-02) (126, -2.47657299041748046875e-04) (127, 3.76636907458305358887e-02) (128, 1.35966539382934570312e-02) (129, -8.09690654277801513672e-02) (130, -4.70464937388896942139e-02) (131, 8.95676240324974060059e-02) (132, -3.69648784399032592773e-02) (112, -6.87599703669548034668e-02) (113, -4.88091893494129180908e-02) (114, 6.39315322041511535645e-02) (115, 9.71565917134284973145e-02) (116, -8.90316143631935119629e-02) (117, 4.57028821110725402832e-02) (118, -7.17531368136405944824e-02) (119, 4.50548455119132995605e-02) (120, 3.66722568869590759277e-02) (121, -4.93523888289928436279e-02) (122, -6.55657798051834106445e-02) (123, 3.59062030911445617676e-02) (124, 7.57223442196846008301e-02) (125, 6.52935430407524108887e-02) (126, -1.14771723747253417969e-02) (127, -9.68009755015373229980e-02) (128, 6.60439059138298034668e-02) (129, -1.29923224449157714844e-04) (130, 1.64030641317367553711e-02) (131, 8.62653329968452453613e-02) (132, 6.15204498171806335449e-02) (112, -2.59223133325576782227e-02) (113, -7.63509050011634826660e-02) (114, -2.96773836016654968262e-02) (115, 1.21486186981201171875e-02) (116, -1.82163193821907043457e-02) (117, 3.83599177002906799316e-02) (118, -8.49012583494186401367e-02) (119, 6.45197406411170959473e-02) (120, -1.68304592370986938477e-02) (121, -6.94886147975921630859e-02) (122, -9.51549261808395385742e-02) (123, -6.88317641615867614746e-02) (124, -5.54114989936351776123e-02) (125, 9.89805981516838073730e-02) (126, -3.32136601209640502930e-02) (127, -2.19804346561431884766e-02) (128, -2.51630917191505432129e-02) (129, 8.39478000998497009277e-02) (130, -8.92894119024276733398e-02) (131, -8.71379375457763671875e-02) (132, 7.27448090910911560059e-02) (112, 2.20969691872596740723e-02) (113, -1.62833109498023986816e-02) (114, -7.35423043370246887207e-02) (115, -2.54680886864662170410e-02) (116, -4.21581454575061798096e-02) (117, 4.80779334902763366699e-02) (118, 4.56571504473686218262e-02) (119, -4.02822494506835937500e-02) (120, -2.37425714731216430664e-02) (121, -4.13934588432312011719e-02) (122, -9.98169258236885070801e-02) (123, -2.30848342180252075195e-02) (124, 1.31026729941368103027e-02) (125, 1.67260766029357910156e-02) (126, -8.48546698689460754395e-02) (127, 4.76403310894966125488e-02) (128, 9.10191610455513000488e-02) (129, -4.08602021634578704834e-02) (130, 6.26155808568000793457e-02) (131, -2.00752764940261840820e-02) (132, -5.10097295045852661133e-03) (112, 6.79593160748481750488e-02) (113, -7.68732279539108276367e-03) (114, -8.78892838954925537109e-04) (115, 2.84519717097282409668e-02) (116, -7.87482410669326782227e-03) (117, 4.78491857647895812988e-02) (118, 1.13169103860855102539e-03) (119, 2.03539952635765075684e-02) (120, 8.95304754376411437988e-02) (121, -6.14778436720371246338e-02) (122, -5.81026412546634674072e-02) (123, 6.89009353518486022949e-02) (124, 1.80045589804649353027e-02) (125, 2.68006324768066406250e-03) (126, 4.37361523509025573730e-02) (127, 7.35074356198310852051e-02) (128, 3.92996445298194885254e-02) (129, -9.09453034400939941406e-02) (130, 8.23477581143379211426e-02) (131, 1.88722386956214904785e-02) (132, -1.43913179636001586914e-02) (112, -7.48521685600280761719e-02) (113, -4.04093153774738311768e-02) (114, 4.06635329127311706543e-02) (115, 3.18954661488533020020e-02) (116, 6.69471994042396545410e-02) (117, -1.84230059385299682617e-02) (118, -3.53975594043731689453e-02) (119, 7.32180401682853698730e-02) (120, -2.45525017380714416504e-02) (121, -5.38350753486156463623e-02) (122, -6.11571967601776123047e-03) (123, 1.31157860159873962402e-02) (124, 3.71275916695594787598e-02) (125, 3.41235101222991943359e-03) (126, -4.86392080783843994141e-02) (127, -7.91556835174560546875e-02) (128, 3.04194614291191101074e-02) (129, 5.98454400897026062012e-02) (130, 2.21797972917556762695e-02) (131, -2.42633596062660217285e-02) (132, 5.76265156269073486328e-03) (112, 5.28324320912361145020e-02) (113, -4.54738698899745941162e-02) (114, -7.93276876211166381836e-02) (115, -6.03768154978752136230e-02) (116, 4.68825772404670715332e-02) (117, -4.43791635334491729736e-02) (118, -8.06214213371276855469e-02) (119, -4.20477986335754394531e-03) (120, -6.97766765952110290527e-02) (121, 6.34045228362083435059e-02) (122, 3.98885831236839294434e-02) (123, 7.52566009759902954102e-03) (124, 8.37419256567955017090e-02) (125, 5.05663082003593444824e-02) (126, 6.78100660443305969238e-02) (127, 8.35700109601020812988e-02) (128, -3.88681851327419281006e-02) (129, -5.75776547193527221680e-02) (130, 9.23371240496635437012e-02) (131, -9.01032984256744384766e-02) (132, 3.39542254805564880371e-02) (112, 6.86264410614967346191e-02) (113, 4.53832000494003295898e-03) (114, 7.56312385201454162598e-02) (115, -6.58964812755584716797e-02) (116, 7.79615715146064758301e-02) (117, 9.99381765723228454590e-02) (118, 6.09837397933006286621e-02) (119, -4.62934263050556182861e-02) (120, -5.36060966551303863525e-02) (121, 4.23260554671287536621e-02) (122, -2.60112583637237548828e-02) (123, 2.87577882409095764160e-02) (124, -6.79772496223449707031e-02) (125, -9.36278924345970153809e-02) (126, -3.96461784839630126953e-03) (127, -3.33564728498458862305e-02) (128, -2.22042351961135864258e-02) (129, 1.35104507207870483398e-02) (130, 7.01946690678596496582e-02) (131, -3.80782485008239746094e-02) (132, 1.88701003789901733398e-02) (112, -5.01468665897846221924e-02) (113, -1.83910802006721496582e-02) (114, -9.88842919468879699707e-02) (115, 5.16708269715309143066e-02) (116, 3.14946249127388000488e-02) (117, -6.99914619326591491699e-02) (118, 5.35433664917945861816e-02) (119, -9.67430472373962402344e-02) (120, 3.96583154797554016113e-02) (121, -6.25168979167938232422e-02) (122, 7.85737112164497375488e-02) (123, -1.17531493306159973145e-02) (124, 6.48355558514595031738e-02) (125, 9.09834429621696472168e-02) (126, -4.14135158061981201172e-02) (127, -3.69424745440483093262e-02) (128, -9.22317802906036376953e-02) (129, 6.04859367012977600098e-02) (130, -1.28966122865676879883e-02) (131, 4.67334613204002380371e-02) (132, 4.93137314915657043457e-02) (112, 1.59489661455154418945e-02) (113, 5.41418716311454772949e-02) (114, -3.76436822116374969482e-02) (115, -7.73836597800254821777e-02) (116, 1.28099098801612854004e-02) (117, 9.60826799273490905762e-02) (118, 6.14496693015098571777e-02) (119, -1.52831301093101501465e-02) (120, -6.35545626282691955566e-02) (121, 3.84771451354026794434e-02) (122, 8.54404196143150329590e-02) (123, -2.85826623439788818359e-03) (124, -3.88516671955585479736e-02) (125, 2.00440064072608947754e-02) (126, 7.96808078885078430176e-02) (127, -4.75119799375534057617e-03) (128, -5.33761084079742431641e-02) (129, -9.22677367925643920898e-02) (130, 5.61712607741355895996e-02) (131, 7.04843625426292419434e-02) (132, 3.06591019034385681152e-02) (112, 8.76472368836402893066e-02) (113, 8.71587321162223815918e-02) (114, 7.67777040600776672363e-02) (115, 2.90639698505401611328e-03) (116, 4.77304086089134216309e-02) (117, 4.97394800186157226562e-03) (118, -2.81597673892974853516e-03) (119, 7.18358829617500305176e-02) (120, -5.43356314301490783691e-02) (121, -1.89476981759071350098e-02) (122, -5.39516508579254150391e-02) (123, 3.45981344580650329590e-02) (124, 9.07733216881752014160e-02) (125, 2.72269323468208312988e-02) (126, 3.05608659982681274414e-03) (127, -3.64753678441047668457e-02) (128, -4.14896421134471893311e-02) (129, 8.36089327931404113770e-02) (130, 1.53928026556968688965e-02) (131, -9.31022539734840393066e-02) (132, 3.04566547274589538574e-02) (112, 8.49751159548759460449e-02) (113, -2.32998281717300415039e-02) (114, -2.74091958999633789062e-04) (115, -6.67999684810638427734e-03) (116, -7.06327259540557861328e-02) (117, 7.57422521710395812988e-02) (118, -1.64732336997985839844e-05) (119, -7.68899023532867431641e-02) (120, -8.85604992508888244629e-02) (121, -3.62544730305671691895e-02) (122, 7.11176618933677673340e-02) (123, 7.46308639645576477051e-02) (124, -7.89490193128585815430e-02) (125, -9.61815118789672851562e-02) (126, 7.72954449057579040527e-02) (127, -9.54717323184013366699e-02) (128, 6.56522810459136962891e-03) (129, -5.83497248589992523193e-02) (130, -8.37690308690071105957e-02) (131, 9.39233526587486267090e-02) (132, -3.01555618643760681152e-02) (112, -2.45324000716209411621e-02) (113, 8.38899686932563781738e-02) (114, -6.11742101609706878662e-02) (115, 4.51002195477485656738e-02) (116, -6.49623572826385498047e-04) (117, 8.17946121096611022949e-02) (118, -7.80389383435249328613e-02) (119, -4.67874109745025634766e-04) (120, -6.35453015565872192383e-02) (121, -5.79062849283218383789e-03) (122, 7.69640132784843444824e-02) (123, -6.59151002764701843262e-02) (124, -3.50665971636772155762e-02) (125, 3.56409326195716857910e-02) (126, 1.71540379524230957031e-02) (127, -9.21599194407463073730e-02) (128, 6.83060362935066223145e-02) (129, 1.93341597914695739746e-02) (130, -5.07081449031829833984e-02) (131, -5.17769157886505126953e-02) (132, -1.46029368042945861816e-02) (112, -3.15096825361251831055e-02) (113, 1.68428570032119750977e-02) (114, 7.77764841914176940918e-02) (115, -1.07665508985519409180e-02) (116, 4.66345325112342834473e-02) (117, -1.34375467896461486816e-02) (118, -4.48309965431690216064e-02) (119, -7.45850801467895507812e-02) (120, 4.85785230994224548340e-02) (121, 5.91919496655464172363e-02) (122, 3.88785675168037414551e-02) (123, 3.21448221802711486816e-02) (124, 5.80274239182472229004e-02) (125, 6.68148472905158996582e-02) (126, -4.27616722881793975830e-02) (127, -9.53959599137306213379e-02) (128, 8.01127180457115173340e-02) (129, 5.45334294438362121582e-02) (130, -5.65937794744968414307e-02) (131, 2.83706262707710266113e-02) (132, 2.51057818531990051270e-02) (112, -4.71453331410884857178e-02) (113, 2.84724012017250061035e-02) (114, -6.43488690257072448730e-02) (115, 8.85992720723152160645e-02) (116, 8.77809301018714904785e-02) (117, -6.59454464912414550781e-02) (118, 5.49890920519828796387e-02) (119, 1.67132914066314697266e-03) (120, 9.00546982884407043457e-02) (121, -5.05356788635253906250e-02) (122, 4.68645170331001281738e-02) (123, 5.18387481570243835449e-02) (124, 5.38242533802986145020e-02) (125, 2.40931510925292968750e-02) (126, -6.63773119449615478516e-02) (127, -3.46907228231430053711e-03) (128, 9.52794328331947326660e-02) (129, -3.86616289615631103516e-02) (130, 1.39837414026260375977e-02) (131, 2.47144699096679687500e-02) (132, -2.38844677805900573730e-02) (112, -2.62681767344474792480e-02) (113, -8.92332792282104492188e-02) (114, 5.63199296593666076660e-02) (115, -3.10474261641502380371e-02) (116, -1.41598731279373168945e-02) (117, 1.50098800659179687500e-02) (118, 7.10536018013954162598e-02) (119, -2.09909677505493164062e-03) (120, -7.95359537005424499512e-02) (121, 3.92857864499092102051e-02) (122, 7.63657763600349426270e-02) (123, 7.97533616423606872559e-02) (124, 1.47959217429161071777e-02) (125, 7.50764086842536926270e-02) (126, 9.30543243885040283203e-03) (127, -3.56171280145645141602e-03) (128, -6.16389922797679901123e-02) (129, 3.34523543715476989746e-02) (130, 3.37867215275764465332e-02) (131, 5.32106235623359680176e-02) (132, -8.90642404556274414062e-02) (112, 9.72935333847999572754e-02) (113, 1.23561024665832519531e-02) (114, 6.89179971814155578613e-02) (115, -9.53718796372413635254e-02) (116, 8.47876742482185363770e-02) (117, 2.63298377394676208496e-02) (118, -7.44411647319793701172e-02) (119, 6.72819390892982482910e-02) (120, 7.54375755786895751953e-03) (121, -1.20815336704254150391e-02) (122, -5.43748438358306884766e-02) (123, -7.79796466231346130371e-02) (124, -3.86270880699157714844e-03) (125, 7.94741883873939514160e-02) (126, -7.74255022406578063965e-02) (127, -9.04269367456436157227e-02) (128, -5.56337833404541015625e-03) (129, 9.63449105620384216309e-02) (130, 6.88429102301597595215e-02) (131, 4.28812131285667419434e-02) (132, -9.54185277223587036133e-02) (112, -9.91406142711639404297e-02) (113, -5.62195256352424621582e-02) (114, -8.15388336777687072754e-02) (115, -2.31821686029434204102e-02) (116, -2.27916389703750610352e-02) (117, -5.89800886809825897217e-02) (118, -7.83579647541046142578e-02) (119, 3.76552417874336242676e-02) (120, 7.16466680169105529785e-02) (121, -3.44477295875549316406e-02) (122, 3.69827225804328918457e-02) (123, -3.13351303339004516602e-02) (124, -4.94567230343818664551e-02) (125, -1.91060751676559448242e-02) (126, 8.41686800122261047363e-02) (127, 2.30157971382141113281e-02) (128, 2.65253856778144836426e-02) (129, 1.20375528931617736816e-02) (130, -8.48773866891860961914e-02) (131, 6.57401159405708312988e-02) (132, 9.41862538456916809082e-02) (112, -1.15252211689949035645e-02) (113, 9.55881550908088684082e-02) (114, -4.98523786664009094238e-02) (115, -6.89325481653213500977e-02) (116, 5.06397560238838195801e-02) (117, -9.77304652333259582520e-02) (118, 4.41240593791007995605e-02) (119, -6.91410154104232788086e-03) (120, -5.34926354885101318359e-03) (121, 9.49079319834709167480e-02) (122, -8.24764147400856018066e-02) (123, 1.89054235816001892090e-02) (124, -5.64901493489742279053e-02) (125, -2.99319401383399963379e-02) (126, -6.61377012729644775391e-02) (127, 2.35876664519309997559e-02) (128, 3.78609374165534973145e-02) (129, -7.12472423911094665527e-02) (130, -5.23650757968425750732e-02) (131, -9.98285487294197082520e-02) (132, -1.83511823415756225586e-02) (133, -2.84039378166198730469e-02) (134, 1.50583758950233459473e-02) (135, 8.60838666558265686035e-02) (136, 1.16203427314758300781e-02) (137, -9.68878865242004394531e-02) (138, 5.37417083978652954102e-03) (139, -7.62973502278327941895e-02) (140, 7.04583898186683654785e-02) (141, -5.91611862182617187500e-03) (142, -3.21736335754394531250e-02) (143, 5.77128604054450988770e-02) (144, -2.00713276863098144531e-02) (145, 6.12087324261665344238e-02) (146, -6.49768561124801635742e-02) (147, -6.60344958305358886719e-02) (148, -4.17711548507213592529e-02) (149, -4.78523373603820800781e-02) (150, -5.42727410793304443359e-02) (151, 3.80645170807838439941e-02) (152, -4.96681705117225646973e-02) (153, 