FANN_FLO_2.1
num_layers=3
learning_rate=0.700000
connection_rate=1.000000
network_type=0
learning_momentum=0.000000
training_algorithm=0
train_error_function=1
train_stop_function=0
cascade_output_change_fraction=0.010000
quickprop_decay=-0.000100
quickprop_mu=1.750000
rprop_increase_factor=1.200000
rprop_decrease_factor=0.500000
rprop_delta_min=0.000000
rprop_delta_max=50.000000
rprop_delta_zero=0.100000
cascade_output_stagnation_epochs=12
cascade_candidate_change_fraction=0.010000
cascade_candidate_stagnation_epochs=12
cascade_max_out_epochs=150
cascade_min_out_epochs=50
cascade_max_cand_epochs=150
cascade_min_cand_epochs=50
cascade_num_candidate_groups=2
bit_fail_limit=3.49999999999999977796e-01
cascade_candidate_limit=1.00000000000000000000e+03
cascade_weight_multiplier=4.00000000000000022204e-01
cascade_activation_functions_count=10
cascade_activation_functions=3 5 7 8 10 11 14 15 16 17 
cascade_activation_steepnesses_count=4
cascade_activation_steepnesses=2.50000000000000000000e-01 5.00000000000000000000e-01 7.50000000000000000000e-01 1.00000000000000000000e+00 
layer_sizes=26 33 11 
scale_included=0
neurons (num_inputs, activation_function, activation_steepness)=(0, 0, 0.00000000000000000000e+00) (0, 0, 0.00000000000000000000e+00) (0, 0, 0.00000000000000000000e+00) (0, 0, 0.00000000000000000000e+00) (0, 0, 0.00000000000000000000e+00) (0, 0, 0.00000000000000000000e+00) (0, 0, 0.00000000000000000000e+00) (0, 0, 0.00000000000000000000e+00) (0, 0, 0.00000000000000000000e+00) (0, 0, 0.00000000000000000000e+00) (0, 0, 0.00000000000000000000e+00) (0, 0, 0.00000000000000000000e+00) (0, 0, 0.00000000000000000000e+00) (0, 0, 0.00000000000000000000e+00) (0, 0, 0.00000000000000000000e+00) (0, 0, 0.00000000000000000000e+00) (0, 0, 0.00000000000000000000e+00) (0, 0, 0.00000000000000000000e+00) (0, 0, 0.00000000000000000000e+00) (0, 0, 0.00000000000000000000e+00) (0, 0, 0.00000000000000000000e+00) (0, 0, 0.00000000000000000000e+00) (0, 0, 0.00000000000000000000e+00) (0, 0, 0.00000000000000000000e+00) (0, 0, 0.00000000000000000000e+00) (0, 0, 0.00000000000000000000e+00) (26, 6, 5.00000000000000000000e-01) (26, 6, 5.00000000000000000000e-01) (26, 6, 5.00000000000000000000e-01) (26, 6, 5.00000000000000000000e-01) (26, 6, 5.00000000000000000000e-01) (26, 6, 5.00000000000000000000e-01) (26, 6, 5.00000000000000000000e-01) (26, 6, 5.00000000000000000000e-01) (26, 6, 5.00000000000000000000e-01) (26, 6, 5.00000000000000000000e-01) (26, 6, 5.00000000000000000000e-01) (26, 6, 5.00000000000000000000e-01) (26, 6, 5.00000000000000000000e-01) (26, 6, 5.00000000000000000000e-01) (26, 6, 5.00000000000000000000e-01) (26, 6, 5.00000000000000000000e-01) (26, 6, 5.00000000000000000000e-01) (26, 6, 5.00000000000000000000e-01) (26, 6, 5.00000000000000000000e-01) (26, 6, 5.00000000000000000000e-01) (26, 6, 5.00000000000000000000e-01) (26, 6, 5.00000000000000000000e-01) (26, 6, 5.00000000000000000000e-01) (26, 6, 5.00000000000000000000e-01) (26, 6, 5.00000000000000000000e-01) (26, 6, 5.00000000000000000000e-01) (26, 6, 5.00000000000000000000e-01) (26, 6, 5.00000000000000000000e-01) (26, 6, 5.00000000000000000000e-01) (26, 6, 5.00000000000000000000e-01) (26, 6, 5.00000000000000000000e-01) (26, 6, 5.00000000000000000000e-01) (0, 6, 0.00000000000000000000e+00) (33, 4, 5.00000000000000000000e-01) (33, 4, 5.00000000000000000000e-01) (33, 4, 5.00000000000000000000e-01) (33, 4, 5.00000000000000000000e-01) (33, 4, 5.00000000000000000000e-01) (33, 4, 5.00000000000000000000e-01) (33, 4, 5.00000000000000000000e-01) (33, 4, 5.00000000000000000000e-01) (33, 4, 5.00000000000000000000e-01) (33, 4, 5.00000000000000000000e-01) (0, 4, 0.00000000000000000000e+00) 
connections (connected_to_neuron, weight)=(0, 4.49419234842222958815e-02) (1, -2.39384974548085299739e-01) (2, -3.30016939417718119243e-02) (3, 2.31437640233506380927e-01) (4, 7.55839712868275448443e-01) (5, -2.13762214620905555140e-01) (6, -1.61651883634283111135e+00) (7, -5.86308978324565299722e-01) (8, 6.79014437271596160706e-02) (9, -5.52526853534587525374e-01) (10, 1.05596593635269209166e+00) (11, -7.76524848153823277208e-01) (12, 1.33246025173176652068e+00) (13, -1.89314449752950664241e+00) (14, 3.49004163852773496846e-01) (15, -1.03733699461927475483e+00) (16, 2.07227091905157445595e+00) (17, 4.39255897964483121854e+00) (18, 2.80644472983705028923e+00) (19, -4.15513308120914415245e-01) (20, -4.72582293991583191062e-01) (21, 2.98095981384460195773e-01) (22, -1.16765668685889822953e+00) (23, -2.46800831604640524830e+00) (24, -3.05383989050721771363e+00) (25, 1.59112262081992555940e-01) (0, -4.35458852078392300022e-01) (1, 3.93883880215749881959e-01) (2, -1.49678016198881724819e+00) (3, 4.70924876066054244605e-03) (4, 7.08250804542745027170e-01) (5, 1.60215267299544189550e-01) (6, 3.27818951565416738525e-01) (7, 6.13103723518796384084e-01) (8, 1.02039619143558035752e+00) (9, 2.17229524407250806917e+00) (10, -8.29395279762856540984e-01) (11, -8.89739861350912347726e-02) (12, -1.14069183278243513335e+00) (13, -3.94401927596763013373e-01) (14, -3.35011517934942826269e-01) (15, 6.04847119534003385688e-01) (16, -7.29990369193116883650e-01) (17, -2.00078618561276222465e+00) (18, -1.16052494927103255762e+00) (19, 7.21489216425902024632e-01) (20, 1.50700907487401414286e+00) (21, 1.07365924579805982475e+00) (22, 6.94395948544097918465e-01) (23, -6.13759676331233072766e-01) (24, 3.73468715492779879117e-01) (25, 1.26975053372506296867e+00) (0, 4.07400098705156255008e-01) (1, -3.49649001923857533081e-02) (2, -3.68880021037656546934e-01) (3, -1.47192678254080822065e+00) (4, -1.07239363981100854772e+00) (5, 3.38295116307664844868e-01) (6, 3.46046412385242074805e+00) (7, 1.19419862583410174572e+00) (8, -1.14221041024978930967e-01) (9, -2.54522444940794956292e-01) (10, -1.47743503791659080981e+00) (11, -8.27388150966426261235e-01) (12, 1.22454510206161215624e-01) (13, 1.12735690001280267070e-01) (14, 1.91218204223252558061e-01) (15, 1.57156900866592352806e+00) (16, 6.61804902965564489925e-01) (17, -1.17980888965019747872e+00) (18, -4.21853656373623486786e-01) (19, -1.59266182791091792659e+00) (20, -6.21060528769912134628e-01) (21, 8.78243602251115307311e-01) (22, 8.56945977928855046057e-02) (23, 3.91186180757847556944e-01) (24, -9.39926300133555936434e-01) (25, -1.89003892374261461828e-01) (0, -1.71586367500837944089e-01) (1, 1.46181490593882879026e+00) (2, -2.36534211372949121355e+00) (3, -4.34466665589447575968e-01) (4, -5.11969251853264362140e-01) (5, 3.33250183689301815448e-01) (6, 1.11215955788510112434e+00) (7, 8.23280969211829583010e-01) (8, 2.07117952213422773511e-01) (9, 2.91385415938582359452e-01) (10, -3.86452121475213627999e-01) (11, -1.81533104238837972311e+00) (12, 9.58851873622784900419e-01) (13, -2.97013458735431967739e+00) (14, -3.78406106122807020520e-02) (15, 7.94331526385338659857e-01) (16, 1.12025090095364321385e+00) (17, 9.02806249694051987653e-01) (18, 1.86815109982802640687e+00) (19, -2.83564978962162483889e-01) (20, 4.25108205315785414591e-01) (21, 1.18608454327433943121e+00) (22, 2.98744176179042753017e-01) (23, -1.83108509094780130821e-01) (24, -1.32258193888154029771e+00) (25, 1.16379545279269946967e+00) (0, -4.16607676388444647664e-01) (1, 9.74829114841675670178e-01) (2, -1.19243195444551017270e-01) (3, -2.71573794658387268619e-01) (4, -5.55117847516169882205e-01) (5, -2.35164610032970095022e-01) (6, -3.77526758597327205536e-01) (7, 1.02136152365798326541e-02) (8, -7.85637990240229178163e-01) (9, -1.15209324744963237386e+00) (10, 1.17937279170503273029e+00) (11, 7.19126161190445367666e-01) (12, 1.15633886663417251306e+00) (13, 3.12260780251469027835e-01) (14, -2.27007303621017092476e-01) (15, -6.34673870808861950721e-01) (16, 1.12900673367974135886e+00) (17, 2.00226274504732870696e+00) (18, 1.01711818254039276788e+00) (19, -1.48214981245645416319e-01) (20, -1.11658123883447069069e+00) (21, 7.43786528280233505406e-01) (22, 7.91648749506858373515e-01) (23, 1.12504924988814369868e-01) (24, -8.30007004586197139062e-01) (25, -2.68755664022635398780e-01) (0, -3.28596325283997847677e-01) (1, 4.02328575605652216662e-01) (2, 1.83780692939228496030e+00) (3, 8.00986035199726331690e-01) (4, -8.57873460145962773993e-01) (5, -8.90642509334320098269e-01) (6, -9.43058941277174156426e-01) (7, -1.99461373737218533586e-01) (8, -1.02283547688484244276e+00) (9, -2.34483555604891202861e+00) (10, 1.60604581620729769398e+00) (11, 1.68675430491530398136e+00) (12, 1.06465598473565981053e+00) (13, 3.56113023067036460478e-01) (14, -8.49712965111777185356e-01) (15, -1.38988476084295231594e+00) (16, 8.17394711155371767042e-01) (17, 2.11391624143173295636e+00) (18, 1.55951443016799129460e+00) (19, 9.44101144729255437049e-01) (20, -1.16947880103378265559e+00) (21, -6.34226541161218682063e-01) (22, -6.53496901908214411492e-01) (23, 4.25343430535022160033e-01) (24, 5.41194909821662184513e-01) (25, -8.49075774781909320410e-01) (0, -1.04540794279353269070e-01) (1, -1.03460665661561290740e+00) (2, 4.85843297936656259850e+00) (3, 1.98569812953449287285e+00) (4, 3.77115867176544161676e-01) (5, 2.75029453558789549472e-01) (6, -1.43055760178099733437e+00) (7, 7.64229269276795880605e-02) (8, -7.28700705637233436818e-01) (9, -4.23647018805572539435e+00) (10, 7.81195800388703870398e-02) (11, 1.40376446604479365732e+00) (12, -1.24594725878883494374e+00) (13, -2.82718361691525599255e+00) (14, -2.00506694505317328847e+00) (15, -4.37638411401156623981e+00) (16, -6.01452150470248247949e-01) (17, 1.70551384460086685735e+00) (18, 2.37753170076603437266e+00) (19, 2.43956931035575630418e+00) (20, -1.03177435411259943443e+00) (21, -3.95968805982338345473e+00) (22, -4.54461717680324817081e+00) (23, -1.17298304329197233820e+00) (24, 2.86383917960931055902e+00) (25, -2.60969840857855593652e-02) (0, 7.19828004138548971369e-01) (1, -2.33484845325802403693e+00) (2, 2.10833224385648909660e+00) (3, 7.50685096910593929742e-01) (4, 1.20278499252529580410e+00) (5, -4.40398757217333389202e-02) (6, -7.71005949611963004031e-01) (7, -7.38043164206968693719e-01) (8, 2.73691924734382821538e-02) (9, 9.56178335271633539350e-01) (10, -5.25470156504022511967e-01) (11, 1.31108056562129626776e+00) (12, -1.70834280790264747552e+00) (13, 2.83245318190426287330e+00) (14, -2.26173955016725991563e-01) (15, -9.12502249171459473009e-02) (16, -2.10240157837946028963e+00) (17, -3.20876335646250510081e+00) (18, -3.20705004704651619463e+00) (19, 3.17015075705993798483e-01) (20, 5.46749112703468598262e-01) (21, -1.11050854996843306743e+00) (22, -4.26675115536858773346e-01) (23, 3.34156927940397918686e-01) (24, 1.69644994178271169005e+00) (25, -1.16103143397083607979e+00) (0, -5.78599740091080474297e-03) (1, -1.96688321768197260653e+00) (2, 3.31830855305779248710e+00) (3, 1.84663222514769342908e+00) (4, 4.89549987889628668292e-01) (5, -5.24496660336901121546e-01) (6, -1.82189644191666322293e+00) (7, -1.39205590697552250568e+00) (8, 2.44550823413153595176e-01) (9, 2.29691735296513682707e-01) (10, -2.23673215276593950751e-01) (11, 2.01803810179391440727e+00) (12, -1.40688255607758705423e+00) (13, 4.50718092340412912478e+00) (14, 2.45014167849107511454e-01) (15, -3.86294418751274293289e-01) (16, -2.63495469050840913638e+00) (17, -4.23562515959620888850e+00) (18, -4.67460889627157971660e+00) (19, 8.32452611902649713960e-02) (20, -1.32623913287848102516e-02) (21, -2.04415964526269933188e+00) (22, 6.32719625889958947607e-02) (23, 1.73712840987065209042e+00) (24, 3.34401537975843510253e+00) (25, -1.15883557019225391649e+00) (0, -1.65218437741378321171e+00) (1, -2.21889294520922808474e+00) (2, 3.89741836027581944890e+00) (3, 5.16771125225277905280e-01) (4, -2.85151307039430301771e+00) (5, -2.27728157086307048118e+00) (6, 3.86402875035010939797e+00) (7, 1.48074061569044856945e+00) (8, 1.66368963536073111165e+00) (9, 3.77989432892400334385e-01) (10, -1.52187794111688434739e+00) (11, 4.69037667834714078197e+00) (12, 6.71437969754600461059e-01) (13, 6.19143755856169786256e+00) (14, 1.11069890446324071043e+00) (15, 2.31731193973417015641e+00) (16, -2.63931450771477837947e+00) (17, -4.08612996778359516270e+00) (18, -4.05161919625240685150e+00) (19, -9.34939424965312682048e-01) (20, 9.87589573732197467670e-01) (21, 4.78002498699153210993e+00) (22, 5.31280713411115179667e+00) (23, 4.01724376363537949430e+00) (24, 2.96352467319534973456e+00) (25, -4.03240131117110559011e-02) (0, 1.28112922823740027489e+00) (1, -2.20161384760368422642e-01) (2, -5.48572189803728238466e-01) (3, -1.65867309215726255189e+00) (4, -8.82020711936567725076e-01) (5, 7.19259685469610721142e-01) (6, 3.26851255350277813960e+00) (7, 3.64919169414491872949e-01) (8, -7.09826170901445396844e-01) (9, 3.38094581909941849229e-01) (10, -1.86675137124755186058e+00) (11, -2.16602994767472356585e+00) (12, 3.37835762194796218605e-01) (13, -3.26555076021895596128e-01) (14, -4.36222844601099959960e-02) (15, 1.29341932754425736896e+00) (16, 4.62104718133452718742e-01) (17, -1.37146031813467583760e+00) (18, -4.96561742105948444870e-01) (19, -2.17119643377390048045e+00) (20, -6.47499431759063437397e-01) (21, 1.33315832200602224500e-01) (22, 4.05751666049463596830e-02) (23, 6.70191961201491159805e-01) (24, -1.44554495080603873092e+00) (25, -1.07216442586703264439e+00) (0, 1.42105443342284298858e+00) (1, -1.49497701947830274882e+00) (2, -2.28144052103583616642e+00) (3, -2.82905029062571027054e-02) (4, 2.49412223245954411954e-01) (5, 6.26597291263994299326e-02) (6, -4.11712060010078984007e-01) (7, -1.06454819962298730118e+00) (8, 1.27364621329508764802e+00) (9, 2.70349215079540039497e+00) (10, -1.44619189070989317969e+00) (11, -1.51886041817789196884e+00) (12, -3.39504979589967878506e-02) (13, 1.74888786758653314024e+00) (14, 1.90438433626627712236e+00) (15, 2.85524296515328224189e+00) (16, -1.37365495699119222195e+00) (17, -4.14545563008456419141e+00) (18, -4.11724842059730011812e+00) (19, -1.14491672330234406374e+00) (20, 1.15265546184919243089e+00) (21, -2.13259106671638692942e-01) (22, 1.76059922285713388312e+00) (23, 1.88638532648773793454e+00) (24, 1.26408463948481930572e+00) (25, 2.70394705881300878580e-01) (0, 5.92787233543594282992e+00) (1, -2.75005495124592247436e+00) (2, 4.64912615971405518422e+00) (3, 1.06797256086130953889e+00) (4, -4.85117537416886168700e+00) (5, -6.24639165796184681057e+00) (6, -4.27223314739547221919e-01) (7, -3.93080579833217713670e+00) (8, 3.94526761730720543220e-01) (9, -4.45257441514652699266e-02) (10, -6.32962686692014386836e+00) (11, -9.17741603825522389570e+00) (12, 1.61445372771836614945e+00) (13, -1.67547650628021771446e+00) (14, 3.55739537158147722806e+00) (15, 2.56199484895049955924e+00) (16, -1.76398303908397585671e-01) (17, -2.01719004724048334154e+00) (18, -7.25245827178013779957e-01) (19, -8.53884261863535498627e-01) (20, 4.06007633926504674093e+00) (21, -1.76062644732719791874e-01) (22, -9.30484401000682748162e-01) (23, -4.50784173864416159994e-01) (24, -3.22727910238761284134e+00) (25, 2.96131972266385712356e-01) (0, 7.36107115227109920497e-01) (1, -1.92193566397881127061e-01) (2, -1.20140089860398568966e+00) (3, -6.37402559735487872494e-01) (4, 3.03247266430334672105e-01) (5, 8.83339528676639784699e-01) (6, 9.74117738981453706870e-01) (7, 3.25641588757134115006e-01) (8, 1.17352759043407639528e-01) (9, 8.56039840565180787380e-01) (10, -1.04320047499179691108e+00) (11, -1.57564992258179681350e+00) (12, -1.51500850072680437464e-01) (13, -9.92632995747150137511e-01) (14, -1.92059120625086288126e-01) (15, 3.42053679781066988230e-01) (16, -2.40117804033593312818e-01) (17, -1.28997914658207180061e+00) (18, -3.19579637960092810545e-01) (19, -5.19564479718887306525e-01) (20, 3.12160869498098625385e-01) (21, -2.85479837112188938875e-01) (22, -1.00982402930057946211e-01) (23, 5.98405046499429216222e-02) (24, -6.02830648403053448448e-01) (25, -1.14703784568144465106e-01) (0, 2.87677688040316104079e+00) (1, -3.26751224520218341851e+00) (2, 1.83028592743084450589e+00) (3, -1.26172440312320555122e-01) (4, 1.49284275015408529619e+00) (5, 2.45415926149664986866e+00) (6, 1.42641270769531841589e-01) (7, -1.04828615111182243957e-01) (8, -1.60448763635218893953e+00) (9, -2.98620658775389369310e+00) (10, -1.30639050531795564147e+00) (11, -1.68075536120437463161e+00) (12, -5.45627654042114218491e-01) (13, -2.31448336370773555259e+00) (14, -1.25031689342301688406e+00) (15, -1.94917043692054048343e+00) (16, -3.78664648450122265366e-01) (17, -8.09710254436765808350e-01) (18, 3.26376664339410815785e-01) (19, -1.08487658128027386617e+00) (20, -2.59819036013620419112e+00) (21, -4.70343775239609929173e+00) (22, -4.40871741041270848172e+00) (23, -2.38714661407229800094e-01) (24, 4.64496234804963548104e-01) (25, -1.67007007215827085744e+00) (0, -1.91456068026522463477e+00) (1, 6.40345353097399705433e-01) (2, 1.48619125759690473565e+00) (3, -4.80681664957142221195e-02) (4, -1.52112547565117650628e+00) (5, -2.82388613626917051036e+00) (6, 2.91892624658408983418e-01) (7, -2.68858434031233939354e-01) (8, 1.15281897138015421156e+00) (9, 8.13307892188441683423e-01) (10, 5.08275090251269268116e-01) (11, -4.81516047873673802560e-01) (12, 4.73341819122269469311e-01) (13, 9.18897044320145517382e-01) (14, 2.43235348228841274931e+00) (15, 1.38472581974599351362e+00) (16, 3.14971816716391428415e+00) (17, 5.90466531874392064339e+00) (18, 3.75135217750466853914e+00) (19, -3.19190331896899270880e-01) (20, 8.57511343011805315939e-01) (21, 4.35449258548521189738e+00) (22, 1.71045401759923487717e+00) (23, -2.29877563742931956270e+00) (24, -3.74876957023139922853e+00) (25, 1.51915472051530953124e+00) (0, -2.12249038273534695875e+00) (1, 1.69756458512649710535e+00) (2, 1.58405591240592946711e+00) (3, 1.40595188831168838028e-01) (4, -1.18243841912152980456e-01) (5, -4.33405795407880156667e-01) (6, -3.11234826385380844438e-02) (7, 9.22580729826296130902e-01) (8, -5.09048963499628914775e-01) (9, -2.24394644418075728254e+00) (10, 1.56893887312810131895e+00) (11, 2.28392490536304126891e+00) (12, -1.28747321768106937068e-01) (13, -5.88754446799824249226e-01) (14, -8.92507921517093572028e-01) (15, -1.87887976947886925494e+00) (16, 1.33563649542163664918e+00) (17, 4.22727655828469384147e+00) (18, 3.48212686191182152484e+00) (19, 1.14853391839909346750e+00) (20, -9.36731233969014476237e-01) (21, 1.51468036981754861081e+00) (22, -3.22090959135989673978e-01) (23, -2.05036109565583313241e+00) (24, -1.04548024079600887504e+00) (25, 6.85837921371120540215e-01) (0, 5.25310739456125164182e-01) (1, 1.39278231771206839618e+00) (2, -2.41540407099447662631e+00) (3, -3.00908514621784561882e+00) (4, -2.05776115766694722709e+00) (5, 8.16604154292431050344e-01) (6, 4.67797033814581464384e+00) (7, 2.33982017235794126364e+00) (8, -7.21308854430660173485e-01) (9, -1.55734228844837097050e+00) (10, -9.01706195696645673721e-01) (11, -7.20767004567118146907e-04) (12, 7.83765791053166682723e-01) (13, -3.44804179051352299723e-01) (14, -6.23357895214133317374e-01) (15, 1.78324418456600120031e+00) (16, 1.20565112358264348025e+00) (17, -1.33836398169923009860e+00) (18, 4.12476067079184494091e-01) (19, -9.46835533503009973977e-01) (20, -1.47706399608655125633e+00) (21, 9.78791410670004413674e-01) (22, 3.09922356310154689663e-01) (23, 9.02083973033613095716e-01) (24, -3.02276261048982142210e-01) (25, 6.35225562920551545254e-01) (0, 8.33273009665926167600e+00) (1, 3.70928588954443405612e+00) (2, -3.72483521431457775819e+00) (3, -4.39871051195254292310e+00) (4, -6.45388120717447488772e+00) (5, -3.35809165105736928680e+00) (6, 6.10416010427997246524e+00) (7, 3.32344788620741926621e+00) (8, -7.16468052830137036580e+00) (9, 3.49006565079576003274e-01) (10, -5.22201409109157399513e+00) (11, -8.10887111660440673688e+00) (12, 5.28349614278680768109e-01) (13, -1.11808450648140720318e+01) (14, -5.80224375309159690062e+00) (15, -3.61459615977352699545e+00) (16, -4.24960299290655019178e+00) (17, -2.43706187914705063591e+00) (18, 6.01416472519220857151e+00) (19, 7.22611329590661655153e-01) (20, 2.73439534125904548656e-01) (21, -2.87795138778105519251e+00) (22, -1.56751491989002378347e+00) (23, 4.00622412326830890095e+00) (24, 2.66097660885521092311e+00) (25, -3.14749157849823468780e+00) (0, 1.42084459323281464549e+00) (1, -2.84748181325807647735e-01) (2, 6.08806023958326947287e-01) (3, -1.84389188624720157250e+00) (4, -2.37184237545776355205e+00) (5, -3.98917983030744882633e-02) (6, 4.05685286864654859329e+00) (7, 1.32051894654236079418e+00) (8, -2.12651036932689585512e+00) (9, -2.76458139176763406653e+00) (10, -1.94129310289938450396e+00) (11, -2.05355991445601467060e-02) (12, 1.73606446206584774661e-01) (13, 1.42903747815602022442e+00) (14, -9.33054158808191425045e-01) (15, 1.90470956188066931070e+00) (16, 3.67079677145512428549e-01) (17, -2.38295046109593400274e+00) (18, -8.57157859400009991546e-01) (19, -7.31344937213358470274e-01) (20, -2.63608328145046089119e+00) (21, -9.41546553549772680114e-01) (22, -6.06913543110067399411e-01) (23, 2.44370895065374194033e+00) (24, 1.39528063656055212327e+00) (25, -1.85927163070045842197e+00) (0, -1.17566489659486683728e+00) (1, -2.12805422542875355418e+00) (2, 1.37000614210060356335e+00) (3, 1.71060207187961421660e+00) (4, 1.69702944817124179444e+00) (5, -1.95742257729110624709e+00) (6, -2.47676228141224452628e+00) (7, -1.02250581687785890850e+00) (8, 4.05598350606677993113e+00) (9, 5.26963237706455700504e+00) (10, 1.09616250147972893458e+00) (11, 2.85161760561231947264e+00) (12, -7.49364989749734200508e-01) (13, 4.97560837792433741100e+00) (14, 1.90335186103772247002e+00) (15, 9.84911039618248662642e-01) (16, -1.27910660189599867387e+00) (17, -1.07745872983702906112e+00) (18, -2.99055357319860126708e+00) (19, 8.80959305207432596951e-01) (20, 4.04538899351145619931e+00) (21, 3.73045575894528846916e+00) (22, 3.80095400553855133907e+00) (23, -1.79937098245860616075e+00) (24, -3.53314479469379327803e-01) (25, 1.30209437159268315298e+00) (0, 3.19225178873449966233e+00) (1, -1.95621032862995064550e-01) (2, -3.77431406322511353579e+00) (3, -3.22308826890725441672e+00) (4, 1.64082373813599935453e+00) (5, 1.38206157948708141525e+00) (6, -3.89167242358592035956e+00) (7, -7.80239368422442791662e-01) (8, -1.93200684324654159418e+00) (9, -1.71971582631957131682e+00) (10, 2.45957334608172084600e+00) (11, -1.00115508428580834988e+00) (12, 1.45282626646748513899e-01) (13, -2.19319042609353065387e+00) (14, -5.22685844271598809563e-01) (15, -2.12642874470779119633e+00) (16, 1.22325325194385814420e+00) (17, 1.92590770125789378930e+00) (18, 1.13122716952869928342e+00) (19, -3.12160677479630388476e-01) (20, -3.09681696230123737479e+00) (21, -2.96044523391318747940e+00) (22, -3.78466090229191021166e+00) (23, -3.68100398912198301105e+00) (24, -2.79965638296861385470e+00) (25, 1.46275108435063816437e+00) (0, -1.10232600465731533923e+00) (1, 2.01893642298930275913e+00) (2, -2.47863295031276642533e+00) (3, -2.41990665435809448880e+00) (4, -2.18846069096504036722e+00) (5, 4.15560766478320686712e-01) (6, 6.55772550716136581883e+00) (7, 3.96911693078029736981e+00) (8, 1.82902379992979868817e-01) (9, -7.81660249011765784211e-01) (10, -1.25420884696585743789e+00) (11, 6.05918977475622289042e-01) (12, 9.48273220344735823240e-01) (13, -8.58668431191938363867e-01) (14, -6.04633884179362035560e-01) (15, 2.56258114023426264438e+00) (16, 2.10621208044780772184e+00) (17, 5.22954933434525842673e-02) (18, 2.23792858093806135145e+00) (19, -3.65391455320205893464e-01) (20, -5.46446662574471719864e-01) (21, 3.02971939434182901962e+00) (22, 6.81439109199082126977e-01) (23, 7.96904341831098372850e-01) (24, -1.10068597043346505515e+00) (25, 5.70496882561664864220e-01) (0, -2.04751101778403832299e+00) (1, 2.75430004234232028715e-01) (2, 4.85892489557342521778e+00) (3, -5.07991429411210337896e-01) (4, -1.81024525143242787095e+00) (5, 1.03966498555900610512e+00) (6, 8.57742640469691153271e+00) (7, 3.88532960566175944450e+00) (8, -1.42018983319784952712e+00) (9, -2.59239514649573532523e+00) (10, -1.88529002192833039508e+00) (11, 2.77305838398657655830e+00) (12, -1.53676011366556064530e-01) (13, 1.36252203566277518831e+00) (14, -2.73872248726727551826e+00) (15, -1.01344700028680367865e+00) (16, 8.70616079062195291627e-02) (17, -8.08422190331881118652e-01) (18, 1.41484803460466657121e+00) (19, -2.00745362852683267851e-01) (20, -2.12303851968045975696e+00) (21, 4.78207409927709381492e-01) (22, -4.37164936510372470480e-01) (23, 1.93647954152639467651e+00) (24, 9.60204634968917170035e-01) (25, -2.93895513856876355874e+00) (0, 1.24763143382739571940e+00) (1, -1.20896416157210362385e+00) (2, 1.27729349595659269490e+00) (3, -5.70412171807323176154e-01) (4, 9.73133718946776360426e-01) (5, 4.30868069153746036104e-01) (6, -1.46281392815753874537e+00) (7, -2.69465438318143790664e-01) (8, -9.09771017760106825989e-01) (9, -2.60462702206423912799e+00) (10, 9.72208076616732808084e-01) (11, -3.73555737449553504348e-01) (12, 9.18118006571815192807e-01) (13, -1.79662658975148281648e+00) (14, -8.67730547518744232960e-01) (15, -2.79507473684846363682e+00) (16, 1.26566767196321317002e+00) (17, 3.01280950009597559003e+00) (18, 2.90945528837854272552e+00) (19, 3.21180372618605547430e-01) (20, -1.73091616139393367213e+00) (21, -1.78902673133380618609e+00) (22, -3.18519149191493688988e+00) (23, -2.86483607516794158698e+00) (24, -2.68032498191839918533e+00) (25, -5.47383017894382484236e-01) (0, -4.53816907926096135828e-01) (1, -9.42466344381183929180e-01) (2, 2.68473844312543707957e+00) (3, 7.25233109682161924958e-01) (4, -1.02304804318892217374e-01) (5, -1.05045256103886641696e+00) (6, -1.59863896513950498601e+00) (7, -9.57161437078266397194e-01) (8, 1.17085307970824989421e-01) (9, -1.09429964176890059946e+00) (10, 1.20217018347414383861e+00) (11, 1.66011395528583194370e+00) (12, 5.85173818599338479984e-01) (13, 2.00823408284066928786e+00) (14, 1.05874413096849839810e+00) (15, -6.26244648471763087905e-01) (16, 1.42193613964674975270e-01) (17, 2.38076575209727092641e+00) (18, 2.15095459186119192241e-01) (19, -5.49411983318511820684e-01) (20, -9.91736700661698278303e-01) (21, -7.87873872844505745983e-02) (22, -7.57502545914104791214e-02) (23, -5.62530799710434625815e-01) (24, -4.70479044760048703555e-01) (25, -5.34784866783877377294e-01) (0, 1.09956003328072271508e+00) (1, 1.20825324478141049589e+00) (2, -2.80990463669506995714e+00) (3, -2.26481200209730726414e+00) (4, -1.47655188870392084510e+00) (5, 1.51794053965576791754e+00) (6, 2.14226037189863260934e+00) (7, 1.42869725907109379470e+00) (8, -1.32940656975765092440e+00) (9, -2.09615672373828321184e+00) (10, -1.02942654835761260301e-01) (11, -1.89902714206883138637e+00) (12, 1.98346783116242053602e+00) (13, -2.92084834069184751115e+00) (14, -4.46858102968531012422e-01) (15, -2.34033588471410716747e-02) (16, 2.49347248368137996977e+00) (17, 1.63201119408639239161e+00) (18, 2.91995963935073099549e+00) (19, -2.01353604745760778050e-01) (20, -1.41756869925159234569e+00) (21, -5.74876891298836012467e-01) (22, -8.42362422578437297638e-01) (23, 8.06386738005301362264e-01) (24, -9.50650183373182744440e-01) (25, -1.70924832761751965826e-01) (0, -2.27121901998708475290e+00) (1, 2.35445051373078406698e+00) (2, 1.72430603068327559235e+00) (3, -2.89583129837044872534e-01) (4, -4.03337376205856568134e+00) (5, -4.11927490404684526482e+00) (6, 1.25630896905151856480e+00) (7, 1.38629571456798578177e-01) (8, 8.15338180205023244085e-01) (9, -3.31883108367235835079e-01) (10, -3.13008173104095843708e-01) (11, -3.43749779737853644601e-01) (12, 6.32622631407717572749e-01) (13, 1.59912607540777074178e+00) (14, 2.79599186362468321576e+00) (15, 3.26193374848853867576e+00) (16, 3.51387286093949935406e+00) (17, 5.40775441161173908711e+00) (18, 3.86953556063300041501e+00) (19, 1.09042020574581954850e-01) (20, 1.11607486265628796929e+00) (21, 6.00822788162477294804e+00) (22, 3.05722135277811002396e+00) (23, -3.16069534722099032553e-01) (24, -2.78204283333721225091e+00) (25, 1.57450638152613731080e+00) (0, 1.38412225299490043717e+00) (1, -9.93824420510260653217e-01) (2, -6.26895580602148005944e-01) (3, -5.42736321128155840832e-01) (4, 4.79417697987853608232e-01) (5, 1.91502304086652119786e+00) (6, 8.14215855153296863556e-01) (7, -2.57211711555950406360e-01) (8, -4.59134926834794176997e-01) (9, -9.12034229175689103997e-01) (10, -9.75614419423157630540e-01) (11, -2.27144307036826287316e+00) (12, 6.37534788685675035680e-01) (13, -1.89071741577186425154e+00) (14, 2.09359577808395980192e-01) (15, -3.72502724273557295209e-01) (16, 2.32745086462438716124e-01) (17, -3.50115857650546979940e-01) (18, 3.67156494965479529569e-01) (19, -1.00131153539912864936e+00) (20, -7.95459003999807623408e-01) (21, -2.32123660805672349383e+00) (22, -1.63271686564575002620e+00) (23, 2.96005508830472163773e-01) (24, -4.07964041530497978361e-01) (25, -4.89506300088061119258e-01) (0, -2.55324485366101772144e+00) (1, 3.66905295167435907544e+00) (2, 1.13061654811689962785e-01) (3, -5.73534267475181103180e-01) (4, -6.04618706774223801936e-01) (5, -1.03496879726167856361e+00) (6, 5.06493889783508621782e-01) (7, 1.87010626813444513772e+00) (8, 4.35939840944742584838e-01) (9, -5.02407517636938139027e-01) (10, 5.48563039693665599472e-01) (11, -2.83008253852745396417e-02) (12, -3.95013029263290293969e-02) (13, -2.67492879207099409911e+00) (14, -8.92702811078456837102e-01) (15, -4.84584170008342030034e-01) (16, 2.06751973205960881685e+00) (17, 5.04678332247097127805e+00) (18, 4.52634526837110140463e+00) (19, 9.34225993765293805104e-01) (20, 1.35644560389820506563e-01) (21, 3.19853168187007375067e+00) (22, 1.88256233991771548819e-01) (23, -2.76663415848825833265e+00) (24, -2.58871468821551609096e+00) (25, 8.99878719047155106736e-01) (0, 6.56120194598331374358e-01) (1, -2.83076976128899415741e+00) (2, 2.94189837164614276244e-01) (3, 1.51824947412850574935e+00) (4, 3.98401545324899730716e+00) (5, 9.16825384090502848444e-01) (6, -7.85014788161992438376e+00) (7, -4.89432572915304930916e+00) (8, 1.52624357167858049067e+00) (9, 1.49851520682724514977e+00) (10, 1.20572896306969057356e+00) (11, -2.86400770693618511586e+00) (12, -1.33273851232063100802e+00) (13, -2.77400729698035908299e+00) (14, 3.63680227963956470560e+00) (15, -1.99961804940046761203e+00) (16, 1.08664015231264253492e-02) (17, 3.48392280940609611051e+00) (18, 1.38540416522439979730e-01) (19, -1.15155531959652512874e+00) (20, 2.32646038084016471004e+00) (21, -1.26693935981286598391e+00) (22, -1.34388873569652411710e+00) (23, -4.58624687856419477328e+00) (24, -2.56965269528656570230e+00) (25, 2.59582809293259586525e+00) (0, 3.88306063654127786577e-01) (1, -2.55749737104847663094e-01) (2, -9.04721143755219969762e+00) (3, -2.09552123434451198492e+00) (4, 3.43172994750769877470e+00) (5, -1.23459785495133034239e+00) (6, -6.18155311193913181711e+00) (7, -2.77726109871701931642e-01) (8, 3.50621697598162862519e+00) (9, 3.80058041979704874791e+00) (10, 8.59914580267449935036e+00) (11, 5.91930371904042029740e+00) (12, 2.63711417044718521296e+00) (13, 2.44481980991442426898e+00) (14, 2.78676944197470932707e+00) (15, 8.87030580427043968683e-01) (16, -1.01524473224357270063e+00) (17, 1.12705722989945034129e+00) (18, -1.85206061626681028898e+00) (19, 9.59201886016258498113e-02) (20, -1.85299669735166405715e+00) (21, -1.76100127784946502985e+00) (22, -1.79706173455901424552e-01) (23, -3.43565050226926071986e+00) (24, -8.43909499470500756857e-01) (25, 4.59739677648610101102e+00) (26, -2.34290796883834057107e-01) (27, 9.39710210848204163803e-02) (28, 6.46118224281213848759e-02) (29, -1.01268416436818955995e-01) (30, 3.02989128942782182108e-03) (31, -6.57530525904809898252e-02) (32, -8.04773243424207418428e-01) (33, 1.42379687682529509907e-01) (34, 2.50730395578766140918e-01) (35, 1.55736342721989107218e+00) (36, 2.11758161967911695545e-01) (37, 4.26643232632224089773e-01) (38, 1.37918371145737772565e+00) (39, 8.96256763026678782147e-03) (40, -5.87830087225655217864e-01) (41, 1.85566501250694404490e-01) (42, -3.55141152334906506916e-01) (43, 3.30333676431853878741e-02) (44, -6.18924387470905390529e-01) (45, 1.51682760791267495781e-01) (46, 9.41880182141712096744e-01) (47, -6.17331195326283888036e-01) (48, 1.94278596802770035790e-02) (49, -2.35353261102974886665e-02) (50, -5.21596368852409675299e-01) (51, -8.27852831319804416399e-02) (52, -6.70434900606081130015e-02) (53, 7.75965124349182300278e-01) (54, -2.63762114595620933422e-01) (55, -3.12070925957455447275e-01) (56, -1.21340849668979311460e+00) (57, -1.58638123369227140858e-01) (58, -6.72776856281657043013e+00) (26, -5.59971487756758673493e-02) (27, 5.52769395223684303908e-02) (28, -3.26595088526082821812e-01) (29, -1.10158921341912768854e-01) (30, -6.57968836384277278029e-02) (31, 2.14182258567522071369e-01) (32, 5.12208660784985947423e-01) (33, 3.93610544374867754591e-02) (34, 3.41029404782195177948e-01) (35, 5.50473373175034641491e-01) (36, -3.01776324415271912649e-01) (37, 1.69187140462911556060e-01) (38, -5.62697970182549078721e-01) (39, -1.92142990378923350647e-01) (40, -1.94827194828179811603e-01) (41, 1.19616678370895762606e-01) (42, -9.83806079554312151725e-02) (43, -5.33759903474330887896e-01) (44, 2.75261706944230288840e+00) (45, -2.14292305943138527979e-01) (46, -4.13051013477552964037e-01) (47, -6.40862383765311460770e-01) (48, -6.13197366560388701373e-01) (49, -4.40908473863595662401e-01) (50, -3.04035925788697702910e-01) (51, 1.91447783506538876663e-01) (52, -3.80851419605285124170e-01) (53, 4.77416160055751659375e-01) (54, -2.66777206457868565348e-01) (55, -1.83695296186263512528e-01) (56, -3.14547136330323995335e-01) (57, -2.68565426337658896827e-01) (58, -4.83110719827678014582e+00) (26, 4.90840500333938722921e-01) (27, 2.78686854586308763171e-01) (28, -2.56504070455642496640e-01) (29, 1.77694212538788504085e-01) (30, -8.83323526201613973274e-02) (31, -3.10374333327272711180e-01) (32, -2.54010391245568012408e-01) (33, -1.45330946852371745148e-01) (34, -9.62338547080713646587e-01) (35, -1.83199922063889397705e+00) (36, -1.16556655242377710247e-01) (37, -5.12209395451247370690e-02) (38, -1.87371113478952966425e-02) (39, 1.36067722102492322245e-01) (40, -1.52282069865319308333e-01) (41, 6.82656672403579301012e-01) (42, -5.46219042435255458523e-02) (43, -3.96580572228131811308e-01) (44, 3.72845469573084231651e-01) (45, -8.20773020705688693965e-01) (46, 9.68911578258898842364e-01) (47, 6.02941628734901202691e-01) (48, -4.92379236382189167109e-01) (49, -1.22956974061108725849e+00) (50, 1.43534213094360846297e-01) (51, -2.35750462807275795729e-01) (52, -7.33841230149762796531e-02) (53, 8.58790404324388245705e-01) (54, -1.62213293895739796291e-01) (55, 5.46381411011815587564e-01) (56, 1.06686405547675033922e+00) (57, -6.90573323965916308076e-01) (58, -6.16702522876698733256e+00) (26, -2.98954159484284331949e-01) (27, 2.58312291261019344457e-01) (28, 1.97886587386013786116e-02) (29, 2.64886714462205553888e-02) (30, -6.95022366293843313345e-02) (31, -3.15094142180780578677e-01) (32, -7.53276086774352759967e-01) (33, 4.49634036394936029146e-02) (34, 1.29322837125844192219e-01) (35, 5.19523057677098276663e-01) (36, -1.41651800110420573314e-02) (37, 8.10501469691564224718e-01) (38, 1.74624264139587120903e-01) (39, 6.38471117430418899641e-02) (40, -5.53151753733839068872e-01) (41, -2.43406285297775304421e-01) (42, -5.04687911557328838796e-01) (43, 8.05483345288897228942e-02) (44, -3.76870553146693709756e-01) (45, -1.03871188303927428076e-01) (46, 8.16161881187568494234e-01) (47, 2.91784377710334663636e-01) (48, -2.02462731485887892369e-01) (49, -1.11182397478612271513e+00) (50, -6.12381685933356068041e-01) (51, -1.60003288298424223290e-01) (52, -1.20438207244581513278e-01) (53, -1.78468255692399740964e-01) (54, -1.07275571168112496268e-01) (55, -4.54886014905782343209e-01) (56, 3.71353589057660860018e-01) (57, 1.77071875417517099471e+00) (58, -3.43491721285759199489e+00) (26, -2.76607432999022961884e-01) (27, 2.27612016745596668077e-01) (28, 3.78372530168347362411e-02) (29, 2.60384082207248644669e-02) (30, -2.14808195610478674942e-01) (31, -2.14673934942808564141e-01) (32, 3.41056320193562967358e-01) (33, 2.54249846368367338201e-01) (34, 1.64194694053964002078e-01) (35, -6.07457544256306825048e-01) (36, 2.53810410059399083060e-01) (37, -3.87372824461454379197e-03) (38, -2.39790398915129721047e+00) (39, 2.73782240021199385627e-01) (40, 1.23262469553080045159e+00) (41, -1.15929987400885292637e+00) (42, -2.95111091117709278819e-01) (43, 1.09370527545336243547e-01) (44, 3.34324041412436434584e+00) (45, 2.85155737110116325184e-01) (46, -7.03227297215248126072e-01) (47, 1.66334372568160804295e-01) (48, -1.98017554633199532876e-01) (49, 2.69648720545273057336e-01) (50, 7.42103886644733118372e-02) (51, -5.50099064984953867175e-01) (52, 5.29514262271260430226e-02) (53, -1.58940763565846054917e+00) (54, 3.39133999483676396025e-01) (55, -3.73270924435174455969e-01) (56, -4.22893273652870604895e-01) (57, -7.57544191896840191092e-01) (58, -5.71685541059355095683e+00) (26, 1.35287636154625634521e-01) (27, 3.18609204709213666984e-01) (28, 1.26606286420767627510e-01) (29, 5.49065866745974240359e-01) (30, 8.93614390986722656463e-02) (31, -9.66419495674243345107e-02) (32, -5.89071596731936208968e-01) (33, -6.79368725184530730665e-01) (34, -9.68606315127324535297e-01) (35, 1.95396414739404750138e-01) (36, 2.64062767441682499925e-01) (37, -7.14602539192910196642e-02) (38, 1.23816746393758370104e+00) (39, 7.98522503985660686565e-02) (40, -9.71953550335595162224e-01) (41, 1.25631785682800556359e+00) (42, 1.24063661583560372326e-01) (43, 3.83003802898672696120e-01) (44, 1.90834909427672516635e+00) (45, -3.04815047048192622192e-01) (46, 8.35791954774980028198e-01) (47, -7.81408225795048205775e-01) (48, 8.15873281547626505450e-01) (49, 3.63914347852511255166e-01) (50, -4.31996236481853590483e-01) (51, -4.21862480478163826003e-01) (52, 4.52702329513909706993e-01) (53, 1.52936170437522456211e+00) (54, -2.49693043101614803314e-01) (55, 6.82188577822357866687e-01) (56, -1.10209444749754359449e+00) (57, -6.18506349936933791378e-02) (58, -7.30293085089869808968e+00) (26, -3.86224878469509314005e-01) (27, 4.14498159362281737295e-01) (28, -9.57215998588373251366e-02) (29, -9.78919107297626656106e-02) (30, -1.52060743972672773872e-01) (31, -6.48140505792157706200e-02) (32, -1.35342842024930770650e-01) (33, 3.17943182658103007387e-01) (34, 1.62408949785643352826e-01) (35, 1.11816383409620034861e+00) (36, -3.70424160274315628083e-01) (37, -8.29716785165637710220e-02) (38, -1.40530695039616082553e+00) (39, -1.62424310165186658317e-01) (40, -5.60079441697025837144e-01) (41, 2.49021134736639934704e-02) (42, 3.34045636699788150992e-01) (43, 3.28165575247909152568e-02) (44, -1.57839782780224480163e+00) (45, -2.53934377494135277153e-01) (46, 1.34106373955425417499e+00) (47, -3.24450855932118115144e-02) (48, 1.25877747641894854880e-01) (49, 3.76488502801760605010e-01) (50, -4.91146273907859032271e-01) (51, -4.96636138312039066012e-02) (52, -3.39599038434674649345e-01) (53, 6.75960740692689854292e-01) (54, -4.70482968012981173089e-01) (55, 5.28922514879599625637e-01) (56, -1.72434861756397173060e+00) (57, 2.12500431430712133363e+00) (58, -5.87531708268885566326e+00) (26, 7.82668453782734641067e-01) (27, -4.90211432045162820437e-01) (28, -3.01306422422274788886e-01) (29, -2.75389692639314787037e-01) (30, 4.83024751391981588267e-01) (31, 5.50539372827715811631e-01) (32, 2.54536789708910519969e-02) (33, -1.22338238766155474324e-01) (34, 5.28381874247987395887e-02) (35, -9.66076606577675578436e-01) (36, -1.71433621318680229351e-01) (37, -7.09029611635844880801e-01) (38, -7.47294160733559587051e-01) (39, -2.38577939866165933402e-01) (40, 3.85131661191421392765e-01) (41, 2.02210396455264174165e-01) (42, 6.55606536594997013623e-01) (43, -9.68205203518469198487e-02) (44, -3.96173892360051405070e-01) (45, -2.99061170234118656186e-01) (46, -8.65810012935370326703e-02) (47, 9.91823166963522018236e-01) (48, -4.48461508479947701389e-01) (49, -2.19238230021360391842e-01) (50, 1.14080182910607419444e+00) (51, 5.45141707252690621566e-01) (52, 1.75557206576548524568e-01) (53, -1.07046033790770545036e-01) (54, 1.21738102340621406894e-01) (55, 1.24589548992911844372e-01) (56, 5.65178790278004106185e-01) (57, 1.80201044342065297421e+00) (58, -6.26327820649813293841e+00) (26, 2.90300753506477882127e-01) (27, -4.35912064051673486809e-01) (28, 2.25614629518392950658e-01) (29, 3.08033323078135246043e-01) (30, 3.03372199294891453647e-01) (31, 3.11485811700830117488e-01) (32, 2.25150813163455754129e-01) (33, -5.86330586851803725601e-01) (34, -4.22100310620708740750e-01) (35, -5.25569520100861331535e-01) (36, 4.35589866959219029763e-01) (37, -1.98312037276670211083e-01) (38, 2.21609685870904904448e+00) (39, -8.00941885618539767266e-03) (40, 8.68335795295706480701e-01) (41, -6.43472270719730454758e-02) (42, 5.14856979886334359398e-02) (43, 4.55639313843842097551e-01) (44, 1.42058056941506616333e+00) (45, 6.02949162089511991880e-01) (46, -1.62808014925663147032e+00) (47, 3.61683382374746842380e-01) (48, 2.80138927005985860497e-01) (49, 3.73486730070466954601e-02) (50, 3.99275004860670246210e-01) (51, -1.09013292825372032357e-01) (52, 9.12176405398171685768e-01) (53, 2.26524134176480318459e-01) (54, 3.91090965831389469898e-01) (55, -7.18968053046298016806e-02) (56, -2.56480994953684982018e-01) (57, -1.18266334046099630406e+00) (58, -7.36574790812877022717e+00) (26, 2.00661385869333672161e-02) (27, 3.37333470549117664383e-02) (28, 8.77941980922465337045e-02) (29, 2.00360774274149416874e-01) (30, -3.78382874556810258615e-02) (31, -1.67662800415705554036e-01) (32, -2.44916303692868861375e-02) (33, 1.02101507410161940204e-01) (34, -7.03716156761503841555e-02) (35, -1.29194945822656603873e+00) (36, -1.10130528442675575118e-02) (37, 1.88901745431164003186e-01) (38, -1.94542343149496088639e-01) (39, -7.97370663358974579582e-02) (40, -1.73803464280974373501e-01) (41, -9.77968683617312095624e-02) (42, 6.07349237398465829907e-02) (43, 3.49111957170541387097e-01) (44, -4.36223730008120924584e-01) (45, 2.02786341277716331000e-01) (46, -8.47911098878690594471e-02) (47, -1.54641136088776581792e-01) (48, -1.89337857425736333372e-01) (49, 1.14996574406343084890e-02) (50, -2.13003847487572145480e-01) (51, -7.25008405443039877225e-02) (52, -1.58137608403664559065e-01) (53, 7.30294536564016633085e-02) (54, -2.72331383761992174009e-01) (55, 3.67623528714141056817e-02) (56, -2.51108489120688727070e-01) (57, 4.25495507107770745692e-02) (58, -5.63077563149642923435e+00) 
