FANN_FLO_2.1
num_layers=3
learning_rate=0.700000
connection_rate=1.000000
network_type=0
learning_momentum=0.000000
training_algorithm=0
train_error_function=1
train_stop_function=0
cascade_output_change_fraction=0.010000
quickprop_decay=-0.000100
quickprop_mu=1.750000
rprop_increase_factor=1.200000
rprop_decrease_factor=0.500000
rprop_delta_min=0.000000
rprop_delta_max=50.000000
rprop_delta_zero=0.100000
cascade_output_stagnation_epochs=12
cascade_candidate_change_fraction=0.010000
cascade_candidate_stagnation_epochs=12
cascade_max_out_epochs=150
cascade_min_out_epochs=50
cascade_max_cand_epochs=150
cascade_min_cand_epochs=50
cascade_num_candidate_groups=2
bit_fail_limit=3.49999999999999977796e-01
cascade_candidate_limit=1.00000000000000000000e+03
cascade_weight_multiplier=4.00000000000000022204e-01
cascade_activation_functions_count=10
cascade_activation_functions=3 5 7 8 10 11 14 15 16 17 
cascade_activation_steepnesses_count=4
cascade_activation_steepnesses=2.50000000000000000000e-01 5.00000000000000000000e-01 7.50000000000000000000e-01 1.00000000000000000000e+00 
layer_sizes=26 33 11 
scale_included=0
neurons (num_inputs, activation_function, activation_steepness)=(0, 0, 0.00000000000000000000e+00) (0, 0, 0.00000000000000000000e+00) (0, 0, 0.00000000000000000000e+00) (0, 0, 0.00000000000000000000e+00) (0, 0, 0.00000000000000000000e+00) (0, 0, 0.00000000000000000000e+00) (0, 0, 0.00000000000000000000e+00) (0, 0, 0.00000000000000000000e+00) (0, 0, 0.00000000000000000000e+00) (0, 0, 0.00000000000000000000e+00) (0, 0, 0.00000000000000000000e+00) (0, 0, 0.00000000000000000000e+00) (0, 0, 0.00000000000000000000e+00) (0, 0, 0.00000000000000000000e+00) (0, 0, 0.00000000000000000000e+00) (0, 0, 0.00000000000000000000e+00) (0, 0, 0.00000000000000000000e+00) (0, 0, 0.00000000000000000000e+00) (0, 0, 0.00000000000000000000e+00) (0, 0, 0.00000000000000000000e+00) (0, 0, 0.00000000000000000000e+00) (0, 0, 0.00000000000000000000e+00) (0, 0, 0.00000000000000000000e+00) (0, 0, 0.00000000000000000000e+00) (0, 0, 0.00000000000000000000e+00) (0, 0, 0.00000000000000000000e+00) (26, 6, 5.00000000000000000000e-01) (26, 6, 5.00000000000000000000e-01) (26, 6, 5.00000000000000000000e-01) (26, 6, 5.00000000000000000000e-01) (26, 6, 5.00000000000000000000e-01) (26, 6, 5.00000000000000000000e-01) (26, 6, 5.00000000000000000000e-01) (26, 6, 5.00000000000000000000e-01) (26, 6, 5.00000000000000000000e-01) (26, 6, 5.00000000000000000000e-01) (26, 6, 5.00000000000000000000e-01) (26, 6, 5.00000000000000000000e-01) (26, 6, 5.00000000000000000000e-01) (26, 6, 5.00000000000000000000e-01) (26, 6, 5.00000000000000000000e-01) (26, 6, 5.00000000000000000000e-01) (26, 6, 5.00000000000000000000e-01) (26, 6, 5.00000000000000000000e-01) (26, 6, 5.00000000000000000000e-01) (26, 6, 5.00000000000000000000e-01) (26, 6, 5.00000000000000000000e-01) (26, 6, 5.00000000000000000000e-01) (26, 6, 5.00000000000000000000e-01) (26, 6, 5.00000000000000000000e-01) (26, 6, 5.00000000000000000000e-01) (26, 6, 5.00000000000000000000e-01) (26, 6, 5.00000000000000000000e-01) (26, 6, 5.00000000000000000000e-01) (26, 6, 5.00000000000000000000e-01) (26, 6, 5.00000000000000000000e-01) (26, 6, 5.00000000000000000000e-01) (26, 6, 5.00000000000000000000e-01) (0, 6, 0.00000000000000000000e+00) (33, 4, 5.00000000000000000000e-01) (33, 4, 5.00000000000000000000e-01) (33, 4, 5.00000000000000000000e-01) (33, 4, 5.00000000000000000000e-01) (33, 4, 5.00000000000000000000e-01) (33, 4, 5.00000000000000000000e-01) (33, 4, 5.00000000000000000000e-01) (33, 4, 5.00000000000000000000e-01) (33, 4, 5.00000000000000000000e-01) (33, 4, 5.00000000000000000000e-01) (0, 4, 0.00000000000000000000e+00) 
connections (connected_to_neuron, weight)=(0, 4.67233079328215117343e-01) (1, 2.08971531134723387257e-01) (2, -2.12236344164689594294e+00) (3, -1.91054185489248862240e+00) (4, 2.23920112708033969273e-01) (5, 1.54110538491823056972e+00) (6, 2.36259247799329497042e+00) (7, -3.85268317394955595034e-01) (8, 3.51768874276555343350e-01) (9, 2.65200422290449866480e+00) (10, -2.06441166183550972590e+00) (11, -2.02707934150386792638e+00) (12, -1.99783912671665342398e-01) (13, 1.17668313963155735102e+00) (14, 6.34528277557485087534e-01) (15, 2.15743626865754611899e+00) (16, 5.22800256488438752633e-01) (17, -2.43988282442219750479e+00) (18, -1.91650700995170031327e+00) (19, -1.63437931751005205427e+00) (20, 4.32277254871661187341e-01) (21, 1.19314925450592768108e+00) (22, 1.96545121853195681183e+00) (23, 1.33452087161110544145e+00) (24, -1.50230763967177893825e+00) (25, 2.10651854437358737257e-03) (0, -1.96413238228679309927e+00) (1, 2.02494407273171628248e+00) (2, -2.38135816588800075522e+00) (3, 1.37644488662757757957e+00) (4, 1.13388983892721700864e-01) (5, -1.23067834727769565006e+00) (6, 2.13919509015359921023e+00) (7, 2.15624067150878762078e+00) (8, 1.01025087936642266051e+00) (9, 3.91258513516980910296e+00) (10, 9.41142147089751968103e-01) (11, 1.42869450211288651076e+00) (12, 6.26904883675635016260e-01) (13, 1.76435263065488512346e+00) (14, -1.60969358882046664760e+00) (15, 1.91325449328653651726e+00) (16, -2.10603003511164077466e+00) (17, -5.19653559369808526469e+00) (18, -2.14626248093833682518e+00) (19, 2.62473436034909424208e+00) (20, 3.19936396373019737993e+00) (21, 2.45137777706976445202e+00) (22, 3.80310601506694245799e+00) (23, 2.67522704100862362964e+00) (24, 2.87188124755503437768e+00) (25, -1.01641365356857171776e+00) (0, 4.57259859311601779552e+00) (1, 1.74785104875440211458e+00) (2, -3.94862268333203747517e+00) (3, -2.68058589147659009910e+00) (4, -3.22669359779884690198e+00) (5, 1.02365818380684148181e+00) (6, 5.39093021396032234804e+00) (7, 3.00029801223902881091e+00) (8, -4.55033739358929434360e+00) (9, 3.91304029600963776403e-01) (10, -4.05950857303542100851e+00) (11, -7.64893589901342707549e+00) (12, -8.54816907508053058784e-01) (13, -7.42667950964064260688e+00) (14, -4.33953809647903998581e+00) (15, -1.58759416569659239649e+00) (16, 6.79829738503644587233e-01) (17, -8.57598010254020048926e-01) (18, 5.79952064791983978864e+00) (19, 7.62374581477750612457e-01) (20, -6.24419762229404762266e-01) (21, -3.44550867656204440337e+00) (22, -4.63518686261625045830e+00) (23, -5.88751018753226884606e-01) (24, -1.42595198784387933166e+00) (25, -2.28187912914215829119e+00) (0, 6.06629854847986482724e-01) (1, -3.73932533720314541625e+00) (2, 1.38433624592690618371e+00) (3, -1.12768591583897861974e-01) (4, 2.69691545583946545861e+00) (5, 2.55952973900405567065e+00) (6, 2.28266202074742663441e+00) (7, 2.65714602227106522214e-01) (8, 6.81818388694248489479e-01) (9, 2.12964792846647377189e+00) (10, -2.27815101803990754936e-01) (11, 1.91889537378540131485e+00) (12, -2.87136971367505555719e+00) (13, 2.59935754816950614909e+00) (14, -1.37063218894369986955e+00) (15, -4.97725435875020716381e-01) (16, -2.37184447944361398442e+00) (17, -4.60951005320074980176e+00) (18, -3.44694498184798536755e+00) (19, 1.45635890657444727614e-01) (20, 3.45702504261730214630e-01) (21, -1.05149367036932539499e+00) (22, 1.67183323081092904960e-02) (23, 1.15681965187379542925e+00) (24, 2.23461172887734482728e+00) (25, -8.17774908535796152265e-01) (0, 5.48383562065966390087e-01) (1, 8.91366248424920626370e-01) (2, -4.17282305157751054470e-01) (3, -5.59416328886560676459e-01) (4, -1.74237301649687381655e+00) (5, -2.96379507036936218345e-01) (6, 2.40712177468657806401e+00) (7, 1.52455435568837960325e+00) (8, -1.53250973987870553472e+00) (9, -1.18070838724418725185e+00) (10, -6.05698065190533263547e-01) (11, -5.66443377219981281101e-01) (12, -7.73748659962922389483e-03) (13, -1.46047660789425526318e+00) (14, -1.49838430522792309674e+00) (15, 5.06993533515231020736e-01) (16, 1.49920118761722842571e-01) (17, -1.33270337810640926435e+00) (18, 1.15427125667744223669e+00) (19, 9.51445564912589025752e-01) (20, -1.89391309183630146551e-01) (21, -6.30878746762207898158e-01) (22, -6.54834781116023445513e-01) (23, 1.13131772761373250447e+00) (24, 1.68385456334372030085e+00) (25, -5.96237487879375138711e-01) (0, -8.04694328082670273794e-01) (1, 6.25160466159370986627e-02) (2, -3.19296290026193130274e+00) (3, 1.00150788040311661264e-01) (4, 2.44797721017605862670e+00) (5, -8.92075638051796349082e-01) (6, -4.96770501695599264735e+00) (7, -1.08536783097498212847e+00) (8, 3.37044360114156438257e+00) (9, 3.53136946745710966766e+00) (10, 2.77569524169646175693e+00) (11, 1.49254150009681563205e-01) (12, 5.78603896768684955454e-01) (13, -9.18642066341149754471e-01) (14, 2.56593840213024204644e+00) (15, -1.09675758353528718381e+00) (16, -5.73539395835930831957e-01) (17, 3.55232099360016961853e+00) (18, 1.02969276749191895881e+00) (19, -7.67675443896000508914e-01) (20, 1.13538952011430471778e+00) (21, 5.91110638180383674012e-01) (22, 2.71971296218255886856e-01) (23, -3.62188577746671658275e+00) (24, -3.70013415088762398497e+00) (25, 2.60245458731915979556e+00) (0, -7.56687663987175906932e-01) (1, -6.37265445848270495333e-01) (2, 2.09437355573926398122e+00) (3, 1.61356687984854030304e+00) (4, 1.34426186794216850906e+00) (5, -7.44206150767706464677e-01) (6, -2.91151700043898964410e+00) (7, -1.45671246880083460340e+00) (8, 7.65047528050644021214e-01) (9, 1.50417376917023926097e+00) (10, 7.74849516557260420413e-01) (11, 2.68292312072177796534e-01) (12, -9.91601272097815233941e-01) (13, 5.98487798477653987206e-01) (14, 6.06984875170326176885e-01) (15, -1.25375666065341428990e+00) (16, -1.18702823147395397640e+00) (17, 1.09019611215854284048e+00) (18, -4.90448647233203527396e-01) (19, 1.14482218042044961437e-02) (20, 1.42871647074082841478e+00) (21, 3.93633915088321850728e-01) (22, 2.41010874353377868573e-01) (23, -6.75127079608711877512e-01) (24, -3.33296317682470311095e-01) (25, -4.00662563895167855854e-01) (0, -3.83490434804921509482e+00) (1, 1.35731729259828615142e+00) (2, -3.61933113771773884437e+00) (3, -7.80891497782336796440e-01) (4, 1.44279177735939523330e+00) (5, 1.87012502433833716076e+00) (6, 2.20454604834639056321e+00) (7, -1.47090437602247936510e+00) (8, 1.64174715711417928965e+00) (9, 3.71014640231669190484e+00) (10, -2.66489400128500486531e+00) (11, -2.72286523451773909699e+00) (12, 4.38960845228357043890e-01) (13, 2.70490617777813335820e+00) (14, 3.27268632933644587624e+00) (15, 5.53472983470441981524e+00) (16, 3.35420378105680594416e+00) (17, -1.14043334231096893383e+00) (18, -2.09637005544377563737e+00) (19, -1.64714148791990666609e+00) (20, 1.92091144998256924126e+00) (21, 4.33941816719694894999e+00) (22, 4.30968815846749198073e+00) (23, 1.06178920082366934352e+00) (24, -3.02423479200875577888e+00) (25, 8.41032618238338747219e-01) (0, -4.44974334818863681562e+00) (1, -1.61754663038601376179e+00) (2, 6.39983391118685140952e+00) (3, 2.21800621154092469922e+00) (4, -2.42718748756708624370e-01) (5, -6.02956232878420705923e-01) (6, 3.75116550819200789135e+00) (7, 8.42176066210815976731e-01) (8, 6.59499096250722449675e-01) (9, -1.43434249456494100627e+00) (10, -2.32333671004007769056e+00) (11, 2.43729501454443342467e+00) (12, 2.05051037744293829235e+00) (13, 3.31681384588289640547e+00) (14, 1.69126093228237284194e+00) (15, 2.91722045768602056270e+00) (16, 1.15228586347710937332e+00) (17, 1.32814299815307190755e+00) (18, 4.28504259235460538413e-01) (19, -8.86296186551419395983e-01) (20, -9.84487893950174552948e-01) (21, 3.91205542124093019751e+00) (22, 4.44890304088654708892e+00) (23, 4.39544884853086514909e+00) (24, 6.10029033606914627974e-01) (25, -2.62795113013486147935e+00) (0, 1.49448596368069230866e-01) (1, -5.00674305157184584836e-01) (2, 1.63069841866865772317e+00) (3, 9.84195422384387064163e-01) (4, 5.21687700953930355574e-01) (5, -6.10266137336817671155e-01) (6, -2.62019610730809837662e+00) (7, -1.53787056987282810816e+00) (8, 2.55202418609789538628e-01) (9, -2.09545963412867380926e-01) (10, 8.72304459350774830106e-01) (11, -5.54524881369304889489e-01) (12, -2.38673931363210384271e-01) (13, -6.49135648743429327645e-01) (14, 1.29298587675683096521e+00) (15, -1.43329047456189195842e+00) (16, -4.75767433074343881749e-01) (17, 2.54231264922605593171e+00) (18, 7.09224673349254763899e-01) (19, -5.33802234549659249119e-01) (20, 3.51303064095394690369e-01) (21, -4.65827840590570918522e-01) (22, -8.09347094826593282946e-01) (23, -1.04215148165072157838e+00) (24, -1.02419678514302203709e+00) (25, -3.66848342291253959324e-01) (0, 1.09299651464125846534e-01) (1, -1.69207340453593646501e-01) (2, 9.66102726609282647097e-01) (3, -1.19990169608022956282e+00) (4, -1.73842771101316295734e+00) (5, -1.18272053664754572821e-01) (6, 3.93341710131127308969e+00) (7, 1.11349379505535117652e+00) (8, -7.91017101677216727396e-01) (9, -1.55342506082608267093e+00) (10, -1.58603145005849666127e+00) (11, -2.72792241280523199698e-02) (12, 5.08710558150275882205e-01) (13, 7.49209929232251381492e-01) (14, -4.45822144251342977750e-01) (15, 1.66300191495085347704e+00) (16, 7.57693574059104646423e-01) (17, -1.20393003185896607654e+00) (18, -2.26506471790335478511e-01) (19, -4.99264214222645386076e-01) (20, -1.33009263829781132493e+00) (21, 3.95445549959612230317e-01) (22, 2.84254160706118530477e-01) (23, 1.60458818453030982454e+00) (24, 6.88948074215531613973e-01) (25, -5.61414638649677000259e-01) (0, 3.37357181156389307475e+00) (1, -3.20192211805262960667e+00) (2, -1.71291659340015134383e+00) (3, 3.36850182460291802666e-01) (4, 4.42956981371919589208e+00) (5, 5.79448089172828684212e+00) (6, -1.57342634121320518181e-01) (7, 2.76032501380576500427e-01) (8, -2.28680391378231195887e+00) (9, 4.96267208756898836608e-01) (10, -5.74252056358458884411e-01) (11, -2.02470060235590132436e+00) (12, -3.92576673193706726650e+00) (13, -4.93939141611458776282e+00) (14, -3.53450954092315772215e+00) (15, -4.08290794325287187405e+00) (16, -3.17897929844521121012e+00) (17, -3.69247701860356691839e+00) (18, -8.76421519476259458514e-01) (19, -1.57205942305102297496e+00) (20, -2.50293604412123738001e+00) (21, -7.26163285935041713515e+00) (22, -6.72188844385259365311e+00) (23, -2.00686070891980739006e+00) (24, 1.58038308293204599053e+00) (25, -1.16512420073495004402e+00) (0, -3.21706166913590274614e-01) (1, 4.18980319538951029301e+00) (2, 7.64428370562971859492e-01) (3, -2.51488288035242835150e+00) (4, -9.82636163951219332446e-01) (5, 9.15579738354296623903e-01) (6, 4.96942479038438467143e+00) (7, 3.82260406800415530881e+00) (8, -3.51025372557322912215e+00) (9, -1.93015743892536084658e+00) (10, 1.87837729806536857247e+00) (11, 8.39802196236227205262e-01) (12, 8.89936814135948051074e-01) (13, -3.24542739749495323665e+00) (14, -5.72333216161115476694e+00) (15, -4.34881465065769745593e+00) (16, 2.15425903848504018967e+00) (17, 3.42822703984711152358e+00) (18, 5.73188991103981493325e+00) (19, 1.52326055404051086128e+00) (20, -3.28424182643745776744e+00) (21, -1.25118121702446183363e+00) (22, -2.36454305479306148285e+00) (23, -2.34851202831939565030e+00) (24, -3.45352479429640268904e+00) (25, -3.10421554511631825335e+00) (0, -2.53207511032207843726e+00) (1, 1.12639735347836711377e+00) (2, -2.34067160031562970790e-01) (3, 1.16692508934638894402e+00) (4, 7.68295171387056385903e-01) (5, -2.63850130614259459350e+00) (6, -3.54782769772070727399e+00) (7, -1.76561102000913483501e+00) (8, 1.57621820527290745773e+00) (9, 1.58456496515439160255e+00) (10, 2.82680934699663444221e+00) (11, 3.59609015395092601608e+00) (12, 9.81541089803276256553e-01) (13, 4.10548940430641273736e+00) (14, 1.88046898886555924335e+00) (15, 1.26892709884432952627e+00) (16, -2.13318786827372458559e-01) (17, 7.52437092196012402567e-01) (18, -2.33905067803991029152e+00) (19, 1.03781845613043890997e-01) (20, 1.50377429390332562065e+00) (21, 2.81337279391028927122e+00) (22, 3.66059815765708629343e+00) (23, 2.27798470474252251483e-01) (24, 5.38381403209548858868e-01) (25, 6.41180249461043905157e-01) (0, -6.59899381985074029444e-02) (1, 7.53926608602599052089e-02) (2, 3.92128359862130260183e+00) (3, 3.61290696557711665804e+00) (4, 2.08545771924051637214e+00) (5, 4.51919393312929129625e-01) (6, -3.65986514687914521460e+00) (7, -2.90589880477918116597e+00) (8, -7.27758952897301303331e-01) (9, 2.27354838581280582765e-01) (10, -8.16756642506367591672e-01) (11, -1.96576126603978296181e+00) (12, -1.72695843760388889621e+00) (13, -1.51229370741715962723e+00) (14, -8.70350280325256908664e-02) (15, -2.45789915247108092800e+00) (16, -1.75416443365072693972e+00) (17, 6.10878472776101744124e-01) (18, -4.25867451096635152297e-01) (19, -2.52835375375538240483e-01) (20, 1.72847521314739815956e+00) (21, -8.11278389841336489141e-01) (22, -6.37724645710372461949e-01) (23, 1.97892559261497978651e-02) (24, -1.59711597667228782926e-01) (25, -1.77374331513210337086e+00) (0, 1.11200678125641116978e+00) (1, 6.69100918651398091086e-01) (2, -1.87444060480240010103e-01) (3, 1.53657735399870598592e-01) (4, -1.75178532307768852760e+00) (5, 1.04767538123779813120e+00) (6, 2.06368245716724274530e+00) (7, 1.82336229381891357093e+00) (8, -3.46328464079681763721e+00) (9, -4.82335135982401563837e+00) (10, -4.34122396286862555215e-01) (11, -7.25743598321244687277e-01) (12, 1.91571900239957376710e-01) (13, -3.76962948902332373180e+00) (14, -2.55302071456695189866e+00) (15, -1.19502258260365556986e+00) (16, -1.07514976525020788944e-01) (17, -6.83496472593807635754e-01) (18, 2.20887824633662521734e+00) (19, 7.69306434140008987832e-01) (20, -2.84317928696740640504e+00) (21, -4.12894020621115753755e+00) (22, -4.28829211600642601354e+00) (23, 6.66342904092819043882e-01) (24, 2.71896654145125893365e+00) (25, -9.76096716835566979853e-01) (0, 7.84579454935590114850e-01) (1, -1.36255209389547826682e+00) (2, 2.37865897890553013028e+00) (3, -5.36812039101328242197e-01) (4, -1.00946098009015172714e+00) (5, 1.88513122994926812792e-01) (6, 2.73010021361963772790e+00) (7, 2.65201367353060712961e-01) (8, -1.17264319964687468989e+00) (9, -1.86571912906764292295e+00) (10, -1.38187288270124164491e+00) (11, -1.92011427810598600541e-01) (12, -3.42745458972482375248e-01) (13, 1.11553864496203769541e+00) (14, -3.58368962600835450072e-01) (15, 5.22193018705010003622e-01) (16, -9.91967865433945744646e-02) (17, -1.66998011189094874851e+00) (18, -8.48558757696466825493e-01) (19, -4.88600145047845269008e-01) (20, -1.43929983740828904004e+00) (21, -1.40895704563424262190e+00) (22, -1.09885736557251645351e+00) (23, 1.46342456834945644495e+00) (24, 1.49849752489803544897e+00) (25, -1.03715702192265779580e+00) (0, 1.68769305540989539294e-01) (1, -1.09183711490026746915e+00) (2, -1.04945621553885160004e+00) (3, 9.13744757237628046909e-01) (4, 3.70247073426323369816e+00) (5, 2.30791832170676380898e+00) (6, -4.05484917183671278451e+00) (7, -9.11438623109341872208e-01) (8, 1.07380783209739338879e+00) (9, 1.56476541675495561812e+00) (10, 2.12456190103528053115e+00) (11, 1.46575395288102172664e+00) (12, -6.28618915542445644284e-01) (13, 6.46892923113828621773e-01) (14, -1.21047625933647950980e+00) (15, -3.50934899438870617772e+00) (16, -1.81955337860358246083e+00) (17, -4.72504649745383475956e-01) (18, -1.09840103931548083160e+00) (19, 1.25666335347975666181e+00) (20, 5.70058096789278101468e-01) (21, -2.57285408286781347442e+00) (22, -8.15010439019451582432e-01) (23, -1.41872005383967048076e+00) (24, 3.13438698237543278413e-01) (25, -6.14947215943854041953e-01) (0, -1.33193613101447438929e+00) (1, 1.74815996445032473261e+00) (2, 2.00362634996886024297e+00) (3, -3.62763773756980545393e-01) (4, -2.69336031265132236356e+00) (5, 2.49467272642671766825e-01) (6, 6.30053465029665282771e+00) (7, 1.38356557225465182093e+00) (8, -2.54468389927932792105e+00) (9, -1.37618201371579895742e+00) (10, -3.59903075943805461634e+00) (11, -1.12552109937501643167e+00) (12, 2.32787321691571263971e-01) (13, 1.32291648851751064697e+00) (14, -1.97790010420388129297e+00) (15, 2.61403303132560793642e+00) (16, 1.95488045824558831498e+00) (17, -1.86474890160774098291e+00) (18, -3.44260800889504114952e-01) (19, -2.40702795806759101138e-01) (20, -5.89281842928775279056e-01) (21, 2.05677678469170910347e+00) (22, 2.81342403406211216677e+00) (23, 4.48832801395379554776e+00) (24, 1.20177721646359758623e+00) (25, -2.82649798078083813735e+00) (0, -3.15339203201274675958e-01) (1, -2.00435001375023613690e+00) (2, 4.72992040189168250208e+00) (3, -9.18019629132396541848e-01) (4, -4.55471803086106963310e-01) (5, 7.65845355472715261236e-01) (6, 4.12534011342272854961e+00) (7, 1.80164872499107708848e+00) (8, -4.00915540321981282278e-04) (9, -1.82273168777892213832e+00) (10, 1.75843713543660032372e-02) (11, 1.76117165768696648520e+00) (12, 3.30198675699184818200e-02) (13, 2.26823681282280453786e+00) (14, -7.96055182461386401371e-01) (15, -9.14041660600920291557e-01) (16, 3.62317177445980243000e-01) (17, 9.67542221040962213685e-01) (18, 9.59074145117909448999e-01) (19, -9.09217727698210520515e-01) (20, -2.43530173563958740601e+00) (21, -3.61341804486004336550e-01) (22, -1.16176690107471758395e+00) (23, 5.30846682583887008455e-01) (24, 1.77779397392419463708e-01) (25, -1.21659463175258930612e+00) (0, -1.67935456728057963538e+00) (1, 1.55815401029904709862e-01) (2, 4.10108527058158323086e+00) (3, 1.46399321055594500152e+00) (4, -1.00244084366921137885e+00) (5, -1.61312050303807064111e+00) (6, -3.22078302725825771358e-01) (7, 6.71973486683586251900e-01) (8, -7.03361231693000910070e-01) (9, -3.04622929305577549997e+00) (10, 8.98908845804366141152e-01) (11, 4.86188555161173041608e-01) (12, 1.03248783272514854659e+00) (13, -2.28072737264095026788e+00) (14, -2.08947830426144787186e-01) (15, -1.73771273857890906633e+00) (16, 2.30258632383245531727e+00) (17, 6.67747286013762852974e+00) (18, 5.18787267072301006010e+00) (19, -1.28635010525245507829e-01) (20, -1.96980680106593553091e+00) (21, -8.67887264558156318328e-02) (22, -2.83402108810052277832e+00) (23, -3.10343851894961364479e+00) (24, -2.53208046088922777983e+00) (25, 1.60704722145459354132e-02) (0, 3.60691856110520570056e-01) (1, 4.63927637458989794439e-01) (2, -5.30015605048219429207e-01) (3, -1.19183108997879361191e+00) (4, -1.44128496122835758619e+00) (5, -3.43116346177345210577e-01) (6, 3.00177253964378465412e+00) (7, 1.98301635580826890459e-01) (8, 1.47481953095173617951e-01) (9, 5.72636096276659345428e-01) (10, -2.35234787104271347857e+00) (11, -2.60507240282348107030e+00) (12, 2.86885888486092477390e-01) (13, -1.20369488111555833498e+00) (14, 9.08064356713434661650e-01) (15, 2.35470048268003528946e+00) (16, 1.49108640250106572189e+00) (17, -5.50722853610905782595e-01) (18, 3.14298497306539803553e-01) (19, -1.36991163372688440347e+00) (20, 1.74820692617566775251e-01) (21, 1.62983941694826328650e+00) (22, 5.81729524582376589237e-01) (23, 1.88770216365647863777e-01) (24, -1.74288454090976818733e+00) (25, 1.04350704786746972808e+00) (0, 7.30874163590009207070e+00) (1, 1.89717077940022238458e+00) (2, -1.31604071021503243877e+00) (3, -4.23887784349285556829e+00) (4, -3.63627237957891491504e+00) (5, -4.52451836266519347163e+00) (6, 4.41247560529660687312e-01) (7, 1.90773964579668575681e+00) (8, 2.48746189291109087716e-01) (9, 1.24780275205330015709e+00) (10, -3.12468190577175830569e+00) (11, -6.93216299239074729144e+00) (12, 1.22544824604216326391e-01) (13, -2.02313064883093696178e-01) (14, 2.32894178288817199629e+00) (15, -1.55348625719331656647e+00) (16, -4.26967336090441129670e+00) (17, -2.79688515628342893038e+00) (18, 5.56565852384312886869e-01) (19, -1.42672251679896611165e+00) (20, -3.50274125305782335627e-01) (21, -3.37457074345526075732e+00) (22, -2.19728782929025179271e+00) (23, 5.21913630807942396928e-01) (24, -2.04009540112998877248e+00) (25, -2.75163703678298621202e-01) (0, 8.07996590244894452582e-01) (1, 1.06753443574357764767e+00) (2, -8.95934849846283132280e-01) (3, -2.22386839749068965233e+00) (4, -3.54860327618884285883e+00) (5, -5.61341356939722535557e-01) (6, 4.06764385963736874174e+00) (7, 8.61749506313947755132e-01) (8, -1.68872667945084464769e+00) (9, -2.12104823987757473702e+00) (10, -2.63395272192853369120e+00) (11, -2.12339288709751583539e+00) (12, 1.13676980526669346716e+00) (13, -6.91491866481810935063e-01) (14, 5.91741926632973647138e-01) (15, 2.82264770305725765098e+00) (16, 2.15527951870178613447e+00) (17, -3.03465797155990146816e-01) (18, 8.43398249317523052149e-01) (19, -1.11483490731309187183e+00) (20, -1.19401730150062368452e+00) (21, 1.13881814845973661221e+00) (22, 7.06757625220833074486e-01) (23, 1.27565629869389973727e+00) (24, -5.56924433308260913300e-01) (25, 4.41835282835133791313e-01) (0, -3.54771727770028300064e-01) (1, 2.40279469254454847160e+00) (2, 8.71587772866302290531e-01) (3, -1.27638212440048848251e+00) (4, -7.22460481853713787359e+00) (5, -6.00063189047076672722e+00) (6, 9.30683673658889931701e-01) (7, -2.82979215222177449274e-01) (8, -1.14277548274208418100e+00) (9, -2.84080188219167117936e+00) (10, -5.22445300804003931461e+00) (11, -7.65043520871831628227e+00) (12, -1.82926828259120477504e+00) (13, -6.27997417883597819355e+00) (14, 3.45502067990501871009e+00) (15, 3.68102197266165642731e+00) (16, 1.57427642902195619179e+00) (17, 1.76777138743327033588e+00) (18, 4.31459566585622500412e+00) (19, -3.37634318121142196212e-01) (20, 1.65215004615618332728e+00) (21, 1.38236076200967694660e+00) (22, -2.55840381119503579299e+00) (23, -2.30268467930634268548e-01) (24, -1.60823870208062258413e+00) (25, 2.44020968646919422795e+00) (0, 7.24389655038635371653e+00) (1, -4.37409293962221923380e+00) (2, -3.01352603289543719001e+00) (3, -5.35490235090244515170e-01) (4, 3.14302047504470660755e+00) (5, -1.74301370172806913139e+00) (6, -1.27921338406670548338e+00) (7, 2.66779590409758571301e-01) (8, 2.42173091872966761429e+00) (9, 2.64868987735982353016e+00) (10, 2.42996205282070976139e+00) (11, 6.48706275896873019171e-01) (12, 4.82014540461205598376e+00) (13, 1.41670551816416723234e+00) (14, 1.95985611358704536755e+00) (15, 1.22359404121534542931e+00) (16, 1.25195720830781165311e+00) (17, 1.11296497109310754681e+00) (18, -1.24498949145988446752e+00) (19, -1.69768967432432127396e+00) (20, -2.51460920268397902788e+00) (21, -6.84986816127796216414e-01) (22, 5.13905908127293975518e-01) (23, -1.74078252576934811025e+00) (24, -4.07577628495336252712e+00) (25, 1.58744540454171367827e+00) (0, -1.74393046647141125582e+00) (1, -3.84408187488684605082e-01) (2, 2.16521761239372079189e+00) (3, 7.00969125660366398911e-01) (4, 1.18992502657775967023e+00) (5, -9.49554692356008644971e-01) (6, -1.76250746962195936618e+00) (7, -1.03971963729069960536e+00) (8, 1.82454898047939639838e+00) (9, -3.91186170632191188012e-01) (10, 7.36335755712775763548e-01) (11, 5.04135112924877448748e-01) (12, 1.08927006922516866894e+00) (13, 1.76079792731931217276e+00) (14, 3.16930707896954855229e+00) (15, 1.07762494789766871683e+00) (16, 1.30035337792546434876e+00) (17, 4.15755088983331244634e+00) (18, 4.95526781658873705094e-01) (19, -1.32583467377083574767e+00) (20, -8.59950091254928494777e-01) (21, 1.20297612171042733742e+00) (22, 2.12017415426045047200e-01) (23, -1.54603829994842389972e+00) (24, -2.38014902916044235326e+00) (25, 7.66075719926477272104e-01) (0, 1.91659458883136935015e+00) (1, -2.10320599436770727664e+00) (2, -8.00090610699503024250e+00) (3, -1.85855974940967749731e+00) (4, 3.75633974310620732950e+00) (5, 2.67374218695796306289e-01) (6, -4.54211255909980415879e+00) (7, 9.03275554198376129378e-01) (8, 2.80036736813738196261e+00) (9, 9.31642364169963266285e-01) (10, 7.92053148198608614194e+00) (11, 5.87357467796486432121e+00) (12, 1.98904136888259763793e+00) (13, 4.69919109153044634031e-01) (14, 1.76394095783896331930e+00) (15, -3.85124003189802666114e-01) (16, -8.72007835722135582479e-01) (17, 1.88136739947029574260e+00) (18, -1.93353314943866594344e-01) (19, 9.28975145202051710847e-01) (20, -2.25466007691912562194e+00) (21, -2.10514287986041459533e+00) (22, -2.08618932417129254731e+00) (23, -3.92341842050285993793e+00) (24, -1.99182037154916093125e-02) (25, 5.00728525011413960755e+00) (0, 1.07298893296359487692e+00) (1, -2.94108282115277797075e+00) (2, 9.70579211038143485624e-01) (3, -7.07022018197474677592e-01) (4, 2.31112706013381796755e-01) (5, 1.90487810857314865398e-01) (6, 1.19245701115863034225e+00) (7, -5.41211880219021779226e-01) (8, 1.85832592430568088737e+00) (9, 2.52488845206168655011e+00) (10, -1.91474528894752493713e+00) (11, 7.16271380754506470367e-01) (12, -1.59058140768895373007e+00) (13, 4.31743494292382123945e+00) (14, 5.99180021695649656088e-01) (15, 1.19899895295036307274e+00) (16, -2.64018777053060382798e+00) (17, -6.16561255403893859750e+00) (18, -5.41726530474118650460e+00) (19, 5.84681953079890653902e-02) (20, 1.65020580415466433521e+00) (21, 1.93142305941083648746e-02) (22, 1.98995101797442841551e+00) (23, 3.02223600164685946012e+00) (24, 3.51162607971783513605e+00) (25, -9.42874690849474644816e-02) (0, 1.12182362205728844429e-01) (1, 1.02143426366368306191e+00) (2, 1.72310736262170555166e-01) (3, -1.27133501899797818346e+00) (4, -2.41342693651446671410e+00) (5, -4.90098808521368889402e-01) (6, 4.25693887626184341855e+00) (7, 1.16651372456112922826e+00) (8, -1.70687136236984771109e+00) (9, -1.95635616242294352318e+00) (10, -1.81585862397835295923e+00) (11, 1.78836749378003839750e-01) (12, 1.00180145293896272207e+00) (13, 1.23368061707185061593e+00) (14, -8.19315397590547722650e-01) (15, 2.64409124544163942616e+00) (16, 1.19258827268586808934e+00) (17, -2.14984148315002121521e+00) (18, -9.15133740883382063025e-01) (19, -2.52555980547097547184e-01) (20, -1.43151615835415357836e+00) (21, 7.79237431447253325878e-01) (22, 1.31930969505394246610e+00) (23, 2.76255058097606021050e+00) (24, 1.26627086851069448059e+00) (25, -1.12232036278229774240e+00) (0, 7.54221569331587210483e-02) (1, -1.58966424165391617684e+00) (2, 9.51859284109048409128e-02) (3, -1.09430548603231447835e+00) (4, 8.56561066878141152969e-01) (5, 5.74394097759028721129e-01) (6, 2.27143699597351833575e+00) (7, 7.88010316492863904791e-01) (8, 1.84493746327794694295e+00) (9, 3.38190679204618183107e+00) (10, -1.43744360536026638542e+00) (11, 4.60744938404770487672e-01) (12, -2.29009825122323595892e+00) (13, 2.43132977419898876903e+00) (14, -4.69547221469300390950e-01) (15, 4.84406742307969706562e-01) (16, -1.53312719828060051164e+00) (17, -3.93611217872980212462e+00) (18, -2.84967808569786429373e+00) (19, 4.15105885000871199786e-01) (20, 1.78252110580340428214e+00) (21, 7.17587705074053672227e-01) (22, 1.50458247441125347876e+00) (23, 1.06686536702952672329e+00) (24, 1.09366384567563112995e+00) (25, -3.92524282584980843680e-01) (0, -4.66164053917960452544e-01) (1, 1.25624662972907641389e+00) (2, -3.02682682157000504386e-01) (3, -1.01556245335170336475e+00) (4, -5.01391729434265442933e+00) (5, -3.60669402846359510306e+00) (6, 4.07290341259251054140e+00) (7, 2.67885047601760595271e+00) (8, 7.80744764063146856614e-01) (9, 2.58588756584200163413e-01) (10, -1.59716073870787456102e+00) (11, -1.37287007787435677564e+00) (12, 9.65493273741535151800e-01) (13, -2.42439865563274281612e+00) (14, 1.22507861740503098957e+00) (15, 4.00916220060185057861e+00) (16, 4.30594765573160032091e+00) (17, 5.39442811493961116298e+00) (18, 6.54885098143329891229e+00) (19, 1.31821985959376419828e+00) (20, 1.35535686768357610532e+00) (21, 4.12285667515492448842e+00) (22, 1.08447230428806898339e-01) (23, 2.76902482467239585695e-01) (24, -1.68856558745790685805e+00) (25, 1.59265577787275391941e+00) (26, 2.57232772417149146982e-01) (27, 9.78025242168901520756e-01) (28, -9.37185994044538173142e-01) (29, -5.13079550961847985491e-03) (30, 1.64046909621381464817e-01) (31, -5.01829024582351790329e-01) (32, -5.85333944153179352998e-02) (33, 6.08763155801502087172e-01) (34, 1.05727488016435744456e+00) (35, -1.13712056465931909965e-01) (36, 9.69020456269217844714e-02) (37, -8.55283338773458856608e-01) (38, -4.59822569850385720613e-01) (39, 2.14479003236957760370e-01) (40, -8.21740471543331019166e-02) (41, -1.66466714320610414957e-01) (42, 2.35633636356806480672e-01) (43, -2.08002656980496247741e-01) (44, 1.14124624983488698327e+00) (45, -1.23332263237752010054e-01) (46, -7.64065037203811248112e-01) (47, 1.51359306865247109086e-02) (48, 2.48321312691557727348e+00) (49, 1.35892804876658224167e-01) (50, -3.26711645734638067573e-01) (51, 1.87542408135003069169e+00) (52, 3.83857516009265264945e-02) (53, -1.08124798847629888243e+00) (54, 6.17222526579238151001e-01) (55, 5.02936563789113111334e-01) (56, -1.58444990333594937226e-03) (57, 8.75797697730075763722e-01) (58, -9.06875007225615803463e+00) (26, -7.31327122013095243247e-01) (27, 7.59602761925632474771e-01) (28, -3.05646364326099706510e-01) (29, -1.25030775575791563980e-01) (30, 4.22254459337238319261e-01) (31, -3.99209935000827687013e-01) (32, 1.82715524949882933414e-02) (33, -1.28333082577492585408e+00) (34, 1.45210765711951295120e-01) (35, -2.00398453243545021651e-03) (36, -5.51076413441573681462e-02) (37, -3.71088710764125362385e-01) (38, -4.37011593935383413356e-01) (39, -3.20892561721135838315e-02) (40, -1.66172530943850704777e-01) (41, 9.56280119807496387097e-01) (42, -3.05283292308332135367e-02) (43, 2.44351518621426427869e-01) (44, 3.19539364050930585481e-01) (45, -3.96724246381012002338e-01) (46, 2.15638992561627274025e-01) (47, -6.06016802489135142373e-01) (48, 2.01586129870092456429e+00) (49, -4.87461653992223520326e-01) (50, 3.70137050701576597600e-01) (51, -1.87134918563076757536e+00) (52, -4.68361143498623344605e-01) (53, 9.86113782672266570017e-02) (54, -4.72259913223328886556e-01) (55, 1.50347206581233849843e-01) (56, 8.62165762047478745345e-04) (57, 2.98078638718109190098e-01) (58, -4.78260187160491057057e+00) (26, 3.42484211820836104145e-01) (27, -4.82950698844233139440e-01) (28, 2.03063883450964244304e+00) (29, -1.85266327580346168435e-01) (30, -1.64121100570263800389e-01) (31, 9.18222225637384537045e-01) (32, 1.86800520993786411950e-01) (33, 9.80172614407186393315e-01) (34, -7.74016502913419529586e-02) (35, 7.86504277036268323320e-02) (36, -5.64163410228017192516e-01) (37, 3.87522698742716276143e-01) (38, 2.67972648658821137324e-02) (39, 1.13469739556332258057e-01) (40, 6.36319427067439824519e-01) (41, -4.81228318070182237154e-01) (42, -5.40179529506180533538e-01) (43, 2.95009016117508460209e-01) (44, 5.16272031392537179145e-03) (45, -8.09239607323606335854e-01) (46, 1.02964207347411806914e+00) (47, 2.23904361484735359156e-01) (48, -8.18794886865433446665e-01) (49, -2.50075658063022954192e-01) (50, 9.42901303303252835697e-01) (51, 2.65630024635383632514e+00) (52, -5.12792079755233498606e-02) (53, -6.51043494768507313708e-01) (54, -8.58142967782143495370e-01) (55, -4.49521533182275445650e-01) (56, 3.04455271146968853291e-01) (57, 1.13486277700577309346e+00) (58, -7.48635372768557516565e+00) (26, 7.68674330543521050485e-02) (27, 6.94304326279943095912e-01) (28, -3.40569341188525720465e-01) (29, -6.75070756366735857945e-01) (30, -9.97423884981412690875e-03) (31, 7.97384280886787699671e-01) (32, 1.93875548921276308692e-04) (33, 5.78900515934133497176e-01) (34, -6.19145809603278141076e-01) (35, 1.05893843412594210185e-01) (36, -2.53485203447803564281e-01) (37, 1.31194989097676545375e-01) (38, -1.47660034628792358191e+00) (39, 6.75025581002103525208e-01) (40, -6.31995826619888401154e-01) (41, -3.37263463402369567667e-01) (42, -2.97149311732700593947e-01) (43, -4.14895713658493203724e-01) (44, -7.54844091605321843019e-01) (45, -8.75331767291511519957e-01) (46, -6.85776523349829525422e-01) (47, 1.50624172891486135528e-01) (48, -3.80420251302311773767e-01) (49, 2.14887515431864017934e-01) (50, 6.63612263882571024043e-02) (51, 2.31732506017117323438e+00) (52, 8.06372962860713443645e-02) (53, 1.45651417832384488804e+00) (54, 3.72578661457998672191e-01) (55, -8.22994718727655394375e-02) (56, 4.82907676175801936491e-02) (57, -9.89714918403709176253e-01) (58, -4.95025661487933898997e+00) (26, 6.85398084562467646563e-01) (27, 4.93180204227908425274e-01) (28, 1.06095262690530400818e+00) (29, 1.02924001091693928522e+00) (30, -8.68714561810150498466e-02) (31, -1.41727436034147669108e-01) (32, -7.57326325268121297585e-02) (33, -1.24844580959162110290e+00) (34, -8.62242183293422725932e-01) (35, -4.61730768494431398352e-01) (36, -6.21784489579411681071e-02) (37, 2.47949707030329946633e+00) (38, 4.13347712620148188822e-01) (39, -6.01499373054210972889e-01) (40, -8.64716608477527071130e-01) (41, 2.67280281252170737183e-01) (42, 2.67402893092139569420e-02) (43, 6.41949340467308116054e-01) (44, -2.56028811988735061078e-01) (45, 2.57412764560609297337e-01) (46, -6.60755869293093267558e-01) (47, -1.90049910222779783187e-01) (48, 1.74706285645674919138e+00) (49, -1.61176885600176483804e-02) (50, -1.17700281270424556013e+00) (51, -1.41469851901121446147e+00) (52, -6.71129144354765783120e-01) (53, 1.86968581036112774241e-01) (54, 2.73750909307730494469e-01) (55, -1.12322541760138949751e-01) (56, 9.88321961125775416690e-01) (57, -1.07562176967984490794e+00) (58, -7.64207783712832977585e+00) (26, 3.90633388647952592421e-02) (27, 9.52787865875973971619e-01) (28, 7.22215109373519514868e-01) (29, -5.85160780569189298284e-01) (30, 3.29331620319723961110e-01) (31, -1.61619234113753278137e-02) (32, -2.77330232446836411064e-01) (33, 1.34375348061459831683e+00) (34, 3.46706845101221478728e-03) (35, -4.17477123815818071395e-02) (36, 5.68896201320301456161e-02) (37, -1.98063259824519066754e+00) (38, 1.52025277557016602614e+00) (39, -4.08771463950026281431e-01) (40, -8.64807768661768477836e-02) (41, -2.28670135388769374396e-01) (42, -2.30842317878759334393e-01) (43, -6.52550408849753349472e-01) (44, 7.57701831265450875819e-01) (45, 2.74745232597330746316e-01) (46, 3.80635411859911731991e-01) (47, 4.04743420970880174448e-01) (48, 2.68263363224491602210e+00) (49, 1.04199468442342610408e-01) (50, 3.79169410695512298926e-01) (51, -6.19909756751559903876e-01) (52, 2.15495270394981036644e-01) (53, 2.49899979970043956135e-01) (54, -6.14122779842047550325e-01) (55, 1.52354466923322051652e-01) (56, 3.62350431663818750572e-02) (57, 2.03299560912866095208e+00) (58, -6.75979632930451135309e+00) (26, 6.73726840463322040886e-02) (27, 1.28732601774709753961e+00) (28, -1.55593002200687613445e+00) (29, 7.61285112824346965610e-01) (30, -7.21351760892382717905e-03) (31, 1.55029906369213904549e-01) (32, -1.71347998572420473495e-02) (33, 4.74535190656445726720e-01) (34, 9.05033804477624714835e-01) (35, -2.62440107264335031889e-01) (36, 6.69711400907491150036e-02) (37, -1.03059607781738238330e+00) (38, 8.04320388212331899291e-02) (39, 1.10501813875756038641e+00) (40, -1.07402723187379467440e+00) (41, -3.66394861661325899060e-01) (42, -2.42494449162845848722e-01) (43, 1.84078975554955795446e-02) (44, 4.13803377916728484798e-02) (45, 7.99995194286497124381e-01) (46, -1.42326363426633101250e-01) (47, -2.34476140716328634861e-01) (48, -2.15364354760789789012e+00) (49, -6.10012017028435771238e-01) (50, -8.64731821111937692947e-01) (51, -2.83644182277987821905e+00) (52, -1.16853221921327035671e-02) (53, 2.20282105220577495430e+00) (54, 2.23477819852290447711e-02) (55, 2.66575805274213262219e-01) (56, 5.54087278489405421489e-01) (57, 1.80175662204898973107e-01) (58, -4.63583566481945741344e+00) (26, -8.90105513433832706838e-01) (27, -1.42146998696477000479e+00) (28, -5.42284422832522983171e-01) (29, -1.03733048778949088486e+00) (30, -3.41400467960503328779e-01) (31, 6.65686374738587272049e-01) (32, 1.33444060494134052880e-02) (33, -6.01678437635159935049e-01) (34, -8.17515740305118976394e-01) (35, 5.08544994661035310024e-01) (36, -4.17817245619792998479e-01) (37, -3.21677741977737310930e-02) (38, 1.56424199991096068985e+00) (39, -6.76451939738155066939e-02) (40, 7.84295306033437750193e-02) (41, 2.97739769642535567762e-01) (42, -2.05950072763492995909e-02) (43, 3.57268328265663681620e-01) (44, -1.21183388386654500302e+00) (45, -1.83087199841787728882e-01) (46, 1.60220284258289447088e+00) (47, -3.40690455799821045879e-01) (48, -3.06654157309462016556e+00) (49, -4.78380476556876307881e-02) (50, 5.07539665963986919017e-01) (51, 5.44576875495966922225e-02) (52, 7.69535070002438259529e-01) (53, 2.47691693803420642794e+00) (54, -1.51801953011858858922e+00) (55, -3.86252627990297248139e-01) (56, -1.04626339731650008780e+00) (57, -4.17833994261015806426e-01) (58, -6.67426924063007032117e+00) (26, -1.68881968855136288532e-01) (27, -4.25759095231591055963e-01) (28, 2.04163032986241388400e+00) (29, -5.63673360569951431565e-01) (30, 4.00102164934297177545e-01) (31, -9.83164171208974924099e-01) (32, -9.24812623910120867876e-01) (33, -1.32431412463565756354e+00) (34, -1.75306351579994523782e-01) (35, -6.22103436362372169688e-02) (36, 4.47830354291909760178e-01) (37, 7.62123405312510326937e-01) (38, 8.47419858451501806229e-01) (39, -1.31332598392217714256e+00) (40, -2.87683699222766597892e-01) (41, 1.04241552749875765471e+00) (42, 5.74182178910277007944e-01) (43, -6.44280883584901875594e-01) (44, 2.99716793684339954940e-01) (45, 6.26450173227763862371e-01) (46, 3.61195001343659616300e-01) (47, 3.64784661741409443891e-01) (48, -8.88277333705194127589e-01) (49, 8.65067184733612104530e-01) (50, 1.19261250040767130542e+00) (51, 1.54784432375195635245e+00) (52, -2.91262579857705303232e-02) (53, -6.64619437727522882620e-02) (54, -8.36016845056756885413e-01) (55, 2.51324289913066045710e-01) (56, -5.30692054902539123162e-01) (57, 1.20660261381933220370e+00) (58, -6.81176841894862317162e+00) (26, 1.14073342155859167035e-01) (27, -2.41144515717016047485e-02) (28, -3.26930023183327422842e-01) (29, 3.70834672076611332470e-02) (30, -1.17917227911803798590e-01) (31, 1.09877044605004622890e-01) (32, -1.16628056281085260015e-01) (33, 4.09565141421571632385e-01) (34, -1.72524578014668361625e+00) (35, 8.97586662962326226056e-02) (36, 2.06176431434285434285e-01) (37, -1.21609408113473094204e-01) (38, -2.04085561292305595060e-01) (39, 6.15476700125141829023e-02) (40, -1.32641881344507051033e-01) (41, 1.04805937476614277615e-01) (42, 2.27192956957439878840e-01) (43, -3.71400935884068500448e-02) (44, 9.14138972654965492604e-02) (45, 8.03184810531249321341e-02) (46, 9.71802816561268961726e-02) (47, 4.00939957206175867643e-02) (48, -8.51026507479401117529e-01) (49, 2.60491830675212976409e-01) (50, -3.72875930988825071699e-02) (51, -5.97159067219089068068e-01) (52, 5.02142211747558520063e-02) (53, -1.32193712079500501344e-02) (54, -6.43968379307626320740e-02) (55, 1.65453975736750608094e-01) (56, -8.95520247911643085814e-02) (57, 2.09136546279355434175e-01) (58, -5.01856501896864148904e+00) 
