FANN_FLO_2.1
num_layers=3
learning_rate=0.700000
connection_rate=1.000000
network_type=0
learning_momentum=0.000000
training_algorithm=0
train_error_function=1
train_stop_function=0
cascade_output_change_fraction=0.010000
quickprop_decay=-0.000100
quickprop_mu=1.750000
rprop_increase_factor=1.200000
rprop_decrease_factor=0.500000
rprop_delta_min=0.000000
rprop_delta_max=50.000000
rprop_delta_zero=0.100000
cascade_output_stagnation_epochs=12
cascade_candidate_change_fraction=0.010000
cascade_candidate_stagnation_epochs=12
cascade_max_out_epochs=150
cascade_min_out_epochs=50
cascade_max_cand_epochs=150
cascade_min_cand_epochs=50
cascade_num_candidate_groups=2
bit_fail_limit=3.49999999999999977796e-01
cascade_candidate_limit=1.00000000000000000000e+03
cascade_weight_multiplier=4.00000000000000022204e-01
cascade_activation_functions_count=10
cascade_activation_functions=3 5 7 8 10 11 14 15 16 17 
cascade_activation_steepnesses_count=4
cascade_activation_steepnesses=2.50000000000000000000e-01 5.00000000000000000000e-01 7.50000000000000000000e-01 1.00000000000000000000e+00 
layer_sizes=26 33 11 
scale_included=0
neurons (num_inputs, activation_function, activation_steepness)=(0, 0, 0.00000000000000000000e+00) (0, 0, 0.00000000000000000000e+00) (0, 0, 0.00000000000000000000e+00) (0, 0, 0.00000000000000000000e+00) (0, 0, 0.00000000000000000000e+00) (0, 0, 0.00000000000000000000e+00) (0, 0, 0.00000000000000000000e+00) (0, 0, 0.00000000000000000000e+00) (0, 0, 0.00000000000000000000e+00) (0, 0, 0.00000000000000000000e+00) (0, 0, 0.00000000000000000000e+00) (0, 0, 0.00000000000000000000e+00) (0, 0, 0.00000000000000000000e+00) (0, 0, 0.00000000000000000000e+00) (0, 0, 0.00000000000000000000e+00) (0, 0, 0.00000000000000000000e+00) (0, 0, 0.00000000000000000000e+00) (0, 0, 0.00000000000000000000e+00) (0, 0, 0.00000000000000000000e+00) (0, 0, 0.00000000000000000000e+00) (0, 0, 0.00000000000000000000e+00) (0, 0, 0.00000000000000000000e+00) (0, 0, 0.00000000000000000000e+00) (0, 0, 0.00000000000000000000e+00) (0, 0, 0.00000000000000000000e+00) (0, 0, 0.00000000000000000000e+00) (26, 6, 5.00000000000000000000e-01) (26, 6, 5.00000000000000000000e-01) (26, 6, 5.00000000000000000000e-01) (26, 6, 5.00000000000000000000e-01) (26, 6, 5.00000000000000000000e-01) (26, 6, 5.00000000000000000000e-01) (26, 6, 5.00000000000000000000e-01) (26, 6, 5.00000000000000000000e-01) (26, 6, 5.00000000000000000000e-01) (26, 6, 5.00000000000000000000e-01) (26, 6, 5.00000000000000000000e-01) (26, 6, 5.00000000000000000000e-01) (26, 6, 5.00000000000000000000e-01) (26, 6, 5.00000000000000000000e-01) (26, 6, 5.00000000000000000000e-01) (26, 6, 5.00000000000000000000e-01) (26, 6, 5.00000000000000000000e-01) (26, 6, 5.00000000000000000000e-01) (26, 6, 5.00000000000000000000e-01) (26, 6, 5.00000000000000000000e-01) (26, 6, 5.00000000000000000000e-01) (26, 6, 5.00000000000000000000e-01) (26, 6, 5.00000000000000000000e-01) (26, 6, 5.00000000000000000000e-01) (26, 6, 5.00000000000000000000e-01) (26, 6, 5.00000000000000000000e-01) (26, 6, 5.00000000000000000000e-01) (26, 6, 5.00000000000000000000e-01) (26, 6, 5.00000000000000000000e-01) (26, 6, 5.00000000000000000000e-01) (26, 6, 5.00000000000000000000e-01) (26, 6, 5.00000000000000000000e-01) (0, 6, 0.00000000000000000000e+00) (33, 4, 5.00000000000000000000e-01) (33, 4, 5.00000000000000000000e-01) (33, 4, 5.00000000000000000000e-01) (33, 4, 5.00000000000000000000e-01) (33, 4, 5.00000000000000000000e-01) (33, 4, 5.00000000000000000000e-01) (33, 4, 5.00000000000000000000e-01) (33, 4, 5.00000000000000000000e-01) (33, 4, 5.00000000000000000000e-01) (33, 4, 5.00000000000000000000e-01) (0, 4, 0.00000000000000000000e+00) 
connections (connected_to_neuron, weight)=(0, -3.25606622111163312994e+00) (1, -2.81170368267543402396e+00) (2, 3.32795964100742791558e+00) (3, 3.01711677263460975595e+00) (4, 1.94200927334757889042e+00) (5, -1.27618511735596018575e+00) (6, -4.87919204718733556803e+00) (7, -2.16139478343628255175e+00) (8, 2.59148672954104952737e+00) (9, -6.44593869929349083669e-01) (10, 2.99227824640113082566e+00) (11, 6.48000721954607961095e+00) (12, 2.65524459141287971775e-01) (13, 7.16003467931940207336e+00) (14, 2.85865422977767735802e+00) (15, 1.79509972023020503151e+00) (16, -1.19439514722333983698e+00) (17, -5.56292733218497481573e-01) (18, -4.92541566149131693209e+00) (19, -9.60725396797883268718e-01) (20, -1.00054768144872840985e+00) (21, 2.72767168967709139338e+00) (22, 2.64381088476736580972e+00) (23, -2.93921671459187072717e-01) (24, 5.83541552906717608806e-01) (25, 1.55825688999892286724e+00) (0, -1.46797765401508240046e+00) (1, 1.80503079614918293672e+00) (2, -3.42859380850928707751e-01) (3, -3.65610295350259739688e-01) (4, -1.37916511975146005575e+00) (5, -1.51622665691318325720e+00) (6, -2.69247870013836987368e-01) (7, 9.67107643145477258173e-02) (8, 7.92335034095268953003e-01) (9, -2.77181239035797000181e-01) (10, 8.88807039518525687782e-01) (11, -1.98924881609438330976e+00) (12, 1.97793626249505205550e+00) (13, -1.41310657077519152836e+00) (14, 1.79583383890762093849e+00) (15, 4.84890759795364112428e-01) (16, 2.82975307217349758560e+00) (17, 4.91900219719114062400e+00) (18, 3.84609070898811600259e+00) (19, -2.89676217518696821340e-01) (20, 1.70087743293327625649e-01) (21, 2.05776356129016635421e+00) (22, 4.08179258583626691781e-01) (23, -1.92784959904388419893e+00) (24, -3.00042930401533958218e+00) (25, 1.67215535272700255298e+00) (0, -1.62136065004747476070e-01) (1, -1.20721707522937177215e-01) (2, -4.07932344473464425505e+00) (3, 7.52362269515132298103e-01) (4, 1.46633783103977011208e+00) (5, -1.14567063999055185342e+00) (6, -4.85316934668853328105e+00) (7, -7.58384261963287009678e-01) (8, 2.60573577232796260716e+00) (9, 2.04454979031631545183e+00) (10, 3.15021879465859910852e+00) (11, 2.86444983643320538746e+00) (12, 1.01787122581230526919e+00) (13, 3.19987973918425883113e+00) (14, 1.40848762227576584927e+00) (15, 1.51041420108253787724e+00) (16, -1.09335896558333711681e+00) (17, -1.55008125302971744297e+00) (18, -3.31808144663277060360e+00) (19, 6.67865698335936452956e-01) (20, -3.39706012437605009424e-01) (21, -5.87646149141358820067e-01) (22, 7.76784444000437557243e-01) (23, -1.18247576479498173185e+00) (24, 4.15835415727969053001e-03) (25, 2.23318724909813282054e+00) (0, -2.15129486842396566715e+00) (1, 5.19928769692129755242e-01) (2, 2.73121400346686638017e-01) (3, 1.61031243374690968828e+00) (4, -4.50911607811861570028e-01) (5, -1.18615596695782898884e+00) (6, 1.29019861125673029889e+00) (7, -1.34878599622992800811e+00) (8, 2.76285130378574272925e+00) (9, 3.43684598712641165008e+00) (10, -1.76496948403366360481e+00) (11, -1.01425165349196122477e+00) (12, -9.79527940541808934266e-04) (13, 2.52988901115625974825e+00) (14, 3.07056811826082975969e+00) (15, 4.15309689152942507206e+00) (16, 2.52681843232344716110e-01) (17, -1.23895424211464688646e+00) (18, -2.87002708452436516851e+00) (19, -1.09554771439230425045e+00) (20, 3.36704488865456408320e+00) (21, 4.26441055918185973894e+00) (22, 5.30749330368151284176e+00) (23, 2.84484206255697102961e+00) (24, 4.97602944516613465709e-01) (25, 5.36062730767933759424e-01) (0, -2.89769201731685344114e+00) (1, 2.93906175696092653027e+00) (2, -4.32978223705859655013e+00) (3, 1.03001808917833681534e+00) (4, 1.54445245859538182742e+00) (5, 3.22480487882471633654e-01) (6, -1.92969958501866334366e+00) (7, 8.19543672700960734723e-01) (8, 1.17047824785472043274e+00) (9, 1.42332304216611849057e+00) (10, 3.12877181795966707867e+00) (11, 4.61792682463052805986e+00) (12, 1.08115547098620945476e+00) (13, 1.77646061740693994579e+00) (14, -5.02822008257716057678e-01) (15, 2.64289563940257099528e-01) (16, -5.27736928583283693150e-01) (17, -2.98069228545402131747e-01) (18, -1.23720906292685151051e+00) (19, 1.62592818264136540485e+00) (20, 7.15625119973784085126e-01) (21, 1.76659534923066496859e+00) (22, 3.16227822058367724622e+00) (23, 2.22075259735309837872e-02) (24, 7.51855100482537896944e-01) (25, 1.42256653187563419927e+00) (0, 1.35774284329066907695e+00) (1, -2.41543957636530248756e-01) (2, -4.13428627109764454395e-02) (3, -1.33447652779265268919e+00) (4, -1.46325729152086259077e+00) (5, -1.27143523626507493063e-01) (6, 2.91200438496972280333e+00) (7, -1.57141640711626173754e-01) (8, -1.57181330122150270112e-01) (9, 7.34357080552721641631e-01) (10, -2.21439580907530464415e+00) (11, -3.04770272863632118998e+00) (12, 1.22942325734564789075e-01) (13, 3.58903641355131475255e-01) (14, 1.43899383932086499804e+00) (15, 2.04249523913183850254e+00) (16, 8.51708719537383363019e-01) (17, -9.85319113018020331651e-01) (18, -1.04729880245651152393e+00) (19, -2.04579781455448328487e+00) (20, -1.53370483989090783394e-01) (21, 5.67866271778795561609e-01) (22, 3.72248972721806736796e-01) (23, 6.60912853147327616909e-01) (24, -1.91310411106065103581e+00) (25, -5.98981885345187925473e-01) (0, 6.44330150463810813477e-01) (1, 1.64269441463309040508e+00) (2, -3.65487198570086757599e+00) (3, -2.34654601064255174947e+00) (4, -5.14873575850823828048e-01) (5, 1.57675592983240542289e+00) (6, 3.58435941022518544941e+00) (7, 1.48646087410834737419e+00) (8, -1.83619030301997582244e-01) (9, 6.59230960231211082778e-01) (10, -1.42093533831044260829e+00) (11, -2.17789526663007482199e+00) (12, 5.75199187054317384593e-01) (13, -1.61577845826587984668e+00) (14, -3.14393475492459439913e-01) (15, 1.44326823604160492387e+00) (16, 1.16294384417544938159e+00) (17, -1.18873411571392151309e+00) (18, 5.94144747957717322961e-01) (19, -8.61240647064946629463e-01) (20, -4.09894698395265044688e-02) (21, 1.03477395070099609242e+00) (22, 8.08218761221835224617e-01) (23, 1.78063359516948904737e-01) (24, -1.88478473989507544495e+00) (25, 8.34051515913613816799e-01) (0, 3.88343109137536501851e-01) (1, -1.08687472493567605092e+00) (2, 2.16958072159637094245e+00) (3, 8.85689975734603507362e-01) (4, -3.52978484221895039141e-01) (5, -9.00103697907090882779e-01) (6, -7.63802633106404949004e-01) (7, -7.46150944443221719737e-01) (8, -4.28910633492841919523e-01) (9, -5.97656867449710693663e-01) (10, -3.35836653385449435127e-01) (11, 5.77193976167139854994e-01) (12, -6.94455171450965913493e-01) (13, 1.25990156127249663953e+00) (14, 3.71386109412168763377e-01) (15, 1.98125040688823028656e-01) (16, -7.52424427502690784664e-01) (17, -7.03172918792312140468e-01) (18, -1.18794053144340705508e+00) (19, -4.29682983826519260262e-02) (20, -2.04443673449635432426e-01) (21, -1.15042891653397139073e+00) (22, -7.79649104163124162525e-01) (23, 5.52459988878275076729e-01) (24, 1.59099893088847821332e+00) (25, -6.35568280945554731076e-01) (0, -2.12649551827688698680e+00) (1, 2.53009210010227203469e+00) (2, -1.45471953394880859634e+00) (3, -3.10073640816619033878e-01) (4, -2.21376825952795819319e+00) (5, -4.16260771031236220807e+00) (6, -6.44658372572264881661e-01) (7, -1.13671804357115907580e-01) (8, 2.50557810263353131219e+00) (9, 3.31220022109059630822e+00) (10, 7.71005242365699672291e-01) (11, -2.64404635732246484636e-01) (12, 1.11006289044705308555e+00) (13, 2.30367614339937043511e+00) (14, 2.69293814060665281929e+00) (15, 2.37001555495467464141e+00) (16, 1.18347241123313162703e+00) (17, 1.94105958739208861452e+00) (18, 6.40104462327766521312e-01) (19, 9.99271038155483903864e-01) (20, 3.91917891092572556744e+00) (21, 7.19633691799794039667e+00) (22, 6.19305928487103862778e+00) (23, 3.49486028579186758236e-01) (24, -2.39145182571596937038e+00) (25, 1.60684260662023126187e+00) (0, -7.04421168581258028141e-01) (1, 4.42220622466909407677e+00) (2, -4.09611108621249719874e+00) (3, -1.45071508212642341640e+00) (4, -1.82039346415208869168e+00) (5, -1.47445959113654079253e+00) (6, -9.86170110835122404325e-01) (7, 3.21573301958963997382e-01) (8, 1.10506450032606862166e+00) (9, 2.35891825146524958257e-01) (10, -4.16232149434436260460e-01) (11, -5.51313496971166649985e+00) (12, 1.35128283288902517612e+00) (13, -5.30248013683706442833e+00) (14, 1.59887585731644410458e+00) (15, 2.28466114736375069949e-01) (16, 2.37714799721548253331e+00) (17, 2.66023634696896493779e+00) (18, 3.93489481873560364988e+00) (19, 1.25038387369005388194e+00) (20, 3.21019077604106861656e+00) (21, 1.77581094139980599778e+00) (22, -1.67042915536493898065e-02) (23, -2.44017187755847730912e+00) (24, -3.76026913456104550093e+00) (25, 1.90986895001453604870e+00) (0, -4.01550461573092709600e-01) (1, 7.01125743243884214095e-01) (2, -2.96173492104707491990e+00) (3, -6.17206107661463665437e-01) (4, 2.24388411126418096941e+00) (5, 1.28530635853161445681e+00) (6, 3.06909671591913457700e-01) (7, -1.64102841682465888651e-01) (8, 1.97767518053493351893e+00) (9, 3.99411409910470727169e+00) (10, -1.10664906081510516778e+00) (11, -8.97671448210245137567e-01) (12, -1.16550208991134707226e+00) (13, 1.18099132891270941492e+00) (14, 4.80649457564932713893e-01) (15, 1.21620603259606019364e+00) (16, -8.07828922053835829509e-01) (17, -3.08773417761125079650e+00) (18, -2.88670468856863626783e+00) (19, 2.98228976627861741555e-01) (20, 2.47633429790705594797e+00) (21, 1.12455161948474557931e+00) (22, 2.30516133209703344420e+00) (23, -4.08134710029578573476e-01) (24, -1.06205945060831874471e+00) (25, 4.78352282944075613003e-01) (0, -2.53650501278609796785e+00) (1, 1.79115846311428050797e+00) (2, 1.39333641813482245198e+00) (3, 7.18688466540028270124e-01) (4, -1.12750379384928001159e+00) (5, -2.96512936554671613365e+00) (6, -1.75725118215875264482e+00) (7, 3.04914699681189893532e-01) (8, 1.53709784777032698599e+00) (9, -2.56085768704272631613e-01) (10, 1.59355491612368660448e+00) (11, 3.47544642620703447822e-01) (12, 2.95917182288214897223e-01) (13, -1.12507284763818549145e+00) (14, 1.68829736656568951680e+00) (15, -1.04822386236011644289e-01) (16, 2.42275714721017321196e+00) (17, 5.77039174538456212105e+00) (18, 4.34965239468945075174e+00) (19, 1.98559238529437598331e+00) (20, 1.74914123727292558641e+00) (21, 3.15608609788282645781e+00) (22, 7.30179838310461848394e-01) (23, -1.85019592263416576827e+00) (24, -6.74834723181906848133e-01) (25, 1.92877529722824081482e+00) (0, -2.09447156874885376254e+00) (1, -1.31434652915047767152e+00) (2, 4.04411673293852125255e+00) (3, 3.94207831844119294118e+00) (4, 3.93875025527745670217e+00) (5, 2.91274590644444897336e+00) (6, -4.88657688976544779536e+00) (7, -2.58046365006579625501e+00) (8, -9.27976387189260343291e-01) (9, -1.35393465295359227696e+00) (10, 1.08141528210971848978e+00) (11, 1.11029839331389790225e+00) (12, -2.69197923272171646403e+00) (13, -1.94707734941786414495e+00) (14, -2.31409078703932769017e+00) (15, -4.77395213638546689339e+00) (16, -2.16052289862732704862e+00) (17, 4.57057744032725241090e-02) (18, -1.84107006131389661086e+00) (19, 3.26778519849169446498e-01) (20, -5.32677373310597057632e-01) (21, -4.36622117042162471989e+00) (22, -3.13779054241965482674e+00) (23, -2.05224413489732926408e+00) (24, 3.72332819657466895791e+00) (25, 5.02169498556831572778e-01) (0, -2.47345780404796711238e+00) (1, 5.16641237654320928385e+00) (2, 4.37447142583903758606e+00) (3, 1.86081553706683222593e+00) (4, -5.02989969606386200240e-01) (5, 1.52762939788334106694e+00) (6, 6.03125532442986278525e-01) (7, 1.27750660955481459835e-01) (8, -2.98165181016495361987e+00) (9, -3.71774055403774239537e+00) (10, -2.37835746216172827516e+00) (11, 2.59179751740665931248e-01) (12, -5.22293298834498642691e+00) (13, -1.22576355348667198619e+00) (14, -2.34614002411966193762e+00) (15, -1.46308561990580998646e+00) (16, -2.93184846810440902232e+00) (17, -3.60619720392894338445e+00) (18, -1.17053817203288157422e+00) (19, 1.47609285304384241222e+00) (20, 1.27785354517425031595e+00) (21, 6.06710119587197116431e-01) (22, -2.53276170355895668962e-01) (23, 1.47469952508772261801e+00) (24, 4.63659082128068877893e+00) (25, 2.72697256123619335977e-01) (0, 8.80581329099512782888e-02) (1, 1.56355612613706784764e+00) (2, -2.75220563871703660652e+00) (3, -9.34250222361105886471e-01) (4, -9.61735609772095711989e-01) (5, 5.05525606740752531110e-01) (6, 1.46873370415223969410e+00) (7, 1.28340269213407531801e+00) (8, 3.96251023793449952404e-01) (9, -4.51420571966525963070e-01) (10, -4.75844275868816279917e-01) (11, -1.86402331095101203573e+00) (12, 8.73182754502187186141e-01) (13, -3.10497207502752958774e+00) (14, 7.70734052276663139658e-02) (15, 6.29437824293063052927e-01) (16, 9.50388195774841126884e-01) (17, 4.52010588312905414732e-01) (18, 2.22626941647189058315e+00) (19, 3.61988587493942859385e-01) (20, 4.51875490325728157437e-01) (21, 2.60814938424252129590e-01) (22, -3.64916956492591593175e-01) (23, -1.94995355210779326705e-02) (24, -8.09065017863566771084e-01) (25, 1.33837235576326518682e+00) (0, -3.68001491429562754831e+00) (1, 1.44859769192152354478e+00) (2, 3.74560540451168488829e+00) (3, 2.27804557675940974604e-02) (4, -4.61353517017377079412e+00) (5, -9.11277822827781469606e-01) (6, 1.05369220793758344712e+01) (7, 6.27234852466239800606e+00) (8, -9.20405843397846118448e-02) (9, -1.90034627738981765077e+00) (10, -3.42677211445230289755e+00) (11, 7.57997701956280245383e-01) (12, 1.43932048987293148556e+00) (13, 1.75934384539350596732e+00) (14, -6.11905517055847322783e-02) (15, 4.90064780628235485693e+00) (16, 1.94158324464448761582e+00) (17, 1.65851408345927091303e-02) (18, 3.57943987536294860874e+00) (19, 2.87440820703360910837e-01) (20, -2.36551316126096200509e-01) (21, 4.94122918964609247894e+00) (22, 1.37356774841135642617e+00) (23, 5.10768125587633470275e+00) (24, 2.64476876060780918820e+00) (25, -3.01549183170910684026e+00) (0, 1.06719285076826686520e+00) (1, 8.05950293929281635918e-01) (2, -1.35307392010476834621e+00) (3, -4.24813960225212672306e-01) (4, -7.32912256588615584896e-01) (5, 1.70451134815514726562e+00) (6, 3.42035722447890822018e-01) (7, 6.97622842598417003401e-01) (8, -1.96682792114475923917e+00) (9, -2.84597616939137054715e+00) (10, 1.70494699564012613946e-01) (11, 2.77964837855893320828e-01) (12, 6.44403731712938521170e-01) (13, -1.92695082767618264263e+00) (14, -1.73685481954260256821e+00) (15, -7.47792212357477392715e-01) (16, 3.14316876546117507374e-01) (17, -3.38785672862872255795e-01) (18, 1.08753272028585712405e+00) (19, 4.32215064449970820526e-01) (20, -2.09433801045168666022e+00) (21, -3.10616042485727028577e+00) (22, -2.61299968514885927462e+00) (23, 6.50113624839846471204e-01) (24, 1.55367014324223373656e+00) (25, -1.42026533683850958445e-01) (0, -6.99499441039165947842e-01) (1, -1.12516888331476283547e+00) (2, -4.03695887384554108479e+00) (3, -2.38186827764831310361e+00) (4, 1.46944523129561233077e+00) (5, 2.49505775707579563472e-01) (6, -1.42786449147407901172e+00) (7, 2.38336514485241357519e+00) (8, 1.02958260428803760611e+00) (9, -9.13305713482740255671e-01) (10, 5.53032924687029314725e+00) (11, 8.78521334744806914330e+00) (12, 1.04156109238647553994e+00) (13, 2.83862632383998203522e+00) (14, -4.61216472143383959814e-01) (15, 2.58363889471096452866e-01) (16, 5.08831772197129231228e-02) (17, 1.92286570552909563681e+00) (18, 3.74655213929715125154e-01) (19, 2.04280702367773558947e+00) (20, -2.90987566174689371579e+00) (21, -2.13827427200355835168e+00) (22, -2.20834448773922398246e+00) (23, -3.50620889682329606174e+00) (24, 2.14840487145434549943e-01) (25, 9.52808004614662751308e-01) (0, 2.14100759302282339647e+00) (1, -2.89280915467759136561e+00) (2, 5.73187043074671498388e-01) (3, 1.73316834629405525092e+00) (4, 3.78685525253079724450e+00) (5, -3.81881185706889170195e-01) (6, -1.03439790184012121443e+01) (7, -6.98160192913585930796e+00) (8, 1.03824385038471356246e+00) (9, 4.14350357798498492023e-01) (10, 2.13366062845073711784e+00) (11, -1.96591946839277342818e+00) (12, -1.08771168201230095107e+00) (13, -1.55566671630171371454e+00) (14, 2.30207596826428106951e+00) (15, -3.30389625097025474432e+00) (16, -8.88866697925294158011e-01) (17, 1.56820285025598771256e+00) (18, -2.46547884927305593905e+00) (19, -1.24096983222559620330e+00) (20, 2.11878086824853484327e-01) (21, -3.68346044852845544426e+00) (22, -1.95481636023838900584e+00) (23, -4.56918882980268215022e+00) (24, -1.97776083166378313649e+00) (25, 3.79495981354315059519e+00) (0, -9.61337959551155640803e-01) (1, 1.72232217699526291010e-01) (2, 1.95287819041834209699e+00) (3, 1.14783485071265345390e+00) (4, 3.64811061225574662092e-01) (5, -1.06700529754355999401e+00) (6, -2.36807472081062142522e+00) (7, -5.22847361184436310033e-01) (8, 1.59001690075731783036e-01) (9, -9.76452308083412434669e-01) (10, 1.88635231415248250109e+00) (11, 5.27844597713129748406e-01) (12, -1.57017237392396313833e-01) (13, -1.90504043942193401762e+00) (14, -4.29144288136470153372e-02) (15, -1.93333130024435062566e+00) (16, 3.98780074115969662696e-01) (17, 3.51886741878364350811e+00) (18, 3.15212506908663403493e+00) (19, 1.43979524817672799308e+00) (20, 7.55612895783936866501e-01) (21, 2.88455757468557782985e-01) (22, -8.73580759536636164420e-01) (23, -1.44309406736214573819e+00) (24, -2.14806979056398261382e-03) (25, 5.49084703345843139211e-01) (0, 1.05926670929251051656e-01) (1, -2.40811962140839552760e-01) (2, 2.08502764196665024699e+00) (3, 3.81251161293196111357e-02) (4, -6.00707289038115876956e-01) (5, -1.22556466492539506419e+00) (6, -2.16252762577066270921e+00) (7, -1.55385975645621710051e+00) (8, -8.97472130761826747403e-01) (9, -1.83290604547334368135e+00) (10, 1.57085043665825141446e+00) (11, -1.52821216374895940682e+00) (12, 4.82052622644884631864e-01) (13, -2.20024026464008315429e+00) (14, 1.67409338801966178778e+00) (15, -8.62680696653781220462e-01) (16, 2.67638067900136578103e+00) (17, 6.44485986629650309254e+00) (18, 4.39081440316852322781e+00) (19, -5.83017266430791880616e-01) (20, -6.48546590449286086688e-01) (21, 5.89714600344012240818e-01) (22, -1.06036556320909158835e+00) (23, -1.35824805034879081411e+00) (24, -1.73456621667679811161e+00) (25, 1.29451416958386661404e-01) (0, 1.82292019747579403521e+00) (1, -2.00794754352251780816e+00) (2, 3.18923834827568919437e+00) (3, -1.79493337690018317510e+00) (4, -2.22284092288551837768e+00) (5, -1.58876319714300967556e-01) (6, 3.67337025997347366157e+00) (7, 9.82929863135903580940e-01) (8, -7.34409843941928541788e-01) (9, -1.89662253387393398008e+00) (10, -2.68845533116359325376e+00) (11, -3.45612600845238526759e+00) (12, -3.09931383338502897118e-01) (13, -3.64375957020640628414e+00) (14, -2.32219372627996883951e-01) (15, -6.32315574690367587785e-01) (16, 6.47917249970036746021e-01) (17, 1.18411649488496406590e+00) (18, 3.35018282527705224538e+00) (19, -7.41891782015526524141e-01) (20, -4.36547444712751253615e-01) (21, -8.96094775369164375789e-01) (22, -2.95997949269173998843e+00) (23, 1.31451702081678389877e-01) (24, -5.03291186358557185443e-01) (25, -5.56179782366650665715e-01) (0, -1.60274747945210638278e+00) (1, -1.54010199553138577011e-02) (2, 1.58124955524545263152e+00) (3, 1.77058365438793274826e+00) (4, 9.09051301063767636101e-01) (5, -8.47165232406724810765e-01) (6, -3.24017388569134956455e+00) (7, -5.69318244025395214791e-01) (8, 5.52589648262807764389e-01) (9, -1.49097283651475542854e+00) (10, 1.70071437397525637714e+00) (11, 2.10580508357870810343e+00) (12, -4.52420548781479026079e-01) (13, -1.13718341272842082823e+00) (14, 1.35387588208935715633e-02) (15, -1.33893268574432311446e+00) (16, -3.94588485099555460328e-03) (17, 2.22729116971780927159e+00) (18, 1.62627406509374372590e+00) (19, 1.74919931828384633832e+00) (20, 4.19120825914257533196e-01) (21, -2.63074836733130423827e-01) (22, -1.32311096541490824663e+00) (23, -1.54186277871160037911e+00) (24, 1.10951613072249943848e+00) (25, 1.21941699230064570791e+00) (0, -3.13194113865496115423e-01) (1, 5.00944773366306161932e-01) (2, 4.58736872885908142372e-01) (3, 1.08036607166049347661e+00) (4, -1.88503891557026781456e+00) (5, -4.27557356239391783692e-01) (6, 2.76305872278609232495e+00) (7, 6.62438898959949673539e-01) (8, -9.47127860644599750550e-01) (9, 1.51362190972775589870e-01) (10, -1.82374007459007825283e+00) (11, 1.21591937156193652392e+00) (12, -1.37764180210030923179e-01) (13, 2.37339127853648079736e+00) (14, -5.65549722077342442716e-01) (15, 1.66782212793237483162e+00) (16, -1.12634315746176638662e+00) (17, -3.65403600647928783474e+00) (18, -3.20717924594264225391e+00) (19, -3.63720728612677082769e-02) (20, 1.12637615606876817509e+00) (21, 1.65879297556384708301e+00) (22, 3.52149319571003083240e+00) (23, 3.67120850016044730779e+00) (24, 3.48326438327507847958e+00) (25, -6.96752338422356620740e-01) (0, -8.01729193817803609257e-01) (1, -9.67281011767014642366e-01) (2, 2.44251830032580663499e+00) (3, 6.24057069676538067604e-01) (4, -3.27208630712297943166e-01) (5, -1.06119088122063187640e+00) (6, -5.81025524735574117052e-01) (7, -1.66856238710532206460e-01) (8, -1.34878109610804347573e-01) (9, -1.54827347319256736213e+00) (10, 7.04580729583032749908e-01) (11, 2.20038369477423367826e+00) (12, 2.86870686716961198481e-01) (13, 2.40626260878179509817e+00) (14, 6.59539811960866861895e-01) (15, 1.29922690484840591685e-01) (16, 3.12251130720495539972e-01) (17, 1.13207374940469507330e+00) (18, -3.53533571645695487984e-01) (19, -2.29462820982504173140e-01) (20, -1.37491976647962110825e+00) (21, 2.00878446228974522070e-01) (22, -2.32022231042103010967e-01) (23, -3.19191260178283975346e-01) (24, 4.17671549871619363081e-01) (25, -3.02489976771198654237e-01) (0, -2.15628535644950636296e+00) (1, -8.41083362949537893805e-01) (2, 3.76111471077006598307e+00) (3, 2.49520013572910182020e+00) (4, -4.45735853378827151516e-01) (5, -1.79712265891710964993e+00) (6, 9.53034297342920000418e-01) (7, -4.98641173861578190785e-01) (8, 1.29168947188508131951e+00) (9, 1.84251329698265764456e+00) (10, -1.63187711712955052512e+00) (11, 1.48177628218379897618e+00) (12, -1.04057164877276608905e+00) (13, 3.37941579260554147979e+00) (14, 6.81728211241508064155e-01) (15, 1.14984974769169823183e+00) (16, -2.02587117459284371535e+00) (17, -3.05936097250532235137e+00) (18, -3.82946724014596640018e+00) (19, 8.61537782967971288439e-02) (20, 2.27697503312231042116e+00) (21, 2.11605061623360857226e+00) (22, 3.13720858692227055897e+00) (23, 1.52371885521281824616e+00) (24, 2.69065635447627249377e+00) (25, 5.25074931778592574050e-02) (0, 1.82224370858076878399e+00) (1, -8.27775920661728781269e-01) (2, -1.48093085954478631550e+00) (3, -5.29546912585152296238e-01) (4, 7.87472884754532698182e-01) (5, 2.43967535127991475008e+00) (6, 1.11159479935832350428e+00) (7, -3.42680949149300417833e-01) (8, -1.02566512709959978267e+00) (9, -2.21166126375984428698e-01) (10, -1.49461636833194155827e+00) (11, -1.83311790478568181761e+00) (12, 2.70538401710014864143e-01) (13, -6.13736425465211121733e-01) (14, -3.95848067373645917666e-01) (15, 5.17761961812752913303e-01) (16, -4.31767000502328190947e-01) (17, -2.45853045210568676993e+00) (18, -1.28397216725355134415e+00) (19, -1.32772179529588352231e+00) (20, -1.08931012335148502679e+00) (21, -2.70156469979673108384e+00) (22, -1.64998046549609189704e+00) (23, 4.79800785518674444141e-01) (24, -2.55009936357733613121e-01) (25, -6.39616466893326851562e-01) (0, 1.63772003091083262483e+00) (1, -1.96565131610838084164e+00) (2, 4.71584811190924324542e-01) (3, -9.61239295194898146768e-01) (4, -3.59572896551120180231e-01) (5, 5.09406138663888286011e-01) (6, 2.23193483509081458394e+00) (7, -1.94677176549205882550e-01) (8, 9.47377187382411167782e-01) (9, 1.63848757249347642961e+00) (10, -2.31231012816529357679e+00) (11, -1.13747885947083027247e+00) (12, -3.21462938398707376297e-01) (13, 1.76624065208511926706e+00) (14, 1.09744598774913448835e+00) (15, 1.38084810433287707987e+00) (16, -1.03819126139809281284e+00) (17, -2.95132260009923808042e+00) (18, -3.22296733589132644582e+00) (19, -1.66945187642078041179e+00) (20, 1.07855314933188624338e-02) (21, -9.98897272224023580200e-01) (22, 2.45882751691008455408e-01) (23, 1.52776091595629814890e+00) (24, 8.32524998322152626207e-02) (25, -5.18638409962680846377e-01) (0, 7.93339364213415798588e+00) (1, 3.80446126878410506578e+00) (2, -4.77298211313023212909e+00) (3, -2.96190142883896934123e+00) (4, -4.88691003606858576092e+00) (5, -4.58396263642978496478e+00) (6, 2.00269685267480523905e+00) (7, 4.88728579265671592147e-01) (8, -7.60403153229440142979e+00) (9, -1.16362806075152036556e+00) (10, -3.01072446877517618802e+00) (11, -7.08428271780938612068e+00) (12, 9.35085726648910986469e-01) (13, -9.17687844485731751831e+00) (14, -2.19346354529781484288e+00) (15, -1.29289849930867539740e+00) (16, -4.24677438222227188191e+00) (17, -3.23739210362976770341e+00) (18, 3.06980080341227212770e+00) (19, -8.97008967408865487414e-01) (20, 2.26684891099987989582e-01) (21, -2.47777199788654156620e+00) (22, 7.54022105789800223263e-01) (23, 2.35208637085749794338e+00) (24, 2.16483610826183880960e+00) (25, 8.11648098949931534607e-02) (0, 2.08335506863436270564e+00) (1, -3.07834679836840852118e+00) (2, 7.39463227393240274399e-02) (3, 4.29541866751127265900e-01) (4, 1.95296220305536993855e+00) (5, 2.58649677243456155296e+00) (6, 5.25577139803797610540e-01) (7, -6.06298385870993716829e-01) (8, -6.75841700860682514929e-01) (9, 2.97565276241682885594e-01) (10, -8.87103775165829167015e-01) (11, 1.27234437408882272713e+00) (12, -1.39397783540859188101e+00) (13, 1.01835484757972216663e+00) (14, -1.58206634713344951315e+00) (15, -4.64614742423064552845e-01) (16, -2.72531699349080547279e+00) (17, -5.58463813541554987552e+00) (18, -4.78409827315597624420e+00) (19, -1.13258870875332817718e+00) (20, -9.31472899102420925921e-01) (21, -3.06572193339277321300e+00) (22, -8.53767895731891379718e-01) (23, 1.98143672951014826467e+00) (24, 2.33629245557464138017e+00) (25, -1.33404657618151190057e+00) (0, 1.46024215461337342203e-01) (1, 1.02723665871984692899e+00) (2, -5.39881790516681614456e-01) (3, 5.65659718282734536032e-01) (4, -1.06160963984066358812e+00) (5, -6.07363873849054436427e-01) (6, -1.32691936249384201396e+00) (7, -9.23393020830960753464e-01) (8, -1.05326802580387113295e+00) (9, -1.00409652147317229876e+00) (10, 9.83697127894870404496e-01) (11, -1.83402589605763188807e+00) (12, 1.09879428626825470516e+00) (13, -1.44334832539092072778e+00) (14, 8.65941984293689070995e-01) (15, 6.70071667049339847466e-01) (16, 1.05822240009028822882e+00) (17, 2.11282490606778550202e+00) (18, 1.98632317475408948226e+00) (19, -8.18906663192788819572e-01) (20, -5.38044468116606555697e-01) (21, 1.50698906861043868677e-01) (22, -1.94400436191800557451e-01) (23, 1.76033298558933848366e-01) (24, -7.31590786179957319746e-01) (25, 1.72033893586072100801e-01) (0, -1.57550869682579186559e+00) (1, 1.26558567163058821592e+00) (2, 2.96696312063461853370e+00) (3, 4.12274587094507594109e-01) (4, -1.51859086997891346016e+00) (5, -1.00250543068706265970e+00) (6, 1.89231388769895181312e+00) (7, 2.25177382400425685205e+00) (8, -1.25042661733658144740e+00) (9, -2.96020271780977894949e+00) (10, 1.94071714273854079025e+00) (11, 2.10982739918166029014e+00) (12, 6.30617861099442733597e-01) (13, -2.69478843519497290870e+00) (14, -2.37975927394925657055e+00) (15, -3.10956217468386952874e+00) (16, 1.25889572416542594446e+00) (17, 5.30259298528239497728e+00) (18, 6.09667265664106050593e+00) (19, 1.00101195041239932060e+00) (20, -1.57760080053591078553e+00) (21, 4.50822034849467478956e-01) (22, -1.85579100164917365490e+00) (23, -1.29494917913851059765e+00) (24, -2.15430087946731685378e-01) (25, -1.28645634489870402950e-01) (26, 8.10414557822557779510e-01) (27, 1.45700471268481457354e-02) (28, 3.02303742795110574892e-01) (29, 8.86430821139508884343e-01) (30, 1.13961931174958341906e-01) (31, 4.44419350597120121904e-01) (32, -1.61524614440058333908e-01) (33, 1.53314910315339114621e-01) (34, 4.65949974735207439469e-01) (35, -5.61398848716440301843e-01) (36, 7.04768526833570441159e-02) (37, -3.16449246651685722753e-01) (38, -1.63869841151120088085e+00) (39, -7.51492298663281377280e-01) (40, -3.13047367280241961573e-01) (41, 9.57395758690478770880e-01) (42, -4.27103905371575609529e-01) (43, -5.39700690608490796230e-01) (44, -4.29042594365740936890e-01) (45, -1.95755085976760501154e-01) (46, -2.98080057216156213418e-01) (47, -3.42942462856572205521e-01) (48, -3.02888846686491963744e-01) (49, 5.74968106760542774225e-01) (50, 2.29799178085457606047e-01) (51, 5.99941836261381422624e-01) (52, -1.76938298144271935475e-02) (53, 3.79683826142416136484e-01) (54, -3.10379032944469002153e-01) (55, 1.01408689677867897005e-01) (56, 8.98671268620510471647e-02) (57, -6.33136098085697929250e-01) (58, -5.90174232153527977829e+00) (26, 1.13365958225201596266e-01) (27, -4.70916017720305127292e-02) (28, 2.79467078055819273530e-01) (29, -1.01986805118330206565e-01) (30, 2.43439968587289085056e-01) (31, -3.58510493598499291323e-01) (32, -4.34323259840556030742e-01) (33, 1.02775216975296873612e-01) (34, -1.76923960497624349619e-01) (35, -2.51720311333940127696e-01) (36, 3.79117057152440622980e-02) (37, 3.16683413241826583473e-01) (38, 1.63011945773776145696e-01) (39, 4.79400544053204646922e-01) (40, -6.27815215131602016863e-02) (41, 1.19106690359840206028e+00) (42, 2.32646158346189901867e-01) (43, 1.15554554075043558470e-01) (44, -4.14316082228608051352e-01) (45, 1.69653022264215108672e-01) (46, -4.84939417828413529832e-02) (47, -2.06559473570784885021e-01) (48, 3.60787420227714539234e-01) (49, 2.12003464637088023803e-01) (50, 2.40901804859530097036e-02) (51, 2.43520782622070192103e-01) (52, -1.84744185522864007298e-01) (53, -1.08721054817205856069e-01) (54, 2.19629438959786238428e+00) (55, -7.76834909855838029458e-02) (56, 4.35908216820256461110e-02) (57, 1.49815485159068034759e-01) (58, -6.06358510939553507768e+00) (26, -1.34491652003310524499e+00) (27, 6.00209480830627750692e-01) (28, -3.96671046170156693655e-02) (29, 2.49765597804625649747e-01) (30, 4.32640157783949416692e-02) (31, -5.01890574928369193053e-02) (32, 2.12303963435766795964e-01) (33, -2.66654580478220715190e-01) (34, 1.78470672144875386333e-01) (35, 1.39320569835336938169e+00) (36, 4.89722381665140871210e-01) (37, 6.35759457628529700557e-01) (38, 1.89665147708368286850e-01) (39, 8.55052989712028144176e-01) (40, 2.71321282468108992969e-01) (41, -8.67759744114924846947e-01) (42, -2.99935051116750839295e-01) (43, -1.67125467839381758317e+00) (44, 9.92932174577513038116e-01) (45, 2.22963608697936299663e-01) (46, 5.98965790816356813409e-01) (47, -1.17263309147713323810e-01) (48, -8.03327135537019454414e-02) (49, -6.09790936351071288790e-01) (50, -6.01238395175438977702e-01) (51, -7.21680447357143095566e-01) (52, -7.34429831265797916640e-02) (53, -2.62471942190963258845e-01) (54, -3.51693773066614645550e-01) (55, -7.55491818718480701023e-01) (56, 2.58358015844880439804e-01) (57, 1.58268796845757106495e-02) (58, -7.03525740713914693458e+00) (26, 3.06334287449170072914e-01) (27, -3.22584443312398730375e-02) (28, 1.12718326188428230594e+00) (29, 7.23336703635847455551e-01) (30, 8.23241550914268760408e-01) (31, 1.13953630535904043564e-01) (32, 7.36799128519176338425e-02) (33, -9.55044204561189408187e-02) (34, 7.09911390246427465023e-01) (35, 5.89231745059034417444e-01) (36, 2.76431767793298699409e-01) (37, -1.64677354015359767025e-01) (38, -2.40986173400022596347e-01) (39, -3.74249716064352588862e-01) (40, 2.02601556448300273994e-01) (41, -6.56536771489319326278e-01) (42, 5.10962822920778964031e-02) (43, 3.28031620790967870516e-01) (44, 1.08119222130783598779e+00) (45, -3.57610375980057848544e-01) (46, -1.86812651244958938257e-01) (47, -4.50201023285743961999e-01) (48, -1.51196398628356154514e-01) (49, 3.31145410551322072479e-01) (50, -3.09078741401218715090e-01) (51, -3.47724393237901288622e-02) (52, 1.62173924843519029482e-01) (53, 1.46687827570351203565e-01) (54, 3.26044125311704680037e-01) (55, 1.34340342019902275750e-01) (56, 2.55540872568967791789e-01) (57, -1.05468798086738524411e+00) (58, -3.07694133347641729515e+00) (26, -8.61858143745750759912e-01) (27, -7.33464297989775526609e-01) (28, -2.02424974654554612474e-01) (29, -1.06349382767955469298e+00) (30, -3.08061395380220759410e-01) (31, 1.76504971710490149439e-01) (32, 2.19561457479777177859e-01) (33, 2.70172104189190867563e-02) (34, -2.21785717416017558179e+00) (35, -9.11223670855016765202e-01) (36, 4.57536200647217991544e-03) (37, -1.17372239076460016527e+00) (38, 7.05836877098072634773e-01) (39, -1.19105738590751153438e+00) (40, -4.98936228266689887900e-02) (41, -4.52427443814785668064e-01) (42, 3.85289268517179928075e-01) (43, 9.15977132129654203485e-03) (44, -5.20972312282108052095e-01) (45, -4.17664522468164656210e-01) (46, -7.27682729594410937501e-01) (47, 1.29870424065562373173e-01) (48, -3.89364767743716977400e-01) (49, 1.27698574646628981721e-01) (50, -1.49489069404792146445e-01) (51, 1.68641279344780764538e-01) (52, 5.18852625567830294528e-01) (53, 3.88062548115321259701e-01) (54, 2.65837506087435482272e+00) (55, 1.08714177510646226033e+00) (56, -2.81484436320081132799e-01) (57, -4.09177039726160596267e-01) (58, -7.23293073126073604584e+00) (26, -8.42021742584350585403e-01) (27, 6.38096494132460501092e-01) (28, -1.07962634167051430012e-01) (29, 7.21697193208723386526e-01) (30, 2.70652457393699752419e-01) (31, 3.55160913128500177471e-01) (32, 3.60464917548616370357e-01) (33, -2.54891849578801177323e-01) (34, 1.15261157369161182373e+00) (35, 6.17818443876734013642e-01) (36, 1.91300142124658817400e-01) (37, 6.72079319901432548079e-01) (38, -1.46284475515728740191e+00) (39, 4.48323395438520844181e-01) (40, 3.15657833325988512740e-01) (41, 4.27397953752099712954e-01) (42, -1.99634659799276248382e-01) (43, -5.15093129284321826766e-01) (44, -1.45305268176708146655e+00) (45, 1.86138869955516012000e-01) (46, 4.51674434476601188715e-02) (47, -1.01980524188027554811e-01) (48, -3.19767844947545010204e-01) (49, 4.60867283348123879527e-01) (50, -2.47249941536115319662e-01) (51, 1.63307099408904754512e-01) (52, -2.29171349535820634280e-01) (53, -1.48230820474403481024e-02) (54, 1.51685794892303515979e+00) (55, -9.29010579749374509895e-01) (56, 1.44905830551741832135e-01) (57, 4.15482066749436163011e-01) (58, -5.78374131399439050938e+00) (26, 6.71812798109401643210e-01) (27, -4.24945084280781912311e-02) (28, 5.29113386833625853889e-01) (29, -6.73286307824813440304e-02) (30, 9.91820574730294390875e-01) (31, -2.91052334427830239338e-01) (32, -5.70094323756113185997e-02) (33, -1.19144784236115797160e-01) (34, 2.51342033546639809227e-01) (35, -3.91649722791392151944e-01) (36, 5.55924095501592385737e-01) (37, 3.25241682932638720427e-01) (38, 1.25855582223620171556e-01) (39, -9.39385414279342190191e-01) (40, 4.45445949529550619395e-02) (41, 1.40100621009761749924e+00) (42, -9.31422468250814455937e-02) (43, 1.30193584077563806467e+00) (44, -1.13252725607259185914e+00) (45, 2.35831787281236826548e-02) (46, -6.60537234034669906713e-01) (47, -5.57763277714582783595e-01) (48, 1.62689373733129444277e-01) (49, 3.85510819302465945757e-01) (50, 4.68518413402582989402e-02) (51, 4.22826176992528168785e-02) (52, -2.76325723393807398676e-01) (53, -3.27045356870996450915e-01) (54, -1.92852270778124212924e+00) (55, -2.27849862909772493680e-01) (56, -1.88142431082621963689e-01) (57, -7.89137066330995728958e-03) (58, -6.14208670101760567661e+00) (26, 2.39365744054763324167e-01) (27, 2.07993293490690539516e-01) (28, 3.76562470764081058672e-01) (29, -1.41991144238388811161e+00) (30, 5.02791196747730317895e-01) (31, -1.60407445159892775299e-01) (32, -1.09668655599810510592e-01) (33, -2.22734824734649762557e-02) (34, -2.50730002675322027894e-01) (35, 3.95772768315636291891e-01) (36, -2.95673101234048385511e-01) (37, 1.89316797255302815550e-01) (38, 4.87411666749625605011e-01) (39, -5.49473431501906750540e-01) (40, -1.49534164319704593327e-01) (41, -1.06747299592122457668e+00) (42, 1.89736333268604229207e-01) (43, 1.36313138743726103286e+00) (44, 1.75619219368847145901e+00) (45, 3.66005635034899468039e-01) (46, 6.56067524395572698737e-01) (47, -7.04875011437139376014e-01) (48, 2.01491533212348639115e-01) (49, -9.51143033833030115964e-01) (50, 2.14922137818371494777e-01) (51, -1.14495183555917789953e+00) (52, -7.96497139792195496533e-02) (53, -3.98068067532660885277e-01) (54, -1.20032784180167895194e+00) (55, -2.11288377325222015424e-01) (56, 1.79143055667617651094e-01) (57, 7.36502534742665693202e-01) (58, -6.89012899462843009246e+00) (26, -1.73528367763102409072e+00) (27, -1.65272568208885473062e-01) (28, -7.90660382011745488384e-01) (29, -9.50757025646528419749e-01) (30, -9.11958884678604420060e-01) (31, 1.85837740538288220815e-01) (32, 2.90724665173699103882e-01) (33, 1.37484306133242778492e-01) (34, -1.34653037300631628348e+00) (35, 3.60158920128051396325e-01) (36, -7.42529211894384255643e-01) (37, -1.97775798478719955220e-01) (38, -1.17570295873492480787e+00) (39, 1.77216472190894286376e-01) (40, 2.30086103399287089655e-01) (41, 2.67373220973566194658e-01) (42, 8.50593934257080075412e-01) (43, -4.16205423001687113693e-01) (44, -6.44690242556480885838e-01) (45, 1.21630887393701758725e-01) (46, 4.43475089625816387695e-01) (47, 7.34916889458950284286e-01) (48, -7.87885970776543986815e-02) (49, 8.98498454915396815856e-02) (50, -3.02620009624360621070e-02) (51, -8.56187255690243675943e-01) (52, 2.94972329929230503431e-01) (53, -1.40477883676275283609e-01) (54, 8.75963023405965102164e-01) (55, 1.52742776656597994966e-01) (56, 4.57443119000412234954e-01) (57, 6.97743203613846452171e-01) (58, -6.96224279996739969789e+00) (26, -1.51012540157145509073e-02) (27, 1.27822310893700663570e-01) (28, -8.78840743460174503299e-03) (29, 7.59420670358569444014e-02) (30, 1.92113140460058173797e-01) (31, -3.49753110086132995571e-02) (32, 9.12363133665421849328e-02) (33, 2.41067166495600657128e-02) (34, 1.25439162813147930819e-01) (35, -2.58005667580431599650e-02) (36, -1.14848113175245722384e-01) (37, 5.39033514820877190932e-02) (38, 2.49268071453783018887e-01) (39, 1.80622116937526305813e-01) (40, 3.04536196501995148900e-01) (41, -1.62031334364867089619e-03) (42, 1.17909467156567318580e-01) (43, 1.19481480046476545853e-01) (44, -1.20355963388238257350e-02) (45, -1.44242909020526832720e-01) (46, 6.11990110834018455344e-02) (47, 7.03912752236324212873e-02) (48, -1.22712483824823116729e-02) (49, -5.39713551860379753267e-02) (50, -3.83532489194597925319e-02) (51, -2.84150729009639800571e-02) (52, 1.15830362312729459595e-01) (53, 1.82486753749607107100e-02) (54, -8.05067661515727617250e-02) (55, 2.16710705200085562705e-01) (56, 1.45052771564587623665e-01) (57, -6.22706568143918531844e-02) (58, -5.45278533222478500875e+00) 
